106 30
90 0.37648287 -0.14256874 0.4357241 -0.17818087 0.11566343 -0.14419748 0.43300673 0.059309967 0.046246037 -0.0423119 0.27157947 0.10845482 0.3243789 0.04090914 0.5059239 0.068929724 -0.008740291 -0.10861128 -0.20288762 0.32151875 -0.21433207 -0.291718 0.11152687 -0.46839625 0.071832344 0.01722829 0.16987658 0.061811533 -0.7121446 0.34875295
78 0.23516868 -0.009334673 0.5314463 -0.12226651 0.12204762 -0.051294703 0.45988223 0.12330804 0.013174918 0.014230765 0.31665498 0.20610406 0.38739818 0.025717773 0.5226739 0.03126349 -0.023109848 -0.057088364 -0.2350379 0.30060983 -0.17547122 -0.24029645 0.020486435 -0.42208365 0.09167837 0.072020344 0.14084311 0.053430308 -0.6382243 0.37506905
56 0.3882865 -0.00074392406 0.4005684 -0.100884914 0.20210297 -0.1671078 0.35018718 0.06153524 -0.023700923 0.02858196 0.3115428 0.17773874 0.39697173 0.0051029045 0.5261041 0.13103111 -0.019834572 -0.038287845 -0.10523759 0.33462086 -0.08220833 -0.027545594 0.12003207 -0.42349508 0.0069013867 0.040241696 0.1263463 0.10183555 -0.6053242 0.26758826
57 0.30916202 0.021863393 0.46406576 -0.12425827 -0.0072834934 0.017254716 0.51190305 0.12789169 0.08954549 -0.057980657 0.31406382 0.1751728 0.49817154 0.11866805 0.4918547 -0.06673932 -0.027997125 -0.1336746 -0.29657623 0.28325242 -0.22987674 -0.3236823 0.044950042 -0.40309435 0.033615407 0.008845286 0.11215489 -0.06141448 -0.7007202 0.4160504
26 0.4169885 0.24460305 0.5781165 -0.014348119 0.25177717 -0.16794145 0.10471586 0.117525 0.013612973 -0.1265257 0.32650363 0.24390976 0.47304612 0.02063518 0.45968214 0.04399175 0.013689846 0.16661881 -0.010754615 0.34668 0.011904245 0.18561727 -0.012063589 -0.45439732 -0.13744298 0.27444562 0.16549666 0.1550412 -0.5136446 0.26713452
61 0.5370513 0.10103796 0.37899935 -0.010199415 0.28069282 -0.31911138 0.059003673 0.05679296 -0.045971483 -0.12876879 0.3613976 0.1631865 0.41718853 0.07483826 0.49165148 0.20910272 -0.015668105 -0.042306967 0.13482645 0.44087604 0.035403598 0.2789606 0.16261767 -0.46477437 -0.107986346 0.17405805 0.20494582 0.25635895 -0.50912064 0.20199658
104 0.48788413 -0.08537325 0.37011036 -0.10796404 0.10977081 -0.2668699 0.3207814 0.055713546 0.052463923 -0.124436334 0.29777712 0.14293873 0.42170808 0.11747981 0.4698582 0.03802781 0.03205553 -0.06720482 -0.008038415 0.3055861 -0.11872613 0.02655874 0.05665595 -0.40655005 -0.19966897 0.13315463 0.02107607 0.08421163 -0.6060648 0.33365884
101 0.43331802 0.049046338 0.41784233 -0.00084487966 0.23872295 -0.21408664 0.20412157 0.0210063 0.07685887 -0.111679666 0.327059 0.19260086 0.40510494 0.07367933 0.47347343 0.20349966 -0.11749315 -0.17216243 0.018721072 0.40953794 -0.16601445 0.024165336 0.15455699 -0.44281694 -0.15718974 0.08536691 0.11333848 0.0641871 -0.53189886 0.2593228
96 0.29458672 0.040428255 0.4517541 -0.07004909 0.12854457 -0.057056334 0.337471 0.0550788 0.0682612 0.011103102 0.32359308 0.21807492 0.31967157 0.018499592 0.48828214 0.19419147 -0.083644316 -0.18273488 -0.20270823 0.39368162 -0.22831282 -0.2522548 0.20031215 -0.40903282 0.12579377 0.017550487 0.17782882 0.12393336 -0.6469787 0.3371954
59 0.4974943 0.19757685 0.47957626 0.09936548 0.4240032 -0.3100901 0.018128738 0.11240607 -0.04645344 -0.037194163 0.3941547 0.22158472 0.47674596 -0.107382655 0.53068364 0.26806775 -0.14166039 0.0458754 -0.015601247 0.47608837 0.047280144 0.33235607 -0.019552398 -0.36017206 -0.15444393 0.38864285 0.15292995 0.21470717 -0.4530865 0.1475235
10 0.48486024 0.027981844 0.43677866 -0.0788732 0.19547331 -0.26345846 0.21631034 0.076141566 0.04376274 -0.10687875 0.35584348 0.16524675 0.34816438 0.012564274 0.4645254 0.1986026 -0.020327676 0.026264267 0.07915374 0.34352988 -0.13787258 0.1235823 0.08710996 -0.43625218 -0.07670991 0.19938676 0.10771144 0.1989135 -0.53515124 0.2133752
8 0.4855452 0.007814833 0.3708972 -0.069157034 0.1754871 -0.24861547 0.2126962 0.020235902 0.1122548 -0.21377432 0.3259894 0.20527647 0.3658278 0.0010989846 0.47711593 0.19501111 -0.001613394 -0.056269478 0.018903675 0.34941733 -0.078492895 -0.044716015 0.19998723 -0.47127163 -0.18774952 0.13975899 0.054766346 0.0498745 -0.5953168 0.3013216
11 0.49373412 0.24092768 0.3848019 -0.13358344 0.09055907 -0.14738174 0.20981334 0.17527144 0.26078713 -0.2723699 0.1859142 0.28210258 0.460191 -0.024116177 0.45759222 0.15899174 0.07840122 0.13331424 -0.05614746 0.1725524 -0.07581371 0.053214457 0.112810254 -0.5345245 -0.21845785 0.07000617 0.0056284545 -0.00423712 -0.65235716 0.36713555
39 0.33149683 0.0037393894 0.43649438 -0.07572697 0.16455899 -0.16644734 0.3565935 0.1390079 -0.00518184 0.05121394 0.30054936 0.18874995 0.40234622 -0.011864713 0.5474384 0.064064704 -0.0037211648 0.07832699 -0.17916395 0.3174628 -0.15953764 -0.15261266 0.06647934 -0.42843032 0.0659479 0.026874334 0.14950517 0.046324804 -0.62081826 0.36832663
15 0.5456702 0.074075 0.35283068 -0.04870467 0.23571712 -0.35446635 0.0691508 0.05587107 0.0641382 -0.13689998 0.3786833 0.15264004 0.41809744 0.009186383 0.45309612 0.20217381 0.05319425 0.04644192 0.15489024 0.38534307 -0.013257874 0.18420283 0.10002351 -0.46865845 -0.20852554 0.15962309 0.17163253 0.1743733 -0.5371725 0.26390338
41 0.40901628 0.042078856 0.50067383 -0.03131125 0.15449843 -0.21483192 0.21305832 0.113991655 0.07540914 -0.101932004 0.36887145 0.18583725 0.4036622 -0.001467461 0.5352646 0.15391384 -0.09835566 -0.040001366 -0.045383535 0.33483207 -0.049183484 0.043459613 -0.021032907 -0.43026733 -0.12492685 0.16068426 0.13503729 0.1515515 -0.5558456 0.261779
23 0.48291466 0.12417325 0.42676723 -0.011975436 0.16349378 -0.2786635 0.15535532 0.106222264 0.054950066 -0.16639239 0.32982463 0.19891223 0.45361468 0.054378938 0.46443892 0.1294857 -0.012136746 0.088072196 0.018668082 0.31590208 -0.0017892325 0.20106182 0.071652964 -0.5011023 -0.13856123 0.15610513 0.14835373 0.15624219 -0.53309876 0.22955064
28 0.34780422 -0.0038284764 0.41382402 -0.14724094 0.09445609 -0.0036139598 0.4602122 0.037651926 0.028026102 0.010151261 0.30326116 0.19467059 0.4658264 0.107273765 0.4777691 0.032333933 -0.025601592 -0.12946233 -0.17756817 0.3247619 -0.1597921 -0.19665286 0.0226374 -0.4075586 -0.034367803 0.041654527 0.06735354 0.02056657 -0.6472808 0.3575982
29 0.5431254 -0.05775809 0.38784352 -0.12088383 0.1737536 -0.24531624 0.31460658 0.07288718 -0.02763194 -0.0724158 0.32376215 0.08910875 0.39302024 0.019584551 0.50453824 0.11410218 0.047870535 0.03387936 0.08439467 0.36641455 -0.123629704 0.08394626 0.07082894 -0.3943966 -0.08309172 0.1685896 0.09487904 0.1717062 -0.55023676 0.2617665
4 0.40883568 -0.07140377 0.3609175 -0.13883808 0.07083742 -0.16729377 0.36543813 0.08610855 0.12296985 -0.11892056 0.25191656 0.18521567 0.40007833 0.094477355 0.4882824 0.040051702 0.022559166 -0.04255265 -0.14243127 0.26038462 -0.13459018 -0.17355664 0.1746606 -0.47850555 -0.07200645 -0.004440629 0.09851044 -0.033138033 -0.65593886 0.4166721
25 0.54957575 -0.03061673 0.32189918 -0.059671298 0.17749119 -0.1509914 0.3097488 0.014650279 -0.15167467 -0.02409689 0.3409127 0.12255757 0.4934112 0.09829134 0.49067786 0.0897818 -0.042919405 -0.075660385 -0.073901795 0.39933237 -0.040531 -0.09779473 0.007133681 -0.39549977 -0.12634815 0.098455004 0.15475202 0.091637775 -0.57548815 0.28599858
49 0.48863167 -0.032950427 0.40726075 -0.16505456 0.06819193 -0.17716065 0.35453576 0.14445595 0.111572035 -0.10568517 0.28069717 0.16950674 0.47579786 0.08379587 0.4531483 0.07806647 0.031301174 -0.07541139 -0.12734634 0.23627028 -0.13072422 -0.08214896 0.10891944 -0.41557354 -0.12957524 0.06950936 0.0757931 0.058887027 -0.653057 0.33009347
21 0.39723015 -0.0031615358 0.38080287 -0.047456592 0.15389654 -0.2609996 0.2515478 0.031021839 0.0919558 -0.16005903 0.29010278 0.1489197 0.32695696 0.13588285 0.46357948 0.14290024 -0.07446903 -0.11501994 0.05490169 0.4448214 -0.16994184 -0.025797978 0.2552278 -0.4754647 -0.06586797 0.042090043 0.14066 0.11030081 -0.6124731 0.27602437
40 0.17703071 0.25048375 0.6826569 -0.14045207 0.05008899 -0.020499665 0.56014377 0.10361459 0.100033864 0.042865235 0.29658547 0.20700814 0.5143595 0.079837255 0.59566694 -0.17246425 0.028912615 0.027938629 -0.17635813 0.30291393 -0.18354987 -0.015259168 -0.16300173 -0.40307644 -0.06596072 0.27186072 -0.028034575 0.042535897 -0.60733837 0.34848157
85 0.38577965 -0.022712251 0.39153132 -0.14252236 0.17151271 -0.08176518 0.30717415 0.050894786 0.1059313 -0.08325764 0.29622328 0.16606627 0.3383835 0.030259987 0.42610717 0.18150258 -0.0010431149 -0.14534366 -0.09463258 0.3094886 -0.2113504 -0.11581354 0.25710335 -0.44385073 0.071366504 -0.008029792 0.1474099 0.16071495 -0.6916198 0.29827657
9 0.4370539 0.1345914 0.43718114 0.009973799 0.33319926 -0.21532118 0.10386992 0.018856438 -0.022110857 -0.039627228 0.37814838 0.24904117 0.3941754 -0.051261533 0.46810865 0.25067306 -0.08182721 -0.0027575635 -0.061355673 0.44307372 -0.107537955 0.09687869 0.10906325 -0.3866168 -0.10066565 0.21849655 0.15386206 0.17413317 -0.5327339 0.1820689
18 0.3760011 0.04867708 0.43554673 -0.04483303 0.02555666 -0.07989411 0.38087985 0.14524552 0.08175642 -0.068822995 0.31817895 0.21838765 0.4069109 0.05335774 0.45263374 0.07340366 -0.07629779 -0.103117876 -0.20036404 0.311801 -0.17442602 -0.13348837 0.12169946 -0.41249168 -0.04592038 0.10313171 0.04730708 0.009110916 -0.6089459 0.39424318
45 0.4903643 0.2307007 0.45210826 0.0091571845 0.2865677 -0.20378292 0.033285793 0.07016619 0.11312158 -0.17365874 0.38161176 0.22308956 0.44078475 -0.026397351 0.43451068 0.25549182 -0.11722101 -0.07283697 -0.010656982 0.43328178 -0.057019096 0.13402967 0.1616808 -0.42610338 -0.114906706 0.22708467 0.11157139 0.13024525 -0.54262286 0.16251267
102 0.41028646 -0.104933776 0.35439745 -0.19345592 0.08916117 -0.2704787 0.36690852 0.039266344 0.069937944 -0.03784559 0.2956281 0.14191422 0.30317196 0.056084044 0.52431 0.14163943 0.012250647 -0.10187163 -0.07771375 0.28035116 -0.20743756 -0.22940318 0.13805638 -0.47102144 -0.053528607 -0.019948298 0.10745549 0.075411156 -0.667428 0.3764493
35 0.52534443 0.09642679 0.38058698 0.00914571 0.2663022 -0.35833243 0.03950339 0.03541439 0.0155030545 -0.17621045 0.3468416 0.1780146 0.462506 0.06140858 0.452486 0.22702317 -0.04952639 -0.01657496 0.16304894 0.43381587 0.008417179 0.24752352 0.09621794 -0.4631842 -0.16218798 0.24044335 0.19648162 0.2035677 -0.4947847 0.15985398
31 0.41544494 0.17962866 0.48121428 0.026362548 0.19676684 -0.15923613 0.21573174 0.12429521 0.0876805 -0.04531337 0.33540797 0.2333666 0.5140533 -0.038692977 0.4828737 0.17954946 -0.108147115 -0.084705606 -0.080301866 0.35501948 -0.07658727 0.103992976 0.025840271 -0.39192772 -0.0944563 0.15603428 0.08613299 0.13578434 -0.53705543 0.22336617
22 0.5386817 0.07242682 0.38402408 -0.023046596 0.22851622 -0.30974904 0.11871177 0.051071268 0.055135116 -0.12876774 0.36501423 0.18339776 0.41096094 -0.034159407 0.46348986 0.20283417 -0.028562872 0.0015336372 0.084138274 0.38131255 -0.08484994 0.16692342 0.07897489 -0.4120435 -0.15687174 0.24353755 0.1495543 0.14739877 -0.53513896 0.20961878
75 0.33506536 0.05407818 0.44575515 -0.07570384 0.081729144 -0.108022004 0.36103904 0.107335076 0.114086285 -0.10051205 0.3201678 0.1705723 0.39609414 0.06636125 0.4688272 0.1173564 -0.05351478 -0.1822841 -0.13760072 0.32876846 -0.16631576 -0.18667488 0.14167391 -0.42200392 -0.036329392 0.027737051 0.10953835 0.064684644 -0.59506863 0.37498888
71 0.3190789 0.0033158073 0.4438153 -0.16249329 0.048301075 -0.020750308 0.42584693 0.07899485 0.12628037 -0.10027757 0.30094594 0.17810485 0.3270687 -0.0346776 0.4627296 0.13743338 -0.0064521236 -0.16738561 -0.2108662 0.28190362 -0.22634786 -0.278654 0.17730837 -0.41322 0.13377763 0.008803264 0.077984154 0.1209684 -0.70189315 0.40431827
68 0.2784372 0.008596302 0.42993712 -0.1768651 0.019791622 -0.04186931 0.51729953 0.091131754 0.13257954 -0.019854702 0.29938787 0.14929143 0.44838697 0.08412084 0.5101427 0.004980398 -0.048274126 -0.07351125 -0.22807615 0.26921523 -0.26684588 -0.24234663 0.0585042 -0.4420546 -0.025156468 0.0005546251 0.0992355 0.015843362 -0.6655824 0.375579
92 0.28082365 -0.024391199 0.39642736 -0.2042138 -0.0027076462 -0.11403343 0.49795458 0.11651698 0.13940503 -0.14819105 0.24222773 0.15390022 0.39228833 0.04909427 0.491938 0.0927329 -0.003901054 -0.0796248 -0.24953194 0.23396629 -0.20072109 -0.25732282 0.1650632 -0.47154093 0.024603622 0.020113857 0.08019354 0.045747478 -0.72916627 0.4463755
89 0.38029197 0.103003815 0.42181754 -0.031504054 0.25399 -0.120127976 0.24177673 0.10660328 -0.007190332 0.06272991 0.3135209 0.23964293 0.38705912 -0.041768383 0.53223133 0.21171851 -0.058228802 -0.047054723 -0.1420466 0.40535337 -0.12227899 -0.014268064 0.07086554 -0.36407608 -0.014219867 0.1182083 0.15383016 0.10462453 -0.598566 0.23960799
50 0.2777951 -0.09065911 0.43056977 -0.12789373 0.0941217 -0.14713539 0.49501994 0.018049289 0.026351133 -0.030011404 0.27082077 0.07979614 0.38709748 0.045060895 0.5326455 0.12153398 0.010739619 -0.17895432 -0.17961921 0.318455 -0.17418556 -0.19766337 0.13152367 -0.45914114 0.09623675 0.047400028 0.108151935 0.08979695 -0.67360777 0.38019344
24 0.5250787 0.103034526 0.405308 0.006122766 0.2931235 -0.21046539 0.069585145 0.024749564 0.020015493 -0.11341712 0.34110987 0.24714375 0.4256105 0.06310287 0.44370568 0.19579656 -0.00013183827 -0.071950026 0.073063694 0.40628594 0.023509955 0.1836598 0.13506706 -0.39321864 -0.07724531 0.16025873 0.16607203 0.20914367 -0.5552615 0.2661366
16 0.34087482 -0.054951023 0.4632254 -0.14261855 0.1433873 -0.29238686 0.49152493 -0.037232377 0.061045233 -0.02507891 0.30585986 0.053872194 0.45669574 0.15661871 0.5684125 -0.049976297 0.035777934 -0.06587324 0.12146709 0.4205857 -0.14148687 0.051423274 -0.03286904 -0.42147282 -0.10845236 0.21177267 0.017934572 0.07732105 -0.58800924 0.303691
79 0.56305385 0.050847586 0.36530706 -0.090245426 0.25902396 -0.28758833 0.21199027 -0.062275287 -0.0056907902 -0.07337927 0.3123246 0.124855734 0.48584405 0.0695963 0.4493033 0.14980316 -0.029889166 -0.06611905 0.06623024 0.4183205 0.05288848 0.108440675 0.01995604 -0.4334532 -0.21037258 0.22992095 0.14205123 0.19576634 -0.53703517 0.1931467
87 0.52717483 -0.012623796 0.24742937 -0.14166024 0.10401636 -0.3645801 0.16762157 -0.044185005 0.16373667 -0.19967559 0.3301464 0.1756875 0.33396816 0.13156879 0.41289452 0.1707949 0.046442855 -0.09498823 0.15912828 0.3892041 -0.085819 -0.031773392 0.25641567 -0.53299755 -0.26724267 0.077696934 0.06654757 0.038434196 -0.63243 0.32196346
63 0.49202177 -0.05958282 0.35003555 -0.06414869 0.18775558 -0.20765083 0.27905875 -0.005472644 0.05478239 -0.06402783 0.36916748 0.17369457 0.40788248 0.042606406 0.46737042 0.20726636 0.007928994 -0.12011217 -0.06317429 0.36191836 -0.1081213 -0.087583065 0.09766887 -0.39664033 -0.12723571 0.08200562 0.14786886 0.08429883 -0.5962575 0.33708727
69 0.3392746 0.07780138 0.41991967 -0.19120508 -0.0047511873 0.0347036 0.5238371 0.10095304 0.14100227 -0.096685484 0.22481538 0.16544425 0.4080353 -0.018443672 0.5058419 0.0760306 -0.0336831 -0.04108779 -0.26854864 0.23597226 -0.22551106 -0.20715776 0.09663931 -0.46209246 0.08393645 0.038581207 0.05615171 0.033454176 -0.66729474 0.4443825
1 0.36665452 0.034398474 0.31222075 -0.14189717 0.16155317 -0.23159906 0.21997437 0.05480428 0.11742198 -0.1470282 0.2534878 0.17768915 0.3974855 0.06658935 0.44444454 0.20264791 0.012710446 -0.06037808 -0.0068302075 0.3041771 -0.13676548 0.022761893 0.1550192 -0.48464626 -0.11596133 0.026128963 0.17983454 0.11840316 -0.64275545 0.32933217
103 0.44454238 0.051241674 0.40919513 -0.029761478 0.24337386 -0.18872079 0.15570213 0.028411515 0.14262468 -0.16619128 0.3091342 0.25528017 0.31457692 0.04758567 0.42953193 0.20496058 -0.03561605 -0.15155585 0.043042894 0.39868978 -0.12109448 -0.0070369085 0.21501909 -0.44920734 -0.086375974 0.07699373 0.09690609 0.12212481 -0.5590096 0.27583286
77 0.3268997 -0.008815855 0.39322847 -0.17438354 -0.02821949 -0.007542931 0.51782733 0.054165307 0.16512956 -0.12314365 0.27421215 0.17306513 0.3531582 0.007937304 0.4956479 0.11008866 0.012132744 -0.18391651 -0.28987667 0.21351594 -0.24066079 -0.30271998 0.21121283 -0.41429287 0.08102773 0.025871357 0.09491983 0.10058735 -0.7064991 0.4153638
0 0.4692556 0.0023370543 0.3753269 0.03431719 0.17265739 -0.27108485 0.22770056 0.14771953 0.024078678 -0.05939401 0.3233808 0.15439557 0.442016 -0.009004977 0.52108026 0.18448626 -0.088545255 -0.12376622 -0.02119609 0.34977135 -0.08545165 0.05865931 0.049272854 -0.40417883 -0.051717132 0.08362376 0.21926384 0.14557788 -0.5496646 0.30838725
51 0.47878873 -0.0260525 0.34720668 -0.087057784 0.16542752 -0.18913993 0.21584119 0.053928856 0.14845878 -0.0854439 0.30666658 0.23943405 0.3220172 0.07999876 0.46975073 0.20140304 0.0029695134 -0.14721258 -0.04187736 0.31976876 -0.15217932 -0.083975084 0.16645701 -0.4433122 -0.0871061 0.022376863 0.13211799 0.07646209 -0.6419316 0.3051937
83 0.3995255 0.03772814 0.3647645 -0.10368707 0.072035596 -0.026743544 0.43854046 0.06845764 0.14076947 -0.09660309 0.31511712 0.17345633 0.41886497 0.027867505 0.50583875 0.12978639 -0.03704229 -0.1433452 -0.21077108 0.26599228 -0.16985461 -0.17653759 0.15696593 -0.37531707 -0.007916786 0.010677579 0.06534177 0.024268258 -0.65049535 0.35752526
46 0.4158093 0.18440017 0.5237728 0.04406785 0.3486777 -0.34942546 0.0500458 0.016582374 -0.00027494787 -0.04408569 0.40035126 0.22256848 0.42508128 -0.044028267 0.5265559 0.23493126 -0.13991307 -0.020338697 0.035557672 0.43546385 0.0050346293 0.34757382 -0.07173741 -0.38949478 -0.19187853 0.38286784 0.15887564 0.2000739 -0.45267472 0.1917855
86 0.30245697 0.0344087 0.47081316 -0.09670816 0.090542614 -0.01743084 0.39339644 0.07961925 0.15354915 -0.068455175 0.314271 0.21586613 0.34113422 0.009665658 0.4375674 0.15273798 -0.061217077 -0.24270068 -0.1936186 0.34134874 -0.27986005 -0.29527125 0.2489602 -0.44744003 0.13044403 0.020389816 0.08232363 0.06288661 -0.6893912 0.38844615
73 0.3459324 -0.0678148 0.4544048 -0.17122778 0.059157517 -0.04583499 0.47624525 0.06627681 0.08249876 -0.05386589 0.29523367 0.1755225 0.32922003 -0.009554713 0.48377377 0.115626484 0.007603976 -0.104291245 -0.23836225 0.3132846 -0.19847417 -0.28805408 0.15972774 -0.4378932 0.06804708 0.025638122 0.10873052 0.081761755 -0.67169785 0.39013958
93 0.3227123 0.11321072 0.57192415 -0.020026619 0.23674005 -0.0019894044 0.25878522 0.057179153 0.023187358 -0.018912941 0.37649548 0.29398268 0.26075658 -0.004832638 0.4634259 0.19673073 -0.07663976 -0.18171366 -0.19800638 0.4146178 -0.21536992 -0.25389463 0.2502567 -0.38186532 0.17653869 0.10578062 0.1415792 0.13902149 -0.5996509 0.31594995
20 0.4121641 0.18680805 0.47208163 -0.058833513 0.27876452 -0.20490403 0.18032964 0.12345892 -0.006417551 -0.092755295 0.33055875 0.23749578 0.45165226 0.04423245 0.45969886 0.1614045 -0.038301274 -0.0050836094 -0.090754464 0.3725635 -0.00987979 0.03543386 0.07302264 -0.46794134 -0.09154744 0.106527686 0.21991777 0.06366411 -0.5272896 0.29687124
17 0.53626716 0.07514596 0.39947426 0.008732545 0.26216742 -0.26893845 0.10711568 0.07896686 -0.029050635 -0.06329145 0.35749334 0.21888421 0.36564544 0.04443633 0.44891173 0.15411215 -0.074389964 -0.07978009 0.0017953595 0.44401562 -0.01690291 0.10793967 0.1092426 -0.37794834 -0.117167 0.16733068 0.21566334 0.124920845 -0.55043316 0.25655589
14 0.39976662 0.07622386 0.36501804 -0.057546873 0.22201474 -0.24942772 0.1708771 0.04400879 0.08969453 -0.11908422 0.3014808 0.17732592 0.42405438 0.051920097 0.44848973 0.19632657 -0.05289727 -0.08761563 0.08080636 0.417 -0.0890985 0.13274017 0.15734242 -0.4514758 -0.083853446 0.1615727 0.1419262 0.2136759 -0.52127737 0.22732136
65 0.43335703 0.24753626 0.573956 0.004887586 0.30119917 -0.04289131 0.22668496 0.13413154 -0.026502931 -0.016321512 0.28900984 0.21671945 0.44547454 -0.035716552 0.41113734 0.058225535 -0.024205033 0.07899633 -0.23825572 0.3664725 -0.084872454 -0.07119373 0.04879849 -0.43338177 0.010711345 0.20374648 0.1704833 0.055620212 -0.5750697 0.29465094
62 0.2850866 -0.04877321 0.43039188 -0.15872164 0.07118663 -0.08426152 0.48787895 0.1046186 0.006306125 0.061609183 0.32198265 0.16668768 0.3467313 0.019875893 0.5682508 0.06928748 -0.028126383 -0.121828936 -0.24808174 0.33072 -0.22548874 -0.32708284 0.094626725 -0.37500557 0.08557724 0.0022605027 0.15180875 -0.0048793587 -0.6725673 0.41797996
44 0.3807404 -0.012239621 0.33445778 -0.1700153 0.097376004 -0.13412528 0.41022366 0.1090625 0.09451904 -0.11591659 0.2710085 0.12329375 0.3782907 0.04979065 0.45540568 0.11242995 -0.03522075 -0.04215622 -0.13582055 0.29656446 -0.208524 -0.07072802 0.12176055 -0.44885042 -0.038542073 0.03242285 0.11391548 0.1520895 -0.6335077 0.32988942
72 0.25022534 0.031921092 0.4396295 -0.15472846 -0.040159684 0.044099003 0.5446338 0.087645076 0.14660281 -0.040807575 0.26047376 0.14266592 0.3963679 -0.0010324804 0.5470636 0.14930615 -0.012013151 -0.22031896 -0.33163324 0.19128735 -0.23543137 -0.38566434 0.16396429 -0.4067468 0.11658433 -0.0064838547 0.05175973 0.071180396 -0.73121136 0.45222726
3 0.53348184 0.29726404 0.5348605 0.08412963 0.44709074 -0.269095 -0.002034849 0.04585003 -0.01699648 -0.13049917 0.382615 0.27537566 0.3519884 -0.0133136995 0.42084765 0.26490298 -0.10001545 0.055071313 0.06566228 0.49886522 0.004918515 0.20200239 0.13969585 -0.42452052 -0.089333706 0.3283727 0.21543585 0.16406944 -0.45825788 0.16331954
84 0.3460279 0.02899073 0.3867304 -0.10350512 -0.017494975 -0.051934548 0.43425092 0.11209358 0.15189144 -0.14342596 0.32080236 0.18670952 0.44826102 0.10842946 0.43710914 0.011701777 -0.064361766 -0.1209976 -0.17257354 0.26329473 -0.19964013 -0.17433532 0.15099983 -0.43801442 -0.0629151 -0.010406655 0.07088254 -0.00012679033 -0.6612999 0.39705935
66 0.52977926 0.16915226 0.4340095 -0.06720261 0.28941888 -0.25735137 0.108014554 0.03168567 0.00681914 -0.08839596 0.28885275 0.16469064 0.39543277 -0.031216884 0.48782682 0.22309911 -0.056651056 0.14398374 0.06582009 0.4099752 0.031705096 0.12830873 0.10784355 -0.4371931 -0.07528611 0.18858016 0.15101291 0.1786736 -0.56779784 0.24351631
48 0.56154966 0.010499154 0.27826697 -0.114661545 0.25735465 -0.4041806 0.121135175 -0.041407503 0.052465588 -0.16610485 0.3289631 0.12483038 0.37827712 0.11590795 0.44846207 0.23819908 -0.008079322 -0.11841182 0.15554705 0.41008517 0.0038578562 0.1720423 0.09943121 -0.461306 -0.25099376 0.20641918 0.12597601 0.15627736 -0.55446285 0.24344306
52 0.4466937 0.06464744 0.35509613 -0.051521625 0.2319829 -0.17366609 0.26944256 0.10147018 0.035173945 -0.04472013 0.30762407 0.14772774 0.3971795 0.024355462 0.52330774 0.19100599 0.0023086013 0.08864988 -0.070635684 0.35624582 -0.095623784 0.07872365 0.107658036 -0.437261 -0.033534814 0.10748332 0.14455336 0.08389609 -0.56267166 0.29057264
2 0.37477022 0.015346084 0.37070274 -0.0931331 0.15524463 -0.17186724 0.29209965 0.05152642 0.023114996 -0.08124705 0.26005897 0.18504964 0.3940412 0.07081446 0.4826983 0.18196276 0.0041218405 -0.13633066 -0.0762351 0.33554053 -0.10219014 -0.038631644 0.1492996 -0.44540447 -0.071061805 0.052273434 0.17160755 0.12338177 -0.6241402 0.34594685
82 0.38961628 -0.031685263 0.41031995 -0.064112075 0.084373936 -0.2305316 0.21542938 0.1155883 0.023590934 -0.055312153 0.33114898 0.16904137 0.43662086 0.07450344 0.4750686 0.122797124 -0.05981609 -0.07335581 0.011197576 0.35109124 -0.058530353 -0.003888314 0.10260392 -0.4696981 -0.03963443 0.027333809 0.1760714 0.1340538 -0.6011029 0.26882872
58 0.3984817 -0.013742745 0.4039116 -0.1577497 0.12204823 -0.17556478 0.38731772 0.2128166 0.020798089 -0.014058103 0.23707238 0.114065066 0.38361204 -0.039027054 0.57090104 0.1063912 0.030214122 0.13201526 -0.18760958 0.20278713 -0.13197781 -0.14753912 0.054092064 -0.47368616 0.01811452 -0.010431689 0.1824778 0.0667756 -0.62148494 0.39892286
91 0.39708465 -0.07071783 0.37392348 -0.14832883 0.06301379 0.009167591 0.42054147 0.10333588 0.14982091 -0.043708216 0.31205577 0.19580416 0.40467462 0.026856173 0.46446976 0.13037664 -0.037517328 -0.15155867 -0.24382472 0.26301014 -0.21001822 -0.26699588 0.15344504 -0.38553807 0.06686297 -0.049829077 0.08090774 0.03345929 -0.7098675 0.4116643
32 0.49629983 -0.009789834 0.39691937 -0.049931113 0.27669284 -0.40206957 0.20440705 0.07351629 -0.02452151 -0.0621658 0.37732956 0.066701606 0.3979783 0.015435202 0.5481388 0.1884609 -0.024612617 0.01844402 0.13894881 0.3970099 -0.07150089 0.28871176 -0.022197232 -0.3693724 -0.18266624 0.3347565 0.065139115 0.19799347 -0.5092083 0.23953608
70 0.3906804 -0.03937834 0.39969805 -0.16499326 0.10879662 -0.22913177 0.32908535 0.020318119 0.08486616 -0.096387155 0.33162588 0.116271265 0.31459254 0.05605415 0.5120015 0.15388684 -0.002384184 -0.060747776 -0.035897292 0.3153592 -0.12497918 -0.09904738 0.2000635 -0.46127614 -0.0046169464 0.049810614 0.12269604 0.12761666 -0.6007871 0.33745852
13 0.5422333 0.058909364 0.39537302 -0.074821234 0.22816522 -0.2862402 0.16847987 0.058395658 0.07986855 -0.22785312 0.27184358 0.20978811 0.32528493 0.016177682 0.43147296 0.17450239 0.040296994 0.04963428 0.03867336 0.32237926 -0.04312747 0.039313734 0.17296143 -0.46201316 -0.17947312 0.17767763 0.09847749 0.0823943 -0.5722531 0.3160051
30 0.4078917 0.1686997 0.50545454 -0.015467452 0.26249623 -0.23671375 0.12656252 0.044717424 0.016576214 -0.10997295 0.3771867 0.19118074 0.43598598 0.0071513923 0.45552042 0.1560452 -0.015038512 0.035730988 0.10496339 0.38936388 -0.08456519 0.21426813 0.037418686 -0.42220798 -0.15073413 0.30275473 0.10510912 0.18707137 -0.4754107 0.19621842
88 0.35336795 -0.10685565 0.35562032 -0.20494328 -0.065462746 -0.10046156 0.5018224 0.13116501 0.17224881 -0.16859701 0.32384393 0.12931262 0.38909727 0.10031997 0.49881667 0.009720155 -0.012722481 -0.0638118 -0.17220853 0.19473816 -0.29085073 -0.26044044 0.15955636 -0.43152043 -0.04531678 0.0022083758 0.049911994 -0.028469898 -0.7120796 0.49421433
98 0.50071543 0.3189663 0.44277868 -0.06648167 0.114226915 -0.12959959 0.23637235 0.21864934 0.10464176 -0.25591597 0.2433975 0.28902876 0.57506824 0.04083122 0.4718226 0.0030338203 0.11192479 0.30374682 -0.04616942 0.1864543 0.037534345 0.18829788 -0.051213793 -0.5289987 -0.21476075 0.15756708 0.082490034 0.010792621 -0.5816994 0.37233263
12 0.5813796 0.24401723 0.4412002 -0.009161539 0.39080167 -0.3806273 -0.07046045 -0.02338645 0.030975591 -0.111624315 0.3792692 0.18380989 0.44974783 -0.05484316 0.4696674 0.26464766 -0.09241617 0.030048225 0.14380644 0.5068908 0.1311913 0.36210394 0.048630636 -0.44564146 -0.24520235 0.3460118 0.15629505 0.24570906 -0.46477428 0.21609195
99 0.45693657 0.19885501 0.5117832 0.08074142 0.40327778 -0.14460449 0.06364643 0.063010566 0.0023295996 -0.10887299 0.38278192 0.32785589 0.34174672 -0.009982309 0.39788458 0.18989326 -0.074642874 -0.008414034 -0.027052281 0.5154762 -0.082386926 0.063494414 0.22932966 -0.42797354 0.014051466 0.18200976 0.21477017 0.12482734 -0.51654744 0.1704726
38 0.3762663 -0.010425774 0.3962853 -0.1341255 0.06784532 -0.11563074 0.38773504 0.09000405 0.003907128 -0.08991221 0.30163547 0.19397482 0.50798374 0.08408547 0.49343678 0.089209 0.02489835 -0.16730629 -0.08796302 0.29969385 -0.11411254 -0.1304931 0.043260835 -0.46164623 -0.13281669 0.030566659 0.10276304 0.036018305 -0.6580494 0.3609888
5 0.56354433 0.09635459 0.41380692 -0.0028686188 0.23175406 -0.24096538 0.1353263 -0.029270288 -0.10590813 -0.09523445 0.30814043 0.18742973 0.5453358 0.10155469 0.46436736 0.11157547 0.012523039 -0.038070872 0.011071587 0.3523008 0.08485302 0.13338353 0.011507811 -0.3993126 -0.21315117 0.17167114 0.1618063 0.1705379 -0.5303006 0.28544462
7 0.40536314 0.0902093 0.39067054 0.015470325 0.1637831 -0.16879536 0.22646236 0.12785311 0.09859469 -0.045986384 0.35742807 0.22225943 0.4905494 -0.0004546994 0.42411307 0.22759804 -0.15354645 -0.21835509 -0.120347135 0.43653193 -0.105620466 -0.05895285 0.10425343 -0.3811819 -0.099595554 0.14346987 0.09108369 0.1292945 -0.5490656 0.23436305
64 0.4939894 0.015267088 0.38619986 -0.017493596 0.27121738 -0.28014594 0.25338584 0.14138572 -0.07497865 0.0034493592 0.2823967 0.12726785 0.3784889 -0.07226809 0.5435813 0.16358025 -0.0071367193 0.08262795 -0.10543224 0.3373896 -0.054544915 0.06977396 0.046112172 -0.4237384 -0.0017689386 0.15598376 0.20743029 0.11228423 -0.5885722 0.2786517
94 0.2935977 -0.065531276 0.45411795 -0.17949416 0.06774071 -0.0027285903 0.49322587 0.044710517 0.11352433 -0.05750238 0.32128486 0.21339771 0.3015007 0.006029322 0.50112706 0.11117 -0.012502951 -0.14512327 -0.29995286 0.28952414 -0.24123374 -0.31745568 0.17762853 -0.40758228 0.0910746 -0.011544102 0.10022345 0.070561714 -0.7113976 0.41357
42 0.39515674 0.31217507 0.49447563 0.08127787 0.34545627 -0.2867135 -0.017419908 0.07680522 0.15102214 -0.16867927 0.3852278 0.31598407 0.5180966 -0.09845215 0.46640867 0.263499 -0.22211763 0.00029914686 -0.05501281 0.4705191 0.10769189 0.3071841 -0.018458232 -0.39628902 -0.25621417 0.3768859 0.096139885 0.18087032 -0.4712153 0.18833806
74 0.34539127 -0.10496592 0.4031203 -0.1245888 0.009828104 -0.19210297 0.42796853 0.124191076 0.10822837 -0.08246705 0.32291296 0.1686534 0.4291764 0.12238788 0.53025293 0.0076149795 -0.05380593 -0.119514816 -0.14546543 0.3314438 -0.20824426 -0.2168637 0.07403968 -0.43906868 -0.052975845 0.024646835 0.10240371 -0.00633702 -0.6308477 0.36583322
34 0.34241804 0.13592876 0.51556224 0.07706793 0.31847 -0.1661024 0.13743672 0.096385814 0.049983542 0.014904 0.40598172 0.29432645 0.4190022 -0.083343655 0.42575234 0.19927989 -0.17231505 -0.12861529 -0.15338619 0.45585677 -0.06807948 0.045862675 0.094184734 -0.36557508 -0.060158692 0.18978754 0.15697816 0.13820735 -0.5323074 0.3005659
95 0.5889069 -0.07510639 0.37686944 -0.0029206965 0.21225119 -0.3062035 0.19773199 -0.010538887 -0.10986 -0.06951734 0.37032118 0.118790686 0.44183066 0.059494715 0.4424227 0.14754154 -0.026850488 -0.13935374 0.055754077 0.43160632 -0.066105984 0.004388066 0.061465435 -0.3579348 -0.11734456 0.108550325 0.20416503 0.15091684 -0.61218464 0.25560313
97 0.44586915 -0.016430574 0.4877663 -0.14331268 0.07561452 -0.07986916 0.47530586 0.07123665 0.0025686002 -0.041405406 0.29233783 0.05340333 0.32709116 -0.019677231 0.52320355 0.09342983 0.023751194 -0.031614285 -0.24556342 0.2811689 -0.20812511 -0.27670148 0.091810584 -0.36124623 0.18431108 0.07874985 0.21852565 0.11323084 -0.72627336 0.3964433
47 0.5989719 0.26024735 0.31727406 -0.21928921 0.11606144 -0.20270842 0.19777888 0.098535046 0.2374135 -0.34146798 0.18314144 0.268593 0.44873947 -0.046786614 0.4602422 0.0702372 0.16711845 0.25023505 3.963054e-05 0.17646979 0.047239903 0.091355145 0.16528933 -0.54840964 -0.26498544 0.15920857 -0.044576522 -0.041960042 -0.63323694 0.45287257
81 0.37104777 0.4557184 0.5710418 0.019824794 0.2341741 -0.118388265 0.078385964 0.21993653 0.19870284 -0.2878735 0.3040165 0.34421343 0.62384534 0.02339508 0.4554195 0.123919085 -0.10637907 0.10170852 -0.14164096 0.29259732 0.040966228 0.27999288 0.056749705 -0.4965684 -0.21920788 0.22130732 0.1493856 0.024364542 -0.4979005 0.27746347
100 0.5036628 -0.04451454 0.38799602 -0.09299551 0.18180846 -0.24861154 0.2102323 0.07087493 0.10146775 -0.1362248 0.3309114 0.17048587 0.33060464 0.020435791 0.38279697 0.1971842 0.028930074 -0.1230608 -0.0015199634 0.31075537 -0.20718017 -0.012193479 0.15850128 -0.44250035 -0.13112478 0.053372838 0.11448057 0.097513005 -0.62950665 0.29447785
80 0.44207925 0.21613158 0.44903243 -0.046278786 0.18571012 -0.084920116 0.23629758 0.12797712 0.18833889 -0.12232848 0.30394658 0.24797553 0.43965438 -0.05474389 0.35415766 0.21832614 0.03279755 -0.11321049 -0.14684552 0.2842886 -0.19175111 -0.12490637 0.21067075 -0.41721976 -0.0153280925 0.079569556 0.10643759 0.10365736 -0.64470476 0.27056238
19 0.5706055 0.08174507 0.41993475 -0.0896653 0.21002544 -0.097089246 0.29525954 -0.043455146 -0.16690722 -0.02404223 0.32806534 0.18061955 0.5449836 0.17079824 0.4303889 0.02535702 0.020329269 -0.104243815 -0.1317475 0.31215012 -0.01735444 -0.12572093 -0.024823653 -0.40818915 -0.15241972 0.08958661 0.16182542 0.09816481 -0.61734205 0.3093994
43 0.28333524 0.02098759 0.4981564 -0.14234836 0.10220249 0.012080814 0.4562638 0.118948415 0.09257328 0.08100147 0.34925315 0.2045089 0.403763 0.015295258 0.5172195 0.048672687 -0.057743695 -0.072147176 -0.26160464 0.28464723 -0.22109617 -0.2622308 0.09769979 -0.38468423 0.1234761 -0.005664048 0.13072412 -0.009300418 -0.686849 0.35508835
54 0.4756613 0.31578422 0.49087185 0.029570892 0.36347288 -0.28617543 -0.028869512 0.13959089 0.04078461 -0.19118434 0.26902178 0.29036713 0.47397366 0.05992134 0.47756344 0.19012259 -0.009183517 0.18753915 0.042905524 0.33620033 0.121081434 0.34471545 0.13520318 -0.51877767 -0.15788719 0.2232182 0.2080439 0.15213759 -0.47142243 0.22174554
76 0.3439284 -0.091509886 0.38615817 -0.14951727 0.03336198 -0.16470864 0.39663202 0.09436627 0.1260077 -0.08516849 0.33562714 0.15845941 0.42044806 0.09932805 0.48677757 -0.019687723 -0.04570074 -0.046357144 -0.098666914 0.3324457 -0.19226152 -0.1760562 0.1503289 -0.4063276 -0.039963823 0.022016207 0.101105824 -0.009713998 -0.6358155 0.3531156
27 0.460085 0.035087384 0.39389592 -0.061656717 0.16177641 -0.21649604 0.17669547 0.028567279 -0.020951003 -0.015222886 0.36175713 0.18126066 0.37900424 0.10327851 0.44399995 0.12710026 -0.109000586 -0.03602866 0.07378394 0.45560154 -0.015358807 -0.0003481569 0.20470016 -0.44063008 0.04610782 0.04498666 0.1704428 0.17985938 -0.59301746 0.22463456
6 0.43687823 0.21474062 0.59251505 0.044903036 0.41736537 -0.098784275 0.032742254 0.06852379 -0.054036047 -0.09572645 0.38725415 0.28932133 0.28223646 -0.04262679 0.4194187 0.22170727 -0.11404438 -0.027415466 -0.07068753 0.53582704 -0.15755975 0.08203181 0.21148367 -0.43361065 -0.014239132 0.2708095 0.22661439 0.21379653 -0.49289176 0.10428417
55 0.3919031 -0.07502901 0.39396387 -0.12154449 0.17853142 -0.24880572 0.36876366 0.090329826 -0.015797785 -0.06166722 0.29352927 0.08229588 0.41547126 0.03962169 0.52765083 0.06527871 0.031824246 -0.020219019 0.00354248 0.30096185 -0.12282362 0.022739263 -0.007161577 -0.40271482 -0.12918524 0.19101018 0.08323515 0.10968593 -0.5784463 0.2982243
37 0.37030447 0.25590032 0.56641877 0.17496236 0.34579813 -0.30305153 -0.04663223 0.08035977 0.042572644 -0.023964271 0.4648791 0.30374005 0.48780072 -0.1254851 0.5296388 0.26969805 -0.24710318 -0.08000057 -0.054344084 0.5235566 0.08763396 0.35758066 -0.098840155 -0.36938962 -0.23884349 0.43857795 0.0945811 0.22322753 -0.43068087 0.22887024
60 0.47352126 0.3975529 0.61117494 0.13348576 0.46513405 -0.16715364 -0.031135907 0.10912372 -0.08402886 -0.08933799 0.339219 0.3339577 0.43090257 0.016629333 0.4250186 0.22799148 -0.026423877 0.09978944 -0.036608785 0.49016833 0.076727115 0.27953392 0.14708771 -0.44399196 -0.029273877 0.24115999 0.2668588 0.16694108 -0.50643796 0.20149
33 0.35184112 0.18207523 0.4812417 -0.10346188 0.13619938 -0.15748937 0.28104967 0.19187118 0.14553428 -0.09017898 0.24177957 0.23899041 0.5374532 -0.02588647 0.48260024 0.027389903 0.050600123 0.1520721 -0.09599312 0.21645913 -0.024278566 0.07564098 -0.059117697 -0.46633518 -0.14698641 0.14838983 0.054927763 0.02347003 -0.5669523 0.34366906
53 0.35921988 0.3279008 0.56833065 -0.030762443 0.10282549 -0.07532929 0.27117386 0.22300874 0.16724826 -0.2344857 0.2608705 0.27789864 0.5937162 0.044644646 0.50760907 -0.03548954 -0.009497925 0.16921313 -0.15085001 0.19420569 -0.035270702 0.11666607 -0.027070455 -0.49431834 -0.13352397 0.21598265 0.09162464 -0.0030100069 -0.525593 0.3445307
36 0.4537514 0.041178863 0.39800996 -0.106159516 0.16419096 -0.09396719 0.3202025 -0.0076960926 -0.10472578 -0.05165041 0.29463112 0.20626658 0.54036814 0.19633438 0.45963976 0.073975466 6.090167e-05 -0.1922467 -0.17849235 0.3430081 -0.05117713 -0.17242336 0.006575443 -0.4386552 -0.15604863 0.026745914 0.1434058 0.06511939 -0.6030793 0.29497236
67 0.5247655 0.12919363 0.2593945 -0.20388278 0.10151926 -0.31820077 0.20591898 0.01813059 0.25548738 -0.3316845 0.19153461 0.23761877 0.38821337 0.004203914 0.40206078 0.19578709 0.11657471 0.07174883 0.07547129 0.25295374 -0.0403994 0.0428805 0.17026378 -0.5195989 -0.26725292 0.11046059 -0.032781094 0.033504 -0.6590437 0.42680186
105 0.06496955 0.1272955 0.82175565 -0.101582706 0.07973637 -0.17335221 0.6873751 0.01985957 0.1819956 0.16199076 0.2518058 0.17946206 0.5861109 0.18137917 0.7286051 -0.32960543 0.030668752 0.04249812 0.11609796 0.46376526 -0.28505477 0.17822692 -0.36510158 -0.52016693 -0.13906801 0.47707164 -0.15312856 -0.042165533 -0.53152424 0.3041402
