106 100
38 -0.090143144 -0.14532423 0.09861481 0.23090339 0.20093599 0.102067515 -0.07467645 -0.23884691 0.010177931 0.009345356 0.22232959 -0.07805156 -0.092779756 -0.11061084 -0.15305865 0.09280558 0.08737327 -0.064850196 -0.20351435 0.10125122 0.1902159 0.007195306 0.053282615 0.27085653 0.15704148 0.031711254 0.036551885 0.13335577 -0.27624545 -0.056010082 -0.082773425 -0.01771522 -0.048594195 -0.014499242 -0.15877599 0.10829108 -0.19949521 0.059057657 0.03353979 -0.009170345 -0.17605121 0.11001954 -0.058274847 0.022187013 0.06341701 -0.05698548 0.08641228 -0.0660355 0.23546427 0.031620573 -0.019051999 0.054366246 0.086004935 -0.20010686 -0.24489675 0.021819117 0.12881318 -0.36288863 0.23222752 -0.18684497 0.050952073 -0.2485287 0.24810821 0.009878126 -0.11085989 -0.030826068 -0.07404323 -0.28826556 0.010123793 0.0028955615 -0.16029169 0.14588535 -0.10096062 -0.010024626 -0.09084574 0.18577443 -0.07824039 -0.07540782 -0.39356652 -0.1310072 0.2155668 0.14522862 0.02301962 0.09980418 -0.14817703 0.19634402 0.15154059 0.011417168 -0.17283152 0.012201261 -0.033342592 -0.03581429 0.10692118 0.18673587 0.02985923 0.040891554 0.026028993 -0.11073793 -0.1073334 -0.0066055153
18 -0.104821354 -0.0997099 0.0629134 0.26140222 0.20806573 0.11098465 -0.09737661 -0.21380359 0.0726811 0.055604357 0.17300649 -0.068229154 -0.097891286 -0.1256098 -0.17506813 0.071538195 0.0740697 -0.012475986 -0.26360846 0.086176366 0.16842067 -0.062204167 0.038199753 0.29699537 0.17828037 0.05021604 0.057563126 0.1340413 -0.31290305 -0.034996096 -0.03137272 -0.03754588 -0.0758288 0.032692693 -0.19453165 0.13051927 -0.18257432 -0.01371817 0.08361469 0.02777588 -0.13883609 0.112037785 -0.10154639 0.015564719 0.06967741 -0.07913505 0.1056317 0.008042172 0.23133847 0.051031876 -0.021640195 0.018120961 0.08137466 -0.19784543 -0.22123525 -0.010838759 0.13659671 -0.35875145 0.22431347 -0.16096815 0.031256486 -0.19216236 0.25787356 -0.012216815 -0.056049395 -0.05523375 -0.025121251 -0.22996753 0.03327593 -0.047241565 -0.13918889 0.20558998 -0.073836565 -0.06620975 -0.07387711 0.18945919 -0.065580994 -0.05073812 -0.4211631 -0.15041888 0.2091616 0.13627239 0.04478964 0.07937913 -0.14747423 0.21626829 0.14678866 -0.0057029645 -0.20336483 0.029597173 -0.04488916 -0.04956353 0.10990582 0.20090361 0.00011127145 -0.022968482 0.0068948506 -0.069444485 -0.15105252 0.021538181
1 -0.046772346 -0.09814263 0.10828051 0.2447352 0.2123584 0.120271735 -0.088366605 -0.2286552 0.030677646 0.016404148 0.20234294 -0.03107727 -0.092537045 -0.118867375 -0.14476283 0.098033704 0.07637905 -0.04463852 -0.2071089 0.13208146 0.19490121 -0.030164469 0.024875049 0.2721607 0.1440231 0.030354701 0.048026565 0.12144989 -0.25694317 -0.02751171 -0.05673342 -0.019557185 -0.04775133 -0.022744711 -0.1876007 0.14559789 -0.17439303 0.042029217 0.0540367 0.005221417 -0.16846363 0.14316939 -0.068243586 0.03883335 0.03737228 -0.06319282 0.09983793 -0.03754664 0.25111914 0.073912434 -0.016329762 0.025362188 0.08181631 -0.20795865 -0.23786159 0.009968704 0.1314469 -0.3468793 0.23347418 -0.15163182 0.069684654 -0.20869307 0.2462783 -0.0032773206 -0.12094002 -0.03369023 -0.038295876 -0.25626966 0.013492067 -0.022311263 -0.13964114 0.1205519 -0.088337556 -0.047124915 -0.07375931 0.1823417 -0.048310943 -0.039484777 -0.39925987 -0.18561764 0.20856687 0.12619801 -0.0053023947 0.1276763 -0.116223544 0.20125113 0.081247956 0.0050296723 -0.14188468 0.039388724 -0.034324598 -0.04757194 0.11111474 0.1641462 0.048454925 0.029030481 -0.0012199088 -0.096718915 -0.12141854 -0.0048681987
5 -0.09825063 -0.15369771 0.09515177 0.21202502 0.2154325 0.11846133 -0.09926436 -0.2565023 0.005022584 -0.0088297585 0.23006463 -0.06143247 -0.052895118 -0.10405314 -0.1494863 0.1033223 0.08061726 -0.04655348 -0.21251793 0.078385115 0.20913163 0.0036921108 0.054144673 0.26389784 0.16343106 0.028222078 0.048653554 0.16544385 -0.2838267 -0.052581813 -0.11413569 0.0014330854 -0.026925508 -0.025536738 -0.16086885 0.11511348 -0.21926747 0.11218303 0.027737435 -0.025147965 -0.1927403 0.09524359 -0.020584632 0.013659009 0.05135254 -0.059173916 0.077367775 -0.09275469 0.24923365 0.050543647 -0.020187885 0.046862524 0.06917092 -0.2116554 -0.24620345 0.032764934 0.13100454 -0.34732577 0.2636593 -0.18756232 0.07024272 -0.28872257 0.26835188 0.010723875 -0.14078392 -0.048293337 -0.07581935 -0.288489 0.019820552 -0.004766546 -0.14396511 0.11434191 -0.07180689 0.0066942936 -0.082738414 0.15608865 -0.057960395 -0.09442036 -0.36969808 -0.12906468 0.20121269 0.16663359 -0.0063004573 0.12923023 -0.14466648 0.16936204 0.14888646 0.011547903 -0.14496455 -0.03542403 -0.056849685 -0.06607007 0.11579612 0.1701309 0.05756532 0.07166128 0.018645462 -0.10670235 -0.089032695 -0.016863389
63 -0.083156094 -0.10480685 0.051644217 0.24689919 0.20848994 0.09410479 -0.05631624 -0.24722512 0.03389089 0.03838331 0.20398028 -0.07813098 -0.11546256 -0.08918356 -0.15779892 0.11367244 0.075910725 -0.006522375 -0.24097005 0.0656197 0.13071005 -0.0895361 0.03381041 0.3422356 0.1492956 0.085364446 0.068088375 0.114173725 -0.32108924 -0.019537676 0.0073879343 -0.03707754 -0.07620997 0.020426877 -0.16812436 0.120780475 -0.16133104 0.03793778 0.048012264 0.01203251 -0.14481246 0.116498135 -0.08857751 0.011701491 0.041938636 -0.089795 0.06946974 0.017716518 0.26147488 0.070975035 -0.0036647466 0.029298991 0.06122475 -0.20137417 -0.22896957 0.016726641 0.15142484 -0.32487223 0.21814324 -0.14670955 0.025627386 -0.1460154 0.2531522 0.0082429815 -0.096180566 -0.0501131 -0.04255804 -0.2539491 0.018841924 -0.04738649 -0.14106652 0.14121613 -0.0620405 -0.085322134 -0.0797418 0.19838439 -0.039963584 -0.021737568 -0.43736893 -0.11955248 0.22857833 0.1299218 0.052147973 0.09441204 -0.13748385 0.20055811 0.100656986 0.011692631 -0.20686965 0.026583433 -0.00810816 -0.013702634 0.09949382 0.19414796 0.0070536635 0.009996456 -0.0050165555 -0.097692914 -0.14148225 0.00887256
49 -0.08282334 -0.0812539 0.062548086 0.2745799 0.18021515 0.116916984 -0.050604288 -0.22072837 0.041659348 0.026879767 0.17482598 -0.048877522 -0.1446271 -0.081468746 -0.14725707 0.09836671 0.08185234 0.016092347 -0.22372432 0.080243334 0.14527458 -0.059468236 0.068179734 0.2963024 0.16004401 0.093764156 0.041951243 0.13118638 -0.29748422 -0.04270386 -0.017421113 -0.026139341 -0.07441445 0.008858747 -0.15283401 0.12853213 -0.16205351 0.03842898 0.06403438 0.048539266 -0.12518461 0.13876814 -0.091589704 0.0122871585 0.051629286 -0.07362892 0.09096758 0.033133086 0.2589048 0.077636614 -0.0063791187 0.039750665 0.08354622 -0.18641524 -0.2070007 0.026206832 0.14032811 -0.35875112 0.22314554 -0.17956436 0.035655916 -0.1798333 0.25324357 0.006652438 -0.06728698 -0.04451488 -0.0481106 -0.22713685 0.07488894 -0.0032292577 -0.17154168 0.17352635 -0.09917033 -0.099898316 -0.07534594 0.19028518 -0.049584653 -0.025294727 -0.45347974 -0.14879115 0.24016841 0.15448937 0.043371275 0.11683149 -0.10985362 0.16711935 0.11515416 -0.029511424 -0.18969487 0.033931103 -0.012046674 -0.0063710967 0.12191543 0.14847983 0.031583004 -0.003270482 0.029642733 -0.11397687 -0.10273984 -0.021158747
58 -0.10563662 -0.11612346 0.07587455 0.24476984 0.21940781 0.10739171 -0.09009671 -0.21315624 0.047380712 0.04028804 0.18800816 -0.06469847 -0.103627026 -0.10390275 -0.1575863 0.10373895 0.075368494 -0.007496442 -0.24492078 0.07759812 0.167151 -0.06207463 0.05128656 0.29356018 0.1621956 0.06375887 0.050503597 0.13586852 -0.29820606 -0.040108077 -0.040094733 -0.016137024 -0.073887855 0.019057842 -0.16005632 0.13061187 -0.17479269 0.040885016 0.0767922 0.014345027 -0.14786789 0.11316918 -0.07612934 0.0015558444 0.052573934 -0.07527426 0.08623595 -0.009122653 0.25295395 0.058513287 -0.030253496 0.02033692 0.083464876 -0.1877493 -0.22583868 0.013412517 0.15562652 -0.36070183 0.23076138 -0.17142436 0.03531598 -0.21858534 0.24680774 -0.010877031 -0.08607487 -0.05494021 -0.041117724 -0.2363199 0.037756722 -0.0190702 -0.1354407 0.18373924 -0.06958232 -0.073954314 -0.0785519 0.17112546 -0.04556831 -0.048319563 -0.40405908 -0.13965082 0.20833334 0.13880365 0.058900397 0.10025333 -0.13575627 0.19043882 0.13945118 0.012337288 -0.16960086 0.0033299734 -0.030493118 -0.05246019 0.10436535 0.19244884 0.021280965 -0.0049881646 -0.00041693114 -0.07029417 -0.13957894 -0.0033400122
69 -0.08224932 -0.09169488 0.04901399 0.25650182 0.21088712 0.10132748 -0.07921593 -0.2091081 0.036887642 0.026127381 0.1921619 -0.05128841 -0.13422987 -0.09515945 -0.14841612 0.09441588 0.069271386 -0.0428809 -0.21732262 0.1002114 0.15018584 -0.061344728 0.020481631 0.31181183 0.1553428 0.08642763 0.049968027 0.13652791 -0.2746586 -0.040960602 -0.02446406 -0.008496204 -0.08497983 -0.013827623 -0.1568835 0.1311472 -0.15175936 0.057978485 0.058874033 0.02349264 -0.13349038 0.1529972 -0.060193665 9.9906894e-05 0.033397023 -0.07250512 0.061415985 0.015788808 0.2876517 0.078689635 -0.009230911 0.03317333 0.104435466 -0.2195704 -0.23272088 0.040034574 0.14173372 -0.34138268 0.23681049 -0.17450728 0.036328472 -0.19171801 0.25433102 -0.015196596 -0.08513221 -0.04831852 -0.02745388 -0.26930332 0.04665694 -0.004713816 -0.17368092 0.15173292 -0.10145132 -0.06497205 -0.08358707 0.16977964 -0.07126647 -0.04212145 -0.4433827 -0.1439641 0.22462149 0.15052119 0.02880374 0.10690703 -0.12304512 0.1866369 0.113039866 -0.004226032 -0.16671613 0.016970582 0.007238531 -0.023103809 0.111483954 0.1701228 0.03266744 -0.0016793024 -0.0016033597 -0.11120827 -0.11312183 0.0063789785
43 -0.09577834 -0.13388412 0.06338159 0.22736785 0.18535265 0.10876847 -0.08780281 -0.25073963 -0.0014552571 -0.0022194395 0.19234888 -0.07171701 -0.097461015 -0.102211 -0.14726973 0.087113366 0.11704811 -0.04006985 -0.20001332 0.0759272 0.14785916 -0.023822103 0.023548506 0.31242755 0.13358997 0.056628074 0.024098592 0.114605136 -0.2990242 -0.03966507 -0.03883226 -0.02182847 -0.06846889 -0.002325603 -0.14575851 0.11470718 -0.15753151 0.09656479 0.031302795 0.014740503 -0.15657823 0.12917322 -0.035626575 -0.0016007187 0.032813076 -0.07923017 0.06517515 -0.045729563 0.25532344 0.06576723 -0.00475767 0.047881484 0.071594454 -0.18350798 -0.2594807 0.035756636 0.13322754 -0.34408757 0.27651778 -0.19976729 0.031939108 -0.23003054 0.25071785 0.010794157 -0.11552038 -0.03179725 -0.066637315 -0.29280743 0.03597767 -0.0019211628 -0.1763567 0.15365882 -0.07769475 -0.004784381 -0.082258575 0.17321157 -0.06441382 -0.05288173 -0.40791598 -0.13724975 0.21491286 0.14053935 0.01082746 0.1318021 -0.109963454 0.18760817 0.10316574 0.008441993 -0.16630076 -0.017231464 -0.01739486 -0.02164577 0.1348694 0.18258752 0.045886368 0.02864229 0.015216392 -0.11412787 -0.10308397 -0.008666707
104 -0.098151416 -0.11338614 0.07267349 0.25624517 0.20785566 0.11582339 -0.070654884 -0.21239977 0.035613615 0.011702472 0.18455498 -0.07852559 -0.09833433 -0.109639674 -0.16737801 0.08393498 0.08159666 -0.0064522456 -0.21434043 0.07307517 0.16154929 -0.044912815 0.038675897 0.27968788 0.1697841 0.06791189 0.03210856 0.11740949 -0.3044702 -0.03516166 -0.04945988 -0.021610761 -0.06453372 0.01639509 -0.13982661 0.1254902 -0.18843517 0.0260002 0.062496692 0.034223784 -0.16634679 0.1035547 -0.080039926 0.01626117 0.057792004 -0.06407295 0.08951521 -0.009208814 0.23861088 0.05238401 -0.012162401 0.039214674 0.06718311 -0.20306322 -0.22304472 0.004147055 0.14690219 -0.35289913 0.22883698 -0.1740113 0.033900496 -0.21139888 0.2505257 -0.0028537242 -0.092804484 -0.04838055 -0.05095319 -0.23815739 0.048631497 -0.033738635 -0.15494055 0.17332765 -0.08125426 -0.051431537 -0.08315877 0.18301663 -0.06319725 -0.05221951 -0.4113436 -0.13453014 0.23219551 0.14246704 0.027567927 0.10905805 -0.13059656 0.19044317 0.14852934 -0.0014987593 -0.16887347 0.00091997004 -0.04955728 -0.033763636 0.099892266 0.17298165 0.02067114 0.014442155 0.015801288 -0.08354692 -0.12197671 -0.011500427
22 -0.08982342 -0.13295227 0.059637595 0.20989771 0.20917478 0.11467085 -0.1181272 -0.24483706 -1.8747358e-05 0.003645134 0.19651176 -0.08041819 -0.057735864 -0.13928792 -0.1503721 0.109627426 0.10626535 -0.08522852 -0.192227 0.07464847 0.1614771 -0.016672092 -0.012141061 0.2949014 0.13731879 0.018935906 0.03126417 0.12471258 -0.28519177 -0.021909488 -0.06780074 0.0041922294 -0.05084845 -0.009203453 -0.1405191 0.12435002 -0.18326484 0.0885602 0.037615947 0.021752762 -0.168056 0.11057512 -0.012933484 0.0022626908 0.04952575 -0.0740508 0.052430686 -0.07866655 0.2416108 0.055501726 -0.017743433 0.03918663 0.06986737 -0.19696178 -0.2535898 0.007525349 0.124858044 -0.3151773 0.27764508 -0.20314437 0.047301628 -0.23385315 0.2783583 0.0052237436 -0.12806365 -0.046274308 -0.050894223 -0.30072147 0.041783098 -0.043086387 -0.14673573 0.1416933 -0.07596925 0.022002451 -0.099149756 0.15437625 -0.045931786 -0.08358141 -0.38800415 -0.124651805 0.1920518 0.16105194 -0.021790454 0.14936283 -0.13539708 0.20455033 0.096215025 0.050970476 -0.14638132 -0.034705333 -0.044601172 -0.063178055 0.1171776 0.19156155 0.04972168 0.03518446 0.014255867 -0.09663338 -0.105191514 0.014596519
56 -0.114276156 -0.12433143 0.08082086 0.23502798 0.2076125 0.11664868 -0.06845448 -0.23418787 0.023315756 0.0051193777 0.19882652 -0.10217152 -0.069831885 -0.10603232 -0.15955164 0.090530545 0.07872878 -0.03351483 -0.20153476 0.049622983 0.15336122 -0.02297952 0.030785622 0.28142178 0.16188923 0.05277948 0.035120618 0.13445842 -0.2875009 -0.034473877 -0.07180298 -0.0169186 -0.04393804 0.0071495203 -0.10974305 0.11259347 -0.18516001 0.056649495 0.046602983 0.029489007 -0.17357926 0.10630804 -0.055183064 0.0015079004 0.07165135 -0.07457009 0.07420986 -0.04600881 0.23873365 0.0511993 -0.0090704765 0.04058703 0.06393747 -0.19148257 -0.23965323 0.031472806 0.13386312 -0.33684283 0.24578834 -0.19833268 0.033837926 -0.21525551 0.27470174 0.012431479 -0.12834871 -0.042764377 -0.05376356 -0.26818386 0.050342705 -0.03110094 -0.14618868 0.166071 -0.09400931 -0.014403049 -0.07718705 0.16301718 -0.042690344 -0.07232857 -0.39408097 -0.118127294 0.2254844 0.17268734 0.02099917 0.1433186 -0.12108306 0.19949614 0.13754962 0.021368183 -0.15821977 -0.029381907 -0.038495768 -0.05169564 0.09648341 0.16588949 0.038751323 0.03431922 0.027154272 -0.09388971 -0.099533446 -1.7562284e-05
89 -0.051108014 -0.08025777 0.091395125 0.25756592 0.19339985 0.116122454 -0.078326456 -0.21363124 0.048367072 0.04859594 0.19307387 -0.042098973 -0.12532444 -0.107056566 -0.15051244 0.09302874 0.06319417 0.0033604957 -0.24301872 0.117949046 0.15895991 -0.062548876 0.04175461 0.2975932 0.17244433 0.08175081 0.06344183 0.12253057 -0.2685842 -0.036008414 -0.0046416237 -0.033429563 -0.05635107 -0.0011654136 -0.19109589 0.14354935 -0.17433183 0.015273812 0.072185025 0.020624897 -0.13488911 0.13361675 -0.10252519 0.02196382 0.042972706 -0.078106195 0.096265554 0.015478806 0.25875336 0.08989826 -0.0005903899 0.024578942 0.070760876 -0.2074993 -0.2264928 0.013418798 0.15636915 -0.33314523 0.20532562 -0.15136725 0.049517103 -0.1667329 0.25280353 -0.014815073 -0.09417846 -0.041151512 -0.026871076 -0.2266602 0.037739005 -0.044548374 -0.13969018 0.15352882 -0.09228629 -0.09119708 -0.06441791 0.1960226 -0.03668593 -0.038085524 -0.42479149 -0.17143126 0.21989445 0.11090323 0.016600663 0.09318281 -0.12257947 0.19583187 0.09828384 -0.0136105595 -0.1989673 0.06180316 -0.025210518 -0.037452966 0.11036812 0.17586492 0.011760844 -0.0074033407 -0.0012059896 -0.09989956 -0.1389822 -0.013274789
32 -0.109099194 -0.10830768 0.07594304 0.24699584 0.203118 0.1299744 -0.0604804 -0.22855285 0.03382905 0.00820079 0.18363807 -0.06558748 -0.0973697 -0.098272376 -0.1510612 0.09592711 0.08348898 -0.0056594564 -0.2017088 0.06555644 0.15527274 -0.031774405 0.040712144 0.29030296 0.15982611 0.063669145 0.051744185 0.13541204 -0.28648445 -0.029689984 -0.06662175 -0.009384404 -0.045112178 0.001176662 -0.14629078 0.13559766 -0.17734705 0.057076063 0.05542027 0.019784072 -0.1581449 0.13172494 -0.06826392 0.013561251 0.06354627 -0.053649854 0.09526144 -0.015369641 0.25108987 0.063047536 -0.001907931 0.032709893 0.074840285 -0.19008553 -0.23048833 0.035517134 0.12186077 -0.35628083 0.23211136 -0.18267195 0.040031083 -0.19596437 0.25359726 0.006711742 -0.09707672 -0.048574585 -0.053876966 -0.23991542 0.045540027 -0.021186067 -0.15718397 0.15540376 -0.09710393 -0.041722406 -0.07117344 0.20045412 -0.04119105 -0.048943378 -0.40836617 -0.13841645 0.22476591 0.15810947 0.02946897 0.12794068 -0.12159728 0.17326218 0.12543198 -0.023185102 -0.16576593 -0.00044465935 -0.03247713 -0.02762099 0.11545335 0.15809843 0.034117065 0.022316717 0.034748442 -0.091303274 -0.0952067 -0.010925531
98 -0.12744625 -0.11783938 0.0739804 0.21817988 0.21134737 0.11682025 -0.08739331 -0.21759245 0.027537046 0.02347369 0.20663056 -0.1035223 -0.077881694 -0.12262401 -0.1567164 0.078222185 0.08946197 -0.05578195 -0.22722025 0.06790101 0.15574972 -0.040969424 0.0055711167 0.30445513 0.15561578 0.042725094 0.04901233 0.13011645 -0.3055941 -0.035505425 -0.059729915 -0.0153852 -0.05720643 0.007298043 -0.13755204 0.12908207 -0.1766069 0.047064226 0.052699346 0.01261087 -0.14324366 0.096838176 -0.061400224 0.0004234277 0.08975533 -0.08180454 0.058505733 -0.036827564 0.23089537 0.04456137 -0.021670973 0.035740737 0.06217494 -0.18834314 -0.22688714 0.008973703 0.13165572 -0.3185362 0.25141147 -0.19134408 0.03841501 -0.21346863 0.2778707 0.012334865 -0.107667744 -0.05568233 -0.052411508 -0.28031152 0.032976385 -0.03082479 -0.13881128 0.16579391 -0.084068485 -0.025872968 -0.08629783 0.16945565 -0.05974642 -0.076576166 -0.3945134 -0.10805364 0.20582941 0.15701973 0.01915312 0.12124037 -0.1466837 0.2183134 0.12816575 0.01702422 -0.1890704 -0.031348903 -0.036116503 -0.052497942 0.09471783 0.18713349 0.031140685 0.026194371 0.010009714 -0.105179384 -0.11773805 0.0019447089
45 -0.12985608 -0.14445579 0.07737607 0.22455557 0.19784272 0.12230713 -0.07014734 -0.23018329 0.017473623 0.033250343 0.21116857 -0.09269039 -0.07581214 -0.08995413 -0.1450807 0.1068915 0.10077957 -0.037422325 -0.21007149 0.07832061 0.15504974 -0.016581604 0.040928066 0.29668468 0.16138187 0.07545649 0.030644806 0.13340583 -0.2886157 -0.05671142 -0.076180294 0.01503804 -0.042596612 -0.019712621 -0.11107921 0.11977582 -0.20434836 0.090218626 0.037002563 0.01178965 -0.18278085 0.11433881 -0.0388892 0.008140575 0.08973735 -0.068961896 0.0663963 -0.05538374 0.24041918 0.028750231 -0.0014474995 0.060767032 0.09228926 -0.20921437 -0.23826541 0.014863178 0.12282408 -0.35425365 0.2329563 -0.18880677 0.0412131 -0.24043603 0.28080097 0.008680457 -0.099022195 -0.055331223 -0.06888236 -0.3033184 0.03751713 -0.00829845 -0.14978436 0.17032646 -0.13143206 0.01655074 -0.08813266 0.17578565 -0.05935943 -0.07179301 -0.4017228 -0.102494605 0.23584193 0.16861168 0.01532133 0.12134882 -0.13534278 0.21504728 0.14348592 -0.010399099 -0.16758075 -0.020031054 -0.0076476578 -0.023755768 0.09830847 0.19885007 0.047865514 0.046225294 0.040111516 -0.10969029 -0.07813063 0.005996409
95 -0.05471527 -0.09002399 0.100874975 0.25775445 0.18313858 0.14962918 -0.05444985 -0.230713 0.032891404 0.03231512 0.21194227 -0.03151461 -0.111555025 -0.07778683 -0.14560962 0.102558926 0.08485742 0.023510342 -0.21578947 0.104835205 0.18234576 -0.029815119 0.052741986 0.25652856 0.15345405 0.074353695 0.046310145 0.13230161 -0.25436023 -0.0676219 -0.04263454 -0.025857225 -0.011596139 -0.016353002 -0.17193688 0.1219331 -0.19712082 0.066016234 0.044945117 0.023522098 -0.1596363 0.13629669 -0.08247538 0.037510633 0.057963762 -0.064702645 0.1254623 -0.030648053 0.2578882 0.051608793 0.017174678 0.04167055 0.07354259 -0.21368547 -0.21620172 0.038827628 0.10717922 -0.34955776 0.20521054 -0.14573286 0.067955 -0.19251655 0.24515843 0.019202497 -0.124620736 -0.03097943 -0.057131186 -0.2607735 0.021372743 0.0050801584 -0.13990845 0.11998583 -0.12339229 -0.063992776 -0.082743 0.18034875 -0.03626892 -0.048800085 -0.3945001 -0.16614763 0.23617235 0.13559788 0.002011606 0.11712697 -0.1266547 0.17650388 0.11871946 -0.04743781 -0.1793587 0.049859103 -0.017545843 -0.014260795 0.092475295 0.14440173 0.03385482 0.052096426 0.048537053 -0.1352511 -0.08862773 -0.020728447
84 -0.04844294 -0.062749445 0.0967774 0.2773448 0.18407564 0.15031482 -0.047092438 -0.22206038 0.09150446 0.0418081 0.18822575 0.019088887 -0.13550954 -0.069116145 -0.119537495 0.085644744 0.06739915 0.045291726 -0.22747208 0.125178 0.20783801 -0.036579516 0.06613531 0.25632653 0.1421486 0.06631007 0.08388256 0.15869494 -0.25315177 -0.06058358 -0.061734226 -0.020301187 -0.03884981 -0.02107747 -0.23623481 0.15906188 -0.17298129 0.039130557 0.073273845 0.030898582 -0.14954223 0.18805464 -0.10842288 0.06790224 0.0648773 -0.062476777 0.12797707 -0.0076700337 0.28498062 0.07385634 0.02381059 0.035443783 0.09415119 -0.22074509 -0.22176717 0.043921534 0.10622445 -0.4004473 0.19334611 -0.15739338 0.086333975 -0.1881225 0.25379184 0.007310037 -0.088938735 -0.05511211 -0.032379035 -0.2536664 0.022522712 0.005226485 -0.13298228 0.1254586 -0.1202557 -0.100071475 -0.06855587 0.17490704 -0.050600786 -0.020952266 -0.4310952 -0.21788949 0.22201543 0.14062741 0.0008546915 0.13671114 -0.10182055 0.15849878 0.10290592 -0.060810328 -0.18181999 0.09028344 -0.012690018 -0.02111286 0.099708624 0.15026769 0.025057262 0.030799802 0.043272257 -0.123909295 -0.106292255 -0.0046150177
57 -0.07869044 -0.1020018 0.09248136 0.2723524 0.19646819 0.12545937 -0.040422726 -0.23506588 0.033401556 0.0388823 0.20418811 -0.06364541 -0.106363975 -0.088001005 -0.15006839 0.08710575 0.081335336 0.013771592 -0.22388177 0.08542081 0.15559866 -0.04854657 0.0655965 0.28786105 0.16665225 0.06915711 0.03706204 0.14730005 -0.29754344 -0.04041615 -0.048788443 -0.03627777 -0.049747854 0.0043010577 -0.15152597 0.12848096 -0.19793992 0.02883311 0.058502298 0.0059218258 -0.14760047 0.119217485 -0.099707365 0.038147803 0.07986166 -0.07658241 0.10569281 0.0006824973 0.23598151 0.06578782 0.008106525 0.037387576 0.04943935 -0.2057606 -0.22340424 0.034297064 0.12236003 -0.31875727 0.23331791 -0.14774996 0.046012383 -0.17521913 0.2612307 0.018835437 -0.091178544 -0.03144988 -0.05797708 -0.26090825 0.048468232 -0.026044121 -0.1486475 0.14394495 -0.09659916 -0.08259255 -0.07935123 0.19589429 -0.04740492 -0.054821987 -0.42382988 -0.1302159 0.2347694 0.13649455 0.012639025 0.10887603 -0.13523874 0.19313398 0.11686008 -0.018745765 -0.20722105 0.023289854 -0.016606476 -0.014007196 0.093235135 0.1475816 0.015944608 0.04206323 0.04409468 -0.12835729 -0.099891566 -0.016424771
64 -0.0881024 -0.12075207 0.11735565 0.23886901 0.19541743 0.14319408 -0.06653225 -0.2295059 0.02233907 -0.016173778 0.22286044 -0.034294583 -0.079366535 -0.101793416 -0.13142519 0.10140517 0.08461499 -0.029458934 -0.18067567 0.08468395 0.20478663 -0.0065771015 0.045567807 0.27097067 0.15646291 0.03661258 0.053623833 0.15245885 -0.25591367 -0.050117172 -0.11944008 -0.005340425 -0.029392833 -0.045217365 -0.15420401 0.14641558 -0.18494283 0.10088859 0.053567197 0.011763471 -0.17175181 0.15169364 -0.037514158 0.04320111 0.0553875 -0.048727505 0.09224299 -0.07306313 0.25485775 0.06811841 -0.015780026 0.0371219 0.07498844 -0.19932099 -0.2242498 0.060232896 0.1259567 -0.36634806 0.23520742 -0.1769801 0.07735916 -0.2591921 0.2642586 0.0097656455 -0.13009144 -0.051233463 -0.055305753 -0.2687458 0.016388688 0.01383004 -0.1525111 0.11546361 -0.087766774 -0.034454584 -0.083851464 0.1732839 -0.03462352 -0.06866511 -0.37961626 -0.14973465 0.22453165 0.15863295 0.0072200857 0.13795654 -0.108521864 0.16590679 0.11328115 -0.027291453 -0.12909423 -0.008704116 -0.021315895 -0.03501055 0.10484454 0.15217677 0.07864977 0.0622323 0.024114568 -0.104600236 -0.08724632 -0.02533849
61 -0.096718214 -0.12363974 0.11566569 0.20169544 0.2396686 0.12839061 -0.10628159 -0.22852975 0.006374297 -0.007653195 0.22236969 -0.071492545 -0.032063533 -0.13866428 -0.13510895 0.10440928 0.09173249 -0.12279353 -0.18484049 0.118772134 0.19358394 0.0084202485 -0.0067408327 0.27172893 0.15143299 6.774472e-05 0.042433955 0.14345771 -0.24531053 -0.043729067 -0.12408861 0.0027656537 -0.04443871 -0.051189 -0.13066989 0.13906716 -0.19203652 0.102687016 0.04787404 0.009077162 -0.18742926 0.11301989 -0.012928914 -0.00231692 0.07255755 -0.061281182 0.08021606 -0.122074574 0.24991852 0.04766934 -0.03645682 0.053057607 0.09883527 -0.19642203 -0.2667016 0.024945855 0.13679501 -0.3431904 0.25846517 -0.20917746 0.0561978 -0.2988461 0.2765367 0.013934843 -0.15310135 -0.033006795 -0.034308117 -0.321973 0.029104581 -0.012801412 -0.13697098 0.13182636 -0.10924923 0.0124776475 -0.09511871 0.117664725 -0.07007616 -0.09851775 -0.35963604 -0.14565732 0.19156215 0.16215886 -0.011389304 0.15047583 -0.12719569 0.20282227 0.12467609 0.022478307 -0.11843737 -0.045324653 -0.04449098 -0.082204245 0.10804825 0.18496 0.07791176 0.07962148 0.0010163244 -0.10386164 -0.10241819 -0.019358743
51 -0.06153372 -0.11603713 0.076911695 0.26737535 0.18792309 0.12544453 -0.061953824 -0.23214068 0.0037210595 0.011510038 0.19425675 -0.07673302 -0.11965259 -0.09259373 -0.15497078 0.102358304 0.08657433 0.0006114981 -0.20159951 0.08599766 0.1432429 -0.03522912 0.046919297 0.27478468 0.16667476 0.080870956 0.04142983 0.120923676 -0.2877993 -0.036122013 -0.04145137 -0.043667477 -0.047137443 0.007167603 -0.12919806 0.11695381 -0.19721933 0.035226166 0.036614846 0.020721704 -0.15889472 0.119436316 -0.077599056 0.022647073 0.06520707 -0.08193677 0.09676256 0.0016174997 0.25139797 0.07149368 0.003804947 0.033582978 0.05392364 -0.21162765 -0.23051092 0.022922667 0.12799463 -0.33203784 0.23281965 -0.15949176 0.029076213 -0.18911248 0.24510212 0.012211244 -0.10487624 -0.030126391 -0.05531297 -0.23816264 0.054566283 -0.02785639 -0.15855986 0.14893846 -0.08126403 -0.06868774 -0.083999276 0.19417027 -0.044670086 -0.05030411 -0.40882784 -0.13921636 0.23858908 0.14560144 0.0045729186 0.1212489 -0.12786978 0.1919344 0.11807745 -0.0062635047 -0.18318047 0.015522881 -0.031430803 -0.022900205 0.10058123 0.15061155 0.021526879 0.03297835 0.038070314 -0.114042126 -0.110119164 -0.024267638
23 -0.09234219 -0.13297078 0.122167856 0.24383791 0.21690808 0.13199629 -0.07753249 -0.2330167 -0.009132772 -0.0016583038 0.21732503 -0.05841558 -0.08176633 -0.13026765 -0.14304188 0.089074254 0.1033657 -0.06949849 -0.19803108 0.10470414 0.16669278 0.010936507 0.024060298 0.26370218 0.15089887 0.04245844 0.025109429 0.13315551 -0.2652122 -0.037630986 -0.10125975 -0.009946055 -0.03722277 -0.028796406 -0.11206497 0.12482248 -0.20776902 0.0733416 0.03410244 -0.008221138 -0.17370233 0.119651556 -0.04038791 0.013904456 0.064740114 -0.07157699 0.10465449 -0.060648676 0.23805396 0.04941336 -0.013747893 0.061481487 0.076095246 -0.20695163 -0.23704112 0.018813103 0.11864275 -0.3356717 0.25206935 -0.18884894 0.05256977 -0.24549834 0.24974981 0.00161378 -0.13154425 -0.024100794 -0.07508589 -0.26911917 0.039782077 -0.013697317 -0.13702717 0.12667568 -0.10662113 -0.009504399 -0.08993909 0.17507106 -0.049117696 -0.08027431 -0.36753353 -0.13907419 0.22148678 0.14587542 -0.012127801 0.112580635 -0.1419201 0.2101651 0.12985876 0.01350831 -0.13501395 -0.009134463 -0.030336263 -0.051399708 0.09545599 0.1789055 0.072866194 0.058238085 0.018988606 -0.1067357 -0.09151316 -0.02897493
65 -0.05997271 -0.14719646 0.089209504 0.21477824 0.25284165 0.11569006 -0.15959062 -0.23582974 0.057384387 0.020711213 0.21468692 -0.05894667 -0.0305208 -0.14692342 -0.16141742 0.106204174 0.087235086 -0.09031799 -0.2381992 0.10511548 0.22833928 -0.0012689176 0.0018612033 0.2666132 0.17245904 -0.007840032 0.05361411 0.1095745 -0.26143804 -0.02524493 -0.10799257 0.005078552 -0.04705147 -0.030927414 -0.20346127 0.13613729 -0.19354513 0.08372169 0.06698114 -0.011074473 -0.20525722 0.0937028 -0.02814102 0.0071087056 0.035982534 -0.053605415 0.1108463 -0.0827791 0.23959152 0.043172162 -0.04521994 0.04241926 0.11253599 -0.21473783 -0.27349687 0.002132941 0.12097248 -0.36483082 0.23494521 -0.17440383 0.07283108 -0.2879094 0.26801446 -0.013024324 -0.12834433 -0.05652686 -0.032937404 -0.29522154 -0.010174064 -0.04033013 -0.11431482 0.12630516 -0.071063936 0.01983235 -0.099691525 0.13709052 -0.074595936 -0.08035781 -0.3610746 -0.16597067 0.18347122 0.15028301 -0.021982575 0.111107096 -0.1479833 0.2089705 0.11907705 0.056928508 -0.13476789 -0.0030501566 -0.077865325 -0.09994335 0.114481136 0.22642817 0.06090768 0.040108956 -0.024466207 -0.060416136 -0.13426933 0.010322025
11 -0.0604325 -0.10772279 0.062256787 0.24751596 0.2102229 0.114330694 -0.08657541 -0.2280923 0.020778911 0.0061522075 0.1956189 -0.075953834 -0.118172005 -0.11472942 -0.14681952 0.11639052 0.08268567 -0.019531237 -0.2113425 0.07091085 0.15338968 -0.038750406 0.020647965 0.29610002 0.15998141 0.04921185 0.050556872 0.11784219 -0.28253844 -0.02415884 -0.03983039 -0.01874437 -0.04298272 -0.00072854885 -0.14565033 0.12135638 -0.16474542 0.06852018 0.048809458 0.01944273 -0.15253381 0.11223432 -0.061687086 0.0094531365 0.043634914 -0.063085735 0.07707169 -0.01913736 0.26395032 0.08293461 -0.015081142 0.022039719 0.05901109 -0.20274533 -0.23347364 0.022341698 0.15060356 -0.325939 0.22693603 -0.17103821 0.03785618 -0.19338165 0.25743815 0.009824572 -0.11639947 -0.042912234 -0.044637065 -0.25612292 0.035162706 -0.03970662 -0.1467188 0.1334352 -0.06616234 -0.064116664 -0.09198976 0.17505886 -0.05679244 -0.056819703 -0.40480348 -0.14450982 0.22159582 0.13744274 0.020394418 0.10672993 -0.1376699 0.17581251 0.10632208 0.024015116 -0.16980356 0.0129410345 -0.038166303 -0.03725404 0.10092269 0.17700997 0.027728662 0.034192536 0.017543176 -0.09999439 -0.13489264 -0.017355364
87 -0.09224802 -0.111628346 0.10227042 0.24415523 0.21396665 0.12437821 -0.081540264 -0.22544327 0.024942337 0.015737822 0.18832166 -0.053773303 -0.0726851 -0.12201449 -0.15368265 0.08002504 0.09308655 -0.03369947 -0.22677325 0.09781039 0.1609311 -0.040314812 0.029668387 0.28538123 0.16865945 0.06381496 0.0499825 0.12272886 -0.26803792 -0.036633123 -0.070377834 -0.017229352 -0.06614157 -0.009532381 -0.15099487 0.14177547 -0.19532032 0.060804322 0.06171503 0.02726214 -0.1617913 0.13173375 -0.04854399 0.019337695 0.07253036 -0.07266531 0.09034357 -0.062194627 0.24188535 0.06258812 0.0016518986 0.02926583 0.07709593 -0.2038933 -0.23693383 0.014080846 0.13974121 -0.35594347 0.2430795 -0.16750842 0.043908656 -0.21469519 0.2739839 0.0059033064 -0.104494 -0.0507853 -0.039440908 -0.25456175 0.044259872 -0.04070271 -0.13671991 0.15627232 -0.09935057 -0.039958116 -0.077565975 0.18832874 -0.029854639 -0.05546109 -0.396384 -0.15804908 0.23101304 0.1484049 0.008447782 0.13561954 -0.10559855 0.21250668 0.11158126 0.0005860067 -0.15716423 -0.0036497028 -0.035421442 -0.060627673 0.09549088 0.17501038 0.052248705 0.031546135 0.012340903 -0.100333765 -0.10613247 -0.00023188673
16 -0.07135258 -0.09848923 0.10463436 0.26618698 0.18697463 0.11316703 -0.052360553 -0.2303552 0.054714035 0.031977247 0.20845284 -0.01825982 -0.100168005 -0.10817189 -0.13246588 0.11243385 0.061591625 -0.0016392954 -0.2190054 0.08762413 0.1999646 -0.04681044 0.05402278 0.29443765 0.14945172 0.05186631 0.06984688 0.13656308 -0.2782795 -0.04652403 -0.061879274 -0.024465218 -0.057705473 -0.020121155 -0.20398313 0.15954229 -0.17242847 0.042737372 0.07254472 0.0046815323 -0.1710512 0.16225263 -0.08494552 0.053814348 0.042545434 -0.052896123 0.10384586 -0.035630293 0.25953263 0.08665286 0.003335591 0.032322805 0.07575945 -0.20478278 -0.22876318 0.042136066 0.13492823 -0.3651945 0.21661882 -0.14586446 0.058697138 -0.17867975 0.24517569 0.003581086 -0.102249 -0.035661906 -0.028561583 -0.24743956 0.0060562617 -0.029841205 -0.13555606 0.11300985 -0.091758214 -0.09438629 -0.0758148 0.20610541 -0.016353577 -0.016020257 -0.43034995 -0.16547629 0.23579922 0.12066588 0.026358614 0.1213709 -0.108254015 0.18370548 0.06723161 -0.041264407 -0.16755928 0.05754736 -0.0056040753 -0.024473455 0.11681972 0.17306042 0.027686527 0.033228982 0.001840836 -0.104690455 -0.108663775 -0.001730166
103 -0.12568857 -0.117403254 0.069610074 0.21551912 0.19655086 0.11570264 -0.046537217 -0.24446258 0.0066110766 -0.0057085264 0.20426594 -0.08436208 -0.07509972 -0.095954835 -0.12903786 0.10234246 0.10235641 -0.049697123 -0.19415668 0.041409202 0.13783416 -0.04684051 0.04047489 0.3131566 0.13937199 0.061257638 0.041290227 0.13118263 -0.29549003 -0.041441202 -0.07298408 -0.0066900607 -0.06429408 -0.008948782 -0.115008205 0.11828647 -0.1578357 0.09567499 0.032534376 0.013860138 -0.16946144 0.120919794 -0.025241083 -0.008080415 0.053827036 -0.069736935 0.0479748 -0.03939091 0.26238802 0.04395545 0.0043459097 0.039334107 0.07918267 -0.17330794 -0.23239787 0.044437975 0.14462794 -0.33505583 0.26163787 -0.19857903 0.016445406 -0.2127892 0.266353 0.01952099 -0.11015565 -0.04898624 -0.054518994 -0.2894361 0.03888771 -0.02352318 -0.16012758 0.15404606 -0.076294646 -0.026267583 -0.09716361 0.17712727 -0.03699717 -0.066275895 -0.41547683 -0.11019103 0.2127553 0.16544509 0.031117942 0.12925759 -0.110904574 0.1758082 0.11839735 0.0005620281 -0.15664569 -0.030645868 0.0014783331 -0.020944368 0.10584592 0.17324388 0.05156829 0.044418037 0.014653202 -0.11242719 -0.093080096 -0.009917418
36 -0.010894477 -0.06924629 0.1478595 0.22486402 0.2030817 0.17395067 -0.09290781 -0.22352688 0.092284806 0.02213472 0.20584945 0.079334214 -0.07854786 -0.086895585 -0.105251044 0.089333124 0.06297166 -0.013488187 -0.23024872 0.17104186 0.28878567 0.0047427732 0.045712095 0.23290358 0.12404229 0.013718276 0.10331808 0.18267901 -0.1857596 -0.07589323 -0.12113473 0.006520262 -0.009763641 -0.088773295 -0.27481356 0.19388963 -0.17181842 0.123960696 0.09137124 -0.001741746 -0.18403754 0.2156221 -0.03995407 0.06854183 0.046864558 -0.033141844 0.14433548 -0.12306545 0.28449637 0.07906197 -0.0036887072 0.022424182 0.13098755 -0.19578779 -0.23882346 0.07887147 0.106422134 -0.44261527 0.18603852 -0.14369574 0.14036427 -0.27272055 0.26635307 0.0193718 -0.1594217 -0.05768185 -0.013189789 -0.30614662 -0.014805867 0.06174424 -0.13853075 0.066245645 -0.13245493 -0.045967426 -0.06967865 0.12922932 -0.04657938 -0.043988656 -0.37295341 -0.26699653 0.2052631 0.12262739 -0.040120397 0.17414716 -0.08019049 0.15843159 0.07980313 -0.067824095 -0.10740654 0.07988043 -0.026333654 -0.07462433 0.111754656 0.13669103 0.070830114 0.09601177 0.036401294 -0.12290643 -0.06997261 -0.032495152
37 -0.055520315 -0.12209045 0.1436603 0.19687283 0.2606516 0.14876933 -0.16228284 -0.23194295 0.04773949 -0.027378116 0.24956752 0.0140579585 -0.005018187 -0.19121167 -0.12325547 0.111669965 0.08676228 -0.19315663 -0.19295461 0.16787732 0.28374517 0.0712374 -0.03869024 0.22637907 0.14982393 -0.07529349 0.07115334 0.16619328 -0.19857627 -0.03564975 -0.21835226 0.030852651 0.005284604 -0.10024753 -0.20082016 0.16587399 -0.20253488 0.13328992 0.08441178 -0.016726231 -0.23598568 0.1305117 -0.014470212 0.026477646 0.06802592 -0.025484385 0.11696034 -0.19066375 0.276533 0.04066117 -0.047206685 0.053113844 0.12790635 -0.21231785 -0.2818895 0.0311727 0.09914896 -0.37018102 0.23654246 -0.19133411 0.13546471 -0.37184384 0.28271544 -0.010160916 -0.1734152 -0.056565505 -0.029581899 -0.33203062 -0.029100813 0.0030154875 -0.090840325 0.07886315 -0.108385004 0.04756336 -0.09407416 0.1117993 -0.065687865 -0.12356647 -0.30151576 -0.23047616 0.1665027 0.15485585 -0.061643895 0.17239377 -0.13036974 0.20162034 0.11798686 0.043175627 -0.05444449 -0.023801597 -0.087439515 -0.12946655 0.08731264 0.21087082 0.13357912 0.10860895 -0.032351382 -0.06376472 -0.10235208 -0.015963353
102 -0.028849555 -0.08939982 0.078346476 0.27692035 0.18682924 0.12479289 -0.06955129 -0.22694208 0.026806403 0.023976987 0.21015121 -0.02837786 -0.14216334 -0.09326111 -0.16532414 0.09076952 0.08878056 0.047580816 -0.23642874 0.105521105 0.15088229 -0.05630565 0.04219663 0.30308628 0.18186714 0.09578283 0.07801164 0.12504424 -0.27470225 -0.046294652 -0.021479074 -0.02273734 -0.020990655 -0.016312461 -0.16474299 0.11924456 -0.18585737 0.03498807 0.05170986 0.033299096 -0.14346841 0.14102897 -0.09010798 0.036396533 0.04281024 -0.0866222 0.11223959 0.025809081 0.2657342 0.089338616 0.013749174 0.02707127 0.066974305 -0.22886315 -0.21405828 0.025007807 0.1465335 -0.3426313 0.20492469 -0.12890461 0.05433295 -0.18777521 0.24350399 0.014211269 -0.10296722 -0.05277613 -0.059979156 -0.22938535 0.034177184 -0.020877428 -0.1384071 0.122129686 -0.08234108 -0.10524078 -0.06989593 0.19976097 -0.030632375 -0.05121743 -0.41103476 -0.17167577 0.234009 0.13273928 0.01359623 0.09983435 -0.12819177 0.18708552 0.10952085 -0.0127366325 -0.1866344 0.043469176 -0.007137422 -0.009368184 0.076970816 0.1427964 0.035042614 0.02960541 0.032461528 -0.12279918 -0.12329097 -0.031853296
30 -0.10793474 -0.18144904 0.11049678 0.23071073 0.21483953 0.13204873 -0.07495164 -0.23781939 -0.034435883 -0.021909188 0.24349292 -0.113434 -0.054615974 -0.096768714 -0.15234631 0.10102051 0.12000043 -0.07152218 -0.16466348 0.06779794 0.14314465 0.032955725 0.024235424 0.2518208 0.1774686 0.051167503 -0.0063093 0.09185247 -0.26801682 -0.03475166 -0.12874357 -0.006414542 -0.017222561 -0.043091077 -0.046855275 0.114538446 -0.22563356 0.09926528 0.018782392 -0.006666538 -0.21833333 0.08840806 -0.018282626 0.016036369 0.081863046 -0.04631108 0.11045487 -0.0627795 0.22461314 0.017033117 -0.0003508604 0.06620131 0.08135939 -0.20807986 -0.26212624 0.021317935 0.09070805 -0.3353955 0.25733742 -0.20207666 0.011946818 -0.26108482 0.27359223 -0.0017771524 -0.13022678 -0.027907405 -0.09661383 -0.28461212 0.034863092 -0.037075788 -0.16463286 0.1520373 -0.119139224 0.058703236 -0.08141239 0.1869633 -0.07181571 -0.12888068 -0.36880258 -0.08004454 0.23427194 0.1697017 -0.027712798 0.13118412 -0.14556189 0.2061759 0.17795937 0.022463938 -0.13392004 -0.06298432 -0.038992833 -0.037420347 0.083677 0.17317136 0.07725201 0.09249276 0.047132384 -0.09934058 -0.049588412 -0.02559837
10 -0.11887517 -0.14440878 0.091342665 0.21178766 0.20962495 0.1221531 -0.087056935 -0.24392463 0.0074613173 -0.023817027 0.2177193 -0.10738581 -0.05973511 -0.117779404 -0.14307415 0.09167057 0.111487105 -0.08296732 -0.18888938 0.050285432 0.14932258 -0.02603636 0.019606927 0.29861194 0.15165219 0.03396935 0.04961145 0.13052323 -0.27226868 -0.055740528 -0.10838891 -0.0037565953 -0.06620274 -0.022313328 -0.12134631 0.1014384 -0.17533872 0.077962905 0.039865814 0.0069376864 -0.17770468 0.08980873 -0.01670734 -0.010823727 0.06033677 -0.06997827 0.04018741 -0.08234619 0.23283704 0.05223418 -0.0058496944 0.058190823 0.080262735 -0.18296787 -0.2536694 0.042238493 0.14503583 -0.31360984 0.26775858 -0.19132458 0.022661751 -0.26130185 0.28388557 0.024264066 -0.11679729 -0.045210116 -0.057642896 -0.29173106 0.034328267 -0.030963112 -0.13785708 0.15056053 -0.062338974 -0.012139983 -0.08321383 0.15590817 -0.056364276 -0.103563026 -0.37493885 -0.100517996 0.20209637 0.15908833 0.026362628 0.13406757 -0.1281137 0.19876823 0.14917977 0.03552518 -0.16091336 -0.053605087 -0.021247119 -0.054648682 0.098993756 0.18693466 0.06331135 0.07267056 0.005140529 -0.11181683 -0.100799546 -0.006097199
47 -0.086853586 -0.118412234 0.07284554 0.21693484 0.20097964 0.09823969 -0.08068859 -0.23489256 0.026208397 0.0037834372 0.22781175 -0.054295395 -0.10329542 -0.11185611 -0.14722781 0.103214554 0.103066236 -0.036298275 -0.22738753 0.086999804 0.14999722 -0.03948741 0.028527303 0.30896086 0.1527256 0.045707073 0.06779864 0.12786518 -0.2877619 -0.043464866 -0.0381643 -0.002673246 -0.05265172 -0.0041466146 -0.15576914 0.11807577 -0.15123564 0.08248656 0.059611432 0.016680498 -0.16984752 0.13252941 -0.054391332 -0.010879197 0.04250359 -0.06972373 0.057104636 -0.041829024 0.26748767 0.054900855 -0.011739662 0.040078007 0.07478513 -0.19389595 -0.23221438 0.044479128 0.159151 -0.32746607 0.23994341 -0.1633936 0.031182615 -0.2172447 0.25025734 0.016576173 -0.10840453 -0.05885923 -0.043303557 -0.28313237 0.019628678 -0.0066502397 -0.13823512 0.1443153 -0.06794756 -0.06376651 -0.098221876 0.16634823 -0.05138322 -0.07904156 -0.40642092 -0.14727235 0.20835163 0.14231162 0.04593971 0.105102755 -0.13603278 0.17678164 0.12238658 0.013380969 -0.17644525 -0.005866774 -0.0120379105 -0.017445635 0.086807586 0.19168697 0.03837872 0.04106792 0.019231629 -0.10356148 -0.12375611 -0.017063146
74 -0.041799463 -0.069078945 0.0964431 0.27422923 0.1779862 0.13262993 -0.053078257 -0.22035462 0.055852972 0.058637697 0.19359422 -0.026810775 -0.13599406 -0.08477331 -0.15564291 0.08751905 0.063260816 0.043954436 -0.2491038 0.125843 0.1770996 -0.06102701 0.056046557 0.27681568 0.1632617 0.09152346 0.06291405 0.1252482 -0.26498443 -0.058322743 -0.01842847 -0.047688685 -0.049505804 0.0027328178 -0.20394322 0.14031543 -0.18185516 0.01395557 0.06265019 0.029186478 -0.14804743 0.147908 -0.09583906 0.047867186 0.046320073 -0.07659844 0.12883514 -0.0051340787 0.24974291 0.07477063 0.016484687 0.020432424 0.06973251 -0.20340772 -0.22444996 0.032427087 0.13821141 -0.35993433 0.19844432 -0.14832774 0.0629315 -0.14857908 0.250185 -0.0009984561 -0.108400494 -0.042698782 -0.029147185 -0.22629662 0.025648458 -0.024965648 -0.13617513 0.12714599 -0.109087914 -0.09796583 -0.07433152 0.19673644 -0.023272982 -0.025440972 -0.43543217 -0.18332076 0.23974289 0.12183536 0.00055254577 0.12858044 -0.11219453 0.18570912 0.085576795 -0.05255934 -0.2002207 0.08090815 -0.010419986 -0.025624841 0.10473056 0.14569384 0.0033571047 0.017742567 0.031738028 -0.12770368 -0.11251884 -0.013220402
91 -0.08254138 -0.08954023 0.092057005 0.28692394 0.19719516 0.14055787 -0.034476914 -0.22921538 0.037633255 0.05008936 0.18934825 -0.06264207 -0.13986613 -0.08298368 -0.14790557 0.09252332 0.08767604 0.02392732 -0.23523958 0.09452709 0.15483327 -0.05482711 0.06683001 0.28369805 0.15659492 0.09901877 0.04685375 0.1447154 -0.30509996 -0.05444683 -0.02151317 -0.044509236 -0.058884963 0.022994392 -0.17082569 0.12723029 -0.19894814 0.002250589 0.05295056 0.027813299 -0.12761824 0.14053589 -0.12001365 0.034601226 0.06654938 -0.07804508 0.11271247 0.035495836 0.23730607 0.04752561 0.010259764 0.033237588 0.06418961 -0.20988142 -0.22105236 0.017179128 0.11594208 -0.34117314 0.20935768 -0.15965773 0.041266806 -0.16482064 0.25147206 0.0066903867 -0.07825958 -0.039889526 -0.058086224 -0.23407146 0.0606382 -0.017586289 -0.15085796 0.16415302 -0.11408491 -0.09487426 -0.07164466 0.21652274 -0.035818875 -0.02148905 -0.4395053 -0.15186994 0.23356763 0.122256085 0.04342481 0.09068217 -0.14007223 0.19489558 0.13203262 -0.03594994 -0.2174947 0.058868602 -0.006217619 -0.007953099 0.11079015 0.16901621 0.011286297 0.016583463 0.050372917 -0.11879935 -0.106983654 -0.005413656
34 -0.038780916 -0.11296864 0.10711647 0.20990099 0.2345315 0.13808589 -0.13589641 -0.24291052 0.042134598 -0.0074650403 0.23488778 0.02090657 -0.033694595 -0.123356365 -0.12585776 0.11492177 0.10119815 -0.09871717 -0.192303 0.13894576 0.24840352 0.031504948 0.016532833 0.23762743 0.12890458 -0.02972955 0.08573504 0.16345914 -0.21192294 -0.040786613 -0.16191413 0.029438851 0.014103426 -0.0896738 -0.2017461 0.14938943 -0.18057112 0.12940852 0.06308306 -0.0046627233 -0.21525143 0.15149575 -0.036211733 0.027921945 0.044365477 -0.045158748 0.126319 -0.14720881 0.27211997 0.055391952 -0.037353933 0.054256152 0.11928133 -0.20569912 -0.26490453 0.035429068 0.10256311 -0.3851726 0.227214 -0.17625076 0.107017994 -0.33146676 0.25115913 -0.0060364557 -0.15099308 -0.05243077 -0.04829135 -0.30846307 -0.023784855 0.016382914 -0.10149112 0.08879346 -0.10675981 0.010454027 -0.10483164 0.11955326 -0.056189075 -0.08613503 -0.34634387 -0.20326312 0.18067841 0.15673307 -0.031771593 0.16354881 -0.123831 0.1713943 0.108432025 -0.0007137499 -0.08332455 -0.0016574863 -0.05983884 -0.08429518 0.09228238 0.18707278 0.11180319 0.091058426 -0.008160763 -0.08666624 -0.095101885 -0.01431522
78 -0.09836898 -0.094020925 0.05468636 0.26372805 0.20318101 0.08357934 -0.07685008 -0.20553513 0.07159908 0.06411179 0.17422733 -0.06626048 -0.13529877 -0.10063498 -0.16476369 0.09399114 0.051633626 0.016277209 -0.26647547 0.091507316 0.14873597 -0.088023685 0.04307555 0.32452556 0.1639762 0.069808446 0.05564634 0.13395718 -0.30748177 -0.034350775 0.013526762 -0.029216373 -0.07640518 0.030610345 -0.18607402 0.12854776 -0.15158062 -0.0043312595 0.08927834 0.023077656 -0.12109074 0.12560773 -0.11906083 0.0023048099 0.03769509 -0.09094176 0.090510935 0.045555692 0.2510604 0.08278268 -0.03090832 0.011805297 0.06751089 -0.19273677 -0.19839266 0.015183033 0.1576535 -0.35036987 0.2196484 -0.1482228 0.031637847 -0.17084782 0.24698944 -0.016727114 -0.079998 -0.06465969 -0.026279565 -0.23332305 0.042927645 -0.0151716685 -0.1401131 0.19407026 -0.08884397 -0.103659175 -0.06817844 0.19684494 -0.06522158 -0.019986643 -0.44300035 -0.15064372 0.221497 0.11698564 0.08044259 0.0686672 -0.14532302 0.19844294 0.13634871 0.0044876994 -0.20646785 0.044595692 -0.01677212 -0.009048429 0.099622265 0.1905889 0.0020652702 -0.04142286 0.019610444 -0.08812508 -0.15474325 0.0026909485
55 -0.11931885 -0.1271303 0.07383283 0.23903915 0.19520903 0.11574244 -0.07422946 -0.2289275 0.011594059 0.0061583496 0.20389627 -0.081604324 -0.0819454 -0.105214335 -0.14915372 0.10440749 0.09865569 -0.044875506 -0.18884726 0.06965195 0.14518332 -0.026744202 0.029367508 0.2804934 0.16218583 0.04618377 0.031107828 0.13578303 -0.28523752 -0.03653512 -0.07753266 -0.013807999 -0.054131832 0.003931378 -0.116839215 0.12690878 -0.17179134 0.05472568 0.052015483 0.032113213 -0.16635679 0.122699484 -0.059252623 0.018145151 0.07895069 -0.061404955 0.07911248 -0.032213725 0.22932237 0.044251315 -0.019620057 0.051456824 0.0664148 -0.18560295 -0.22881944 0.018209387 0.13184918 -0.3396004 0.24419658 -0.18455432 0.029524306 -0.22888853 0.25976795 0.0047297105 -0.10209867 -0.04532859 -0.06510037 -0.26638836 0.041859932 -0.02389048 -0.14876963 0.17767318 -0.076354615 -0.019564332 -0.0834939 0.1802007 -0.048904475 -0.07614409 -0.40120035 -0.110318296 0.21981275 0.16839638 0.03178313 0.124429084 -0.12079647 0.19002412 0.14167611 -0.0016341174 -0.1681389 -0.029608544 -0.032454446 -0.025223702 0.10618945 0.1735191 0.046900727 0.029935844 0.033509232 -0.08611445 -0.09772015 -0.0030257758
48 -0.09225909 -0.12369245 0.047034968 0.23533449 0.20620221 0.090416975 -0.0793191 -0.23974183 0.010043779 0.013648547 0.21486081 -0.080857344 -0.097690284 -0.110345915 -0.14923564 0.09701473 0.09930128 -0.06877401 -0.22614864 0.06992265 0.12554337 -0.041844156 0.011258066 0.314972 0.14579225 0.051102225 0.04148521 0.10802687 -0.30246934 -0.009722433 -0.041528173 -0.013946919 -0.0722496 0.009719853 -0.13086577 0.11252395 -0.1469775 0.057265136 0.05910166 0.02988071 -0.16793773 0.09628566 -0.061606776 -0.007812852 0.053919002 -0.07275981 0.05436564 0.004625668 0.24277471 0.052128024 -0.02639527 0.034813013 0.07644118 -0.20594 -0.24189569 0.013728635 0.13920541 -0.30736145 0.24489777 -0.18189847 0.016360462 -0.20071054 0.24933283 0.00032471874 -0.07986632 -0.038740408 -0.047948763 -0.2709684 0.021174096 -0.04604834 -0.14881887 0.17270574 -0.069437936 -0.037811246 -0.099777 0.1690852 -0.06294578 -0.0676482 -0.41692618 -0.1231195 0.20358296 0.14267601 0.027732115 0.090494186 -0.14423122 0.19231123 0.12887038 0.04592867 -0.1828611 -0.013917546 -0.021783838 -0.030526545 0.09280639 0.20856608 0.024422543 0.01750551 -0.0066741756 -0.08598243 -0.13615836 -0.0038230454
68 -0.08407977 -0.09297461 0.08043567 0.29299366 0.18043835 0.12560767 -0.037665952 -0.20160964 0.047540203 0.05910006 0.18802717 -0.048143096 -0.15001898 -0.08590137 -0.14891812 0.08757638 0.059604727 0.037614442 -0.23675254 0.09868132 0.1459964 -0.061036535 0.06401946 0.27630916 0.18009827 0.083646074 0.05058984 0.14802875 -0.28599235 -0.052742943 -0.029331705 -0.03337999 -0.06997635 0.023975462 -0.1850298 0.13421237 -0.17832884 -0.017835654 0.075137205 0.023562584 -0.12651351 0.14216316 -0.12326721 0.04575791 0.06895432 -0.078944445 0.11789997 0.038996726 0.25057632 0.06881904 -0.0046769874 0.03545715 0.064580865 -0.21549362 -0.19680296 0.024132585 0.13163532 -0.3438649 0.2005287 -0.15210623 0.040488757 -0.1533485 0.25775713 -0.010989834 -0.054643568 -0.04508789 -0.050997894 -0.22464165 0.05516847 -0.024479227 -0.15399007 0.17544052 -0.09389388 -0.12365528 -0.07439533 0.20696795 -0.059649665 -0.038922936 -0.43657738 -0.15368427 0.24337107 0.13357425 0.03900232 0.08444428 -0.13378754 0.18256694 0.12482398 -0.039763935 -0.2164947 0.059772924 -0.017692208 -0.013826231 0.1068994 0.1577984 0.012159734 -0.016098544 0.049782574 -0.112629764 -0.11257962 -0.021982338
94 -0.033476215 -0.07892535 0.09972973 0.26487297 0.1882709 0.12153925 -0.058237683 -0.22660325 0.02987669 0.027331732 0.19505978 -0.010085509 -0.14135566 -0.103673406 -0.15555835 0.0811356 0.08706375 0.01847541 -0.24757041 0.12139394 0.16964154 -0.051753033 0.042725705 0.29388496 0.17139567 0.09359593 0.07269351 0.11916938 -0.26497635 -0.055616796 -0.016681248 -0.039528906 -0.046482697 -0.004917084 -0.15928844 0.11814903 -0.1747475 0.04240686 0.060845878 0.027364476 -0.14482886 0.14809635 -0.071994044 0.012030434 0.028161399 -0.087451965 0.10847272 0.00017238276 0.26484352 0.08622127 0.007700182 0.018594434 0.06884125 -0.20961824 -0.21376733 0.035734765 0.16320631 -0.3549887 0.21658123 -0.13966553 0.054166865 -0.19475271 0.23542134 0.007549869 -0.12472609 -0.033824686 -0.0431339 -0.22546874 0.03975678 -0.0038983335 -0.15372229 0.12591334 -0.07805943 -0.10724975 -0.057318505 0.1930574 -0.023207901 -0.053033497 -0.41547716 -0.19040342 0.22790653 0.11215497 0.018879598 0.10315582 -0.10147168 0.17643471 0.10561187 -0.018819742 -0.18574713 0.04991673 -0.009033679 -0.029889965 0.08004494 0.14673185 0.024914853 0.023004256 0.024796685 -0.11572483 -0.13098241 -0.041404147
44 -0.06881018 -0.10247907 0.08198463 0.23781124 0.20585985 0.11929089 -0.08112199 -0.23989224 0.025816023 0.026484627 0.20364285 -0.06359787 -0.08260121 -0.08478363 -0.14904056 0.100050725 0.08384044 -9.70031e-05 -0.21058138 0.073215514 0.16197556 -0.025832547 0.041685715 0.27618238 0.16859505 0.06433023 0.05060897 0.12524617 -0.26921034 -0.049584996 -0.048250325 -0.034370296 -0.03734243 -0.022969946 -0.15309095 0.1241371 -0.1903208 0.07069923 0.05199417 0.01761929 -0.15972474 0.12692824 -0.05403211 0.013629251 0.06082651 -0.08237669 0.086905316 -0.049495578 0.26082674 0.067759775 0.0061977836 0.03071748 0.06525619 -0.21553522 -0.23898013 0.022949968 0.14180198 -0.35145676 0.2321752 -0.14908779 0.03699486 -0.2211997 0.25326747 0.0017300709 -0.123386405 -0.04063914 -0.04178942 -0.25636077 0.007694262 -0.02321574 -0.15208119 0.13514939 -0.08298909 -0.040467307 -0.07395677 0.18194678 -0.04259024 -0.07200868 -0.39206317 -0.12422569 0.22011758 0.14632303 0.0106834425 0.13148499 -0.12990576 0.1891623 0.12991755 -0.0041908603 -0.16792789 0.0012698167 -0.036124937 -0.034576226 0.10246507 0.16758612 0.031736784 0.026407735 0.025177298 -0.09789093 -0.12778582 -0.013736405
90 -0.09050889 -0.08939648 0.06381422 0.26178947 0.20868355 0.10469941 -0.0691419 -0.2134164 0.07151313 0.07105697 0.18655717 -0.07309799 -0.12126717 -0.10411489 -0.15877484 0.09031606 0.058444504 0.021149293 -0.27700672 0.090515405 0.15228485 -0.06650549 0.059667516 0.30912247 0.17413592 0.06969731 0.052969426 0.12875068 -0.29753354 -0.045452356 -0.006755057 -0.03370461 -0.07312493 0.024894206 -0.19670703 0.12801197 -0.18406956 -0.015226298 0.0763999 0.021931887 -0.12769018 0.12620614 -0.11556474 0.01711214 0.06731321 -0.08753393 0.10927229 0.033546492 0.2324051 0.06647467 -0.024230903 0.028403344 0.07362788 -0.21356389 -0.21349286 0.01181198 0.13587919 -0.3410493 0.20565689 -0.15122963 0.035897974 -0.1631121 0.24630384 -0.018339155 -0.062034804 -0.057561915 -0.04445229 -0.23917994 0.028726636 -0.025367385 -0.13296102 0.19544698 -0.09783335 -0.10147194 -0.07614821 0.1948058 -0.057601206 -0.031363495 -0.4327532 -0.13103332 0.23143128 0.11699859 0.049962413 0.06010744 -0.15161034 0.21684034 0.12450791 -0.013313396 -0.21432738 0.054939292 -0.020355932 -0.021190178 0.10436973 0.2024634 -0.0027172426 -0.03435275 0.020865329 -0.09538822 -0.14919356 0.0070962636
50 -0.10643107 -0.10905391 0.09480552 0.23378196 0.18464322 0.12645702 -0.044098917 -0.23082611 0.008022697 -0.015131352 0.20606966 -0.048807625 -0.1045845 -0.08378059 -0.12924923 0.09784718 0.08901138 -0.03323427 -0.179821 0.07225809 0.16716002 -0.006634326 0.052940246 0.27496967 0.14871716 0.06256274 0.048006393 0.16772524 -0.2688072 -0.07634675 -0.10104089 0.015192392 -0.057040323 -0.025929485 -0.13745646 0.12864551 -0.17390047 0.098761745 0.046229858 0.025084741 -0.15946499 0.15480717 -0.030449256 0.0045651942 0.04652037 -0.0518804 0.06924549 -0.077791095 0.2673798 0.043605804 -0.0070577106 0.051570605 0.080043435 -0.18985052 -0.23076603 0.07194772 0.14130189 -0.3689092 0.23854922 -0.19940065 0.041976616 -0.24862738 0.25890794 0.016571222 -0.11014004 -0.060184352 -0.049966555 -0.28438142 0.044971745 0.03212859 -0.17719735 0.1398236 -0.10097705 -0.041758835 -0.101409905 0.18280034 -0.047315713 -0.069341935 -0.40974635 -0.14136715 0.22656293 0.1737878 0.03362078 0.13646878 -0.099330135 0.14877018 0.13543567 -0.042379655 -0.142409 -0.016367482 -0.0029757645 -0.029036 0.09639329 0.16309491 0.06824863 0.05637708 0.03987002 -0.11578303 -0.06945939 -0.009695998
88 -0.0525132 -0.08799198 0.11041401 0.2593514 0.21297945 0.11132748 -0.07808928 -0.20156229 0.04509336 0.041346855 0.19197613 -0.022861168 -0.10568011 -0.098623015 -0.14902617 0.0808772 0.05110367 -0.014855419 -0.23939835 0.12855954 0.2092379 -0.03584218 0.05076132 0.27332848 0.16303772 0.043650553 0.071678594 0.13288325 -0.2499562 -0.058987338 -0.032421038 -0.035648227 -0.062234264 -0.016666649 -0.19512214 0.14032361 -0.16764297 0.050509125 0.08041524 0.01569548 -0.1602775 0.15795973 -0.08111208 0.01877023 0.037537757 -0.07416774 0.11585844 -0.030552942 0.26440814 0.08072208 -0.0073539093 0.01624416 0.07601168 -0.19982944 -0.22552991 0.037322607 0.14948046 -0.3760443 0.21653421 -0.14394557 0.07203529 -0.20726031 0.23317948 -0.002853335 -0.13937593 -0.041766323 -0.012533636 -0.24192746 0.024231864 0.009012414 -0.15294394 0.130958 -0.09443844 -0.09813119 -0.0742846 0.17361285 -0.053844005 -0.058601506 -0.4053579 -0.19082035 0.2230044 0.12228253 0.024300357 0.11410271 -0.1120973 0.18772465 0.10841868 -0.014396315 -0.17002971 0.038484402 -0.0132080335 -0.039269228 0.10698694 0.15788203 0.019172855 0.008413034 0.020370897 -0.1055139 -0.13124418 -0.014001468
41 -0.07809286 -0.13581449 0.08755275 0.23567551 0.19778661 0.10703242 -0.098666556 -0.22888324 -0.0066972803 0.002736406 0.19930306 -0.077237286 -0.08140831 -0.13835889 -0.16167915 0.10369701 0.100941844 -0.06063411 -0.18631941 0.082491994 0.16123769 -0.029574642 0.017119823 0.2836938 0.1653476 0.040102772 0.04017718 0.11229166 -0.27769423 -0.031900086 -0.06796678 -0.021127762 -0.057320658 -0.012501943 -0.11513502 0.12700166 -0.18894741 0.054477286 0.049797937 0.016335318 -0.17048492 0.11147148 -0.052885335 0.022404922 0.061803974 -0.059982307 0.08555993 -0.05419436 0.23314902 0.0680153 -0.014098844 0.041354552 0.058707092 -0.19143133 -0.24777535 0.004659452 0.13990101 -0.33271173 0.25351137 -0.18266921 0.027518164 -0.22122519 0.25488165 0.002960393 -0.12181587 -0.04126632 -0.058439292 -0.25536248 0.03253492 -0.03984899 -0.14297318 0.13586114 -0.07803517 -0.018072132 -0.09002362 0.18323965 -0.03715415 -0.065202735 -0.4002451 -0.13179664 0.22530495 0.14815748 -0.0018759544 0.12944187 -0.13112839 0.20220254 0.100306 0.011548482 -0.16035296 -0.014854033 -0.034947917 -0.048823748 0.09753579 0.17834091 0.055097364 0.029392112 0.01734023 -0.09649751 -0.10955721 0.002892947
13 -0.10738499 -0.1169735 0.07073973 0.2189444 0.21424745 0.104664296 -0.08242237 -0.22818205 0.0048116557 0.014160768 0.20434818 -0.10169587 -0.058664493 -0.13394745 -0.15679124 0.0952187 0.08508488 -0.09326868 -0.20027666 0.0684314 0.15658922 -0.017422294 -0.007924605 0.295023 0.1454839 0.02421642 0.026282363 0.11980887 -0.2922705 -0.022538066 -0.06899552 -0.020380856 -0.066067465 -0.0019135493 -0.10881271 0.13059434 -0.17878795 0.059325647 0.046366688 0.03273212 -0.16868377 0.09003633 -0.03832961 -0.021039039 0.06731999 -0.07085428 0.052217662 -0.061138727 0.24282123 0.046256576 -0.040740028 0.03553375 0.06470036 -0.18901488 -0.24951316 0.0015411391 0.15404299 -0.3031551 0.25777668 -0.19132513 0.031525224 -0.2350515 0.2570921 -0.00700749 -0.1171424 -0.047286946 -0.03130303 -0.27778402 0.04236842 -0.036435027 -0.134776 0.1588677 -0.06946152 -0.014564517 -0.107422575 0.1410754 -0.040217504 -0.0856933 -0.38891625 -0.11518319 0.19860168 0.16603103 0.0008970946 0.13332194 -0.14273138 0.21443586 0.11424089 0.047891214 -0.13924927 -0.04971768 -0.035355456 -0.05725102 0.10499674 0.19651173 0.044945095 0.02555939 -0.010417276 -0.07714171 -0.13261275 0.00041387897
9 -0.11918583 -0.11844393 0.07517304 0.22193953 0.19495066 0.1275706 -0.053777114 -0.2316409 0.010960066 0.0064960937 0.20349364 -0.09260472 -0.06282846 -0.08737502 -0.13981645 0.08055235 0.10667057 -0.043351416 -0.18803073 0.07860937 0.14703092 -0.00851927 0.022229267 0.30198854 0.13841312 0.07489353 0.03556011 0.15978254 -0.2908124 -0.048101604 -0.08268282 0.013326305 -0.0431754 -0.023361387 -0.123702936 0.13257512 -0.17545459 0.11460847 0.039216 0.0023896885 -0.16397342 0.12861082 -0.022894628 -0.00024398282 0.066900104 -0.07620434 0.05109901 -0.072594024 0.2515361 0.030563278 0.008294463 0.058969166 0.08453159 -0.21408977 -0.24910636 0.03716903 0.13357462 -0.327804 0.24601017 -0.19058739 0.036529284 -0.24007525 0.26813388 0.020748017 -0.1227874 -0.03787003 -0.054490414 -0.31184095 0.04991618 -0.009349022 -0.14636531 0.14008065 -0.11720985 0.020061458 -0.093209945 0.15901983 -0.056035332 -0.08727523 -0.38236097 -0.109811276 0.21439779 0.17053285 0.004491949 0.1420867 -0.13086662 0.2022163 0.124463744 -0.0040241545 -0.1540752 -0.032000065 -0.0012915976 -0.049907394 0.09533939 0.17615423 0.052986037 0.04771328 0.02175285 -0.11226671 -0.087540925 0.0060258377
52 -0.05111718 -0.07926097 0.08657323 0.2521351 0.19260901 0.13968937 -0.056691054 -0.22404033 0.04320237 0.03183388 0.21160766 -0.036872085 -0.117502965 -0.08076354 -0.16415362 0.09150882 0.086501285 0.041336507 -0.23438396 0.086670786 0.16441296 -0.055260174 0.04793792 0.29288346 0.17078117 0.08542824 0.06533078 0.13775702 -0.2830133 -0.052258234 -0.03177758 -0.03268225 -0.018384399 0.0015557347 -0.16704066 0.13434383 -0.17957304 0.060361262 0.05572012 0.043001138 -0.14575902 0.15336692 -0.093025245 0.024289304 0.055055182 -0.068155795 0.11513809 -0.00040811065 0.26096472 0.07097508 0.013592319 0.03893748 0.063483514 -0.22011177 -0.214476 0.037483476 0.13913886 -0.34263834 0.2235145 -0.1448591 0.07124761 -0.19610345 0.24403745 0.02199134 -0.11700683 -0.052666403 -0.047007423 -0.22409421 0.024464047 -0.019790791 -0.13281691 0.12473659 -0.08805844 -0.07735056 -0.07579334 0.1852969 -0.025505604 -0.04904187 -0.4024439 -0.16898663 0.23874252 0.15089124 0.01712721 0.12854473 -0.11780366 0.16916712 0.11147614 -0.029914755 -0.19124429 0.044250056 -0.01752949 -0.008402878 0.09824568 0.13864575 0.022273598 0.027167436 0.02204558 -0.12093908 -0.11858591 -0.018132517
0 -0.10399914 -0.11154217 0.08624435 0.2238927 0.20757608 0.13025212 -0.0577811 -0.22381417 0.021149877 0.01595727 0.18508163 -0.07287259 -0.063865304 -0.100612916 -0.14288744 0.08494528 0.094542645 -0.039039508 -0.20807493 0.0638122 0.16092545 -0.019791948 0.015661849 0.29708263 0.15340957 0.060526766 0.035791744 0.14515655 -0.28852314 -0.035319086 -0.08087998 -0.0035062074 -0.05293672 -0.009836733 -0.13531022 0.12841849 -0.1865288 0.08094561 0.05032148 0.009864846 -0.14483279 0.124026336 -0.03900145 0.004901678 0.07577303 -0.07391343 0.059158765 -0.04659596 0.24764265 0.039024543 0.0033942717 0.03525106 0.08235097 -0.19972128 -0.23389393 0.024673942 0.12157001 -0.3210025 0.24840702 -0.18870486 0.04526533 -0.21522819 0.27943638 0.016842447 -0.1027145 -0.046938933 -0.044490438 -0.28871757 0.053697072 -0.019767266 -0.16220897 0.1465514 -0.10803422 -0.01568511 -0.07931824 0.15895216 -0.03909407 -0.07705395 -0.39531407 -0.13251704 0.20985134 0.16076446 0.00823971 0.12821758 -0.118043736 0.20433636 0.11865717 0.00532254 -0.1545533 -0.028293023 -0.02008339 -0.04554426 0.102724016 0.16512547 0.043079697 0.04537889 0.024241693 -0.10407973 -0.09141173 -0.001908302
12 -0.07019597 -0.14405444 0.11390014 0.2217751 0.2023633 0.1308576 -0.102811754 -0.2370533 0.0081594745 -0.016696854 0.22872405 -0.03611745 -0.06723998 -0.12784515 -0.1282122 0.109738186 0.10184246 -0.0625539 -0.1715335 0.101022705 0.17362161 0.005568719 0.015976878 0.25666043 0.16285568 0.018076193 0.042692397 0.12136028 -0.24287145 -0.043313563 -0.11971025 0.01055651 -0.012840872 -0.041491147 -0.123399705 0.12288886 -0.18403845 0.09948241 0.052455053 0.011484468 -0.19640297 0.13091703 -0.032861132 0.030439956 0.0636928 -0.04651542 0.102648005 -0.0913292 0.24907254 0.0621843 -0.0064541996 0.056994066 0.09067081 -0.1993197 -0.2401161 0.024810007 0.11712194 -0.34698668 0.25108284 -0.18783423 0.06343876 -0.28026712 0.26777345 0.0008627339 -0.11851053 -0.040951677 -0.06562519 -0.2705113 0.025681077 -0.022427976 -0.12654154 0.12219385 -0.096014984 -0.00076493237 -0.093655996 0.15569144 -0.04350274 -0.08809769 -0.3661858 -0.15890065 0.21634284 0.17137492 -0.014863458 0.1356407 -0.123042315 0.17638472 0.121299334 0.0043075443 -0.11398222 -0.018809788 -0.045229644 -0.0374323 0.08110013 0.17129579 0.09589383 0.072885364 0.0148331 -0.08809883 -0.086907044 -0.02629317
31 -0.104483664 -0.11384278 0.09339895 0.24871098 0.18706937 0.1288316 -0.06174361 -0.2242711 0.02509105 -0.0046591074 0.208256 -0.0883136 -0.095760085 -0.092221476 -0.16009675 0.08153557 0.087324604 -0.019330636 -0.20199989 0.06546118 0.15184473 -0.02246623 0.06586319 0.26276612 0.16912894 0.069625705 0.03531657 0.14788863 -0.29605442 -0.06143284 -0.09090354 -0.016551306 -0.041633043 -0.010596513 -0.1303879 0.10943719 -0.18819757 0.07167027 0.04714369 0.009095961 -0.15340275 0.116196096 -0.07272356 0.020389745 0.07188108 -0.067392126 0.08381062 -0.045788277 0.23911963 0.036239382 0.0039260536 0.06434805 0.0804746 -0.20690407 -0.23894079 0.043181345 0.12690024 -0.3640696 0.24764739 -0.1891801 0.042466946 -0.24097472 0.26279733 0.019425487 -0.089799 -0.034357443 -0.07821883 -0.25532338 0.047557335 -0.006140997 -0.16163458 0.16254145 -0.11105848 -0.023385009 -0.08048115 0.18159164 -0.06603605 -0.06668349 -0.39387193 -0.11392508 0.229693 0.16439876 0.029817933 0.13211425 -0.120969646 0.18984999 0.14883526 -0.02306345 -0.16707323 -0.005902498 -0.034676608 -0.044554077 0.102496386 0.16976503 0.031639572 0.043327656 0.019262528 -0.10744338 -0.08528364 -0.01754748
15 -0.09863363 -0.13815849 0.08645034 0.22863148 0.20310494 0.11614508 -0.05274651 -0.23983054 -0.004902442 0.000302706 0.21398775 -0.11466331 -0.076877244 -0.10497035 -0.1550532 0.11382808 0.0878471 -0.0419218 -0.18752569 0.053756088 0.14740147 0.012281589 0.020176142 0.26040348 0.18022901 0.051838394 0.032713994 0.108133964 -0.28771955 -0.050478756 -0.07662394 -0.019718705 -0.026595505 -0.0222664 -0.10131802 0.11876824 -0.21210462 0.08375545 0.0310967 0.027431613 -0.17748977 0.094118655 -0.038779635 -0.0055938424 0.08199702 -0.049083438 0.07284602 -0.06352826 0.2508338 0.031210214 -0.01203846 0.061674267 0.07943022 -0.20162524 -0.24765891 0.02913141 0.1286896 -0.3369863 0.2314777 -0.19126508 0.035344496 -0.24946348 0.2607854 0.020799762 -0.12560841 -0.025716165 -0.07046329 -0.2756175 0.042090658 -0.01836634 -0.16737635 0.16540721 -0.099453785 -0.015657714 -0.081782006 0.16228683 -0.061154176 -0.10908613 -0.37284443 -0.10360367 0.23918924 0.1779203 0.017747637 0.13151169 -0.1268975 0.2059391 0.17443652 0.0051638316 -0.1582798 -0.0410089 -0.04271279 -0.028007926 0.10242196 0.17464617 0.043757427 0.06612352 0.03502203 -0.09747472 -0.10049708 -0.03130953
70 -0.103181936 -0.12071848 0.062556356 0.23733191 0.21554002 0.083438694 -0.086850315 -0.20798488 0.053666413 0.02870273 0.19439983 -0.08607247 -0.11085514 -0.098196276 -0.17411852 0.09624607 0.042025387 0.0037800549 -0.23989923 0.070114866 0.16633897 -0.052917067 0.060319696 0.27609444 0.18279354 0.04982647 0.04521087 0.13296475 -0.30078858 -0.045638833 -0.012064234 -0.045260422 -0.055241156 0.017815614 -0.15248688 0.11746973 -0.18753268 0.0085158525 0.07494489 0.009313544 -0.14940509 0.10025215 -0.104338534 0.011679119 0.054433454 -0.07649732 0.10038022 -0.00093333365 0.24625708 0.059020665 -0.038825877 0.023385767 0.059851203 -0.20317109 -0.21087915 0.017980233 0.15945856 -0.35826933 0.23555501 -0.17075841 0.031676322 -0.2025219 0.23706883 -0.0035467865 -0.10889636 -0.03982893 -0.04316598 -0.21766654 0.027341686 -0.012465109 -0.15547605 0.17689048 -0.078393236 -0.072628655 -0.059381727 0.18630007 -0.07655287 -0.053865224 -0.40610158 -0.12384332 0.22858053 0.13244283 0.06647018 0.08884476 -0.14953513 0.18656528 0.16522984 0.012347916 -0.19208165 0.0059210286 -0.04405389 -0.023277463 0.09324599 0.16295548 0.006843535 -0.017223135 0.022106307 -0.0928705 -0.14265166 -0.019739086
77 -0.028705679 -0.08915522 0.07646767 0.25588602 0.20175998 0.0999725 -0.06691108 -0.23700793 0.040457156 0.025888253 0.21450964 -0.040281545 -0.15488027 -0.10213719 -0.15716809 0.096853726 0.07523309 0.01680893 -0.26555377 0.09854034 0.1547285 -0.08335588 0.034528833 0.3365366 0.15750188 0.09001844 0.0877882 0.10957952 -0.2862066 -0.04911577 0.021376498 -0.03260872 -0.052560512 -0.011175633 -0.18751214 0.11436615 -0.15606037 0.03157259 0.05480209 0.021699399 -0.13712636 0.13926189 -0.08730388 -0.0010933396 0.023774112 -0.09762775 0.08981268 0.03792797 0.27323142 0.09940819 -0.011228653 0.0108387675 0.07944852 -0.21179266 -0.20701653 0.03423943 0.171146 -0.32733017 0.21987025 -0.136441 0.057752516 -0.17280616 0.24824989 0.007489546 -0.10365179 -0.056860406 -0.038779035 -0.22908767 0.03505706 -0.021542719 -0.1488538 0.13291827 -0.070206374 -0.1384186 -0.06834801 0.19104539 -0.04366415 -0.029751474 -0.43119955 -0.17009704 0.2345915 0.11123807 0.034266997 0.086747736 -0.13072991 0.1992429 0.09510943 0.010460458 -0.20311767 0.06970588 -0.0031037612 -0.0109002935 0.085684 0.17775992 0.007916334 0.0149178235 -0.0031552606 -0.1262788 -0.15524466 -0.030950991
71 -0.07513907 -0.09830888 0.09516699 0.26008105 0.21008135 0.14299704 -0.08534314 -0.22385593 0.07216707 0.022853998 0.20481128 -0.021021375 -0.10580956 -0.10557318 -0.1464917 0.08784851 0.061909914 0.010933011 -0.22958668 0.11826251 0.17358981 -0.05139828 0.040933236 0.26149032 0.18220668 0.059776567 0.089648165 0.14947225 -0.2702738 -0.054211006 -0.0809619 0.0029632926 -0.043440316 -0.0046320525 -0.19344781 0.13383526 -0.17289566 0.038214367 0.10088345 0.027277138 -0.17703865 0.13573395 -0.09405897 0.023710541 0.06906341 -0.056291364 0.12524888 -0.021169001 0.2596085 0.06710576 -0.0053883353 0.021949325 0.09949638 -0.2169293 -0.22600034 0.032551974 0.14245735 -0.38644034 0.20254707 -0.14106356 0.056058034 -0.2202541 0.26309562 -0.007975078 -0.09222607 -0.073363386 -0.035958726 -0.23685071 0.029453732 -0.018284522 -0.113445446 0.16231485 -0.09773584 -0.08688644 -0.08333552 0.18280686 -0.05599255 -0.056116287 -0.40045267 -0.19632383 0.2292769 0.14277217 0.039992552 0.10922228 -0.12110807 0.15746546 0.15181082 -0.020356465 -0.16959785 0.042612698 -0.034665644 -0.03481111 0.072980106 0.16988322 0.043998316 0.013374491 0.040686432 -0.098888114 -0.11078695 -0.012497852
79 -0.06594314 -0.13739581 0.081622 0.22490086 0.21660475 0.10827998 -0.110883296 -0.22454756 0.01133475 -0.0028817328 0.22590019 -0.051468957 -0.07402085 -0.12116537 -0.138887 0.09786501 0.10658051 -0.07013318 -0.20526993 0.103202485 0.1581213 -0.0072034653 0.01541408 0.26870066 0.17319867 0.036660474 0.04977029 0.11518849 -0.24109484 -0.03952155 -0.096236825 -0.0076202997 -0.04471918 -0.03341323 -0.13432218 0.12597689 -0.17166802 0.07171367 0.0638214 0.0057033775 -0.18041487 0.12087719 -0.04708314 0.0053003435 0.05485819 -0.06709021 0.10701149 -0.051959317 0.2531662 0.05205991 -0.02694019 0.042527214 0.10558144 -0.2209933 -0.25090307 0.029399093 0.12890439 -0.34484252 0.24033603 -0.17527002 0.037229564 -0.26498976 0.25726917 -0.017063579 -0.098560594 -0.053240813 -0.059475087 -0.28045097 0.010428498 -0.034640662 -0.13672647 0.15926364 -0.09026451 -0.009542324 -0.09084837 0.1679902 -0.06639769 -0.09346176 -0.38082123 -0.13670601 0.21054833 0.15257634 -0.0046394886 0.091759935 -0.13875385 0.18220879 0.14707309 0.016561184 -0.13767728 -0.0047819754 -0.041244432 -0.034498103 0.081164055 0.20228206 0.071431085 0.03677391 0.003946936 -0.08914961 -0.10330219 -0.009397779
24 -0.13045835 -0.12502171 0.07296345 0.20800301 0.20723845 0.11469457 -0.08704466 -0.22318599 -0.0050986656 -0.016699577 0.18946373 -0.094092235 -0.07091649 -0.12892237 -0.1395248 0.086408846 0.119398765 -0.07658559 -0.1847071 0.0578223 0.16589211 -0.0031346474 -0.008501792 0.30636635 0.13123116 0.048175734 0.034626532 0.15923817 -0.29118815 -0.039905183 -0.09462234 0.019823566 -0.05976874 -0.031266633 -0.109976605 0.13636163 -0.18452069 0.10621827 0.031793613 0.008109596 -0.16006272 0.117179886 0.0057882904 -0.010356055 0.068099014 -0.07835517 0.039854176 -0.09210963 0.2559002 0.04760027 -0.017571878 0.050068878 0.07194715 -0.19459786 -0.25147614 0.03258 0.13762987 -0.32577944 0.2778053 -0.21606246 0.040667545 -0.25215435 0.27732873 0.01445907 -0.13513961 -0.06637373 -0.06715606 -0.3011263 0.06328404 -0.001774039 -0.16421933 0.14602461 -0.097323135 0.01598942 -0.08367825 0.15927279 -0.049117967 -0.08270368 -0.38715947 -0.12197998 0.21378596 0.1650249 0.011447508 0.14592682 -0.11842955 0.20139207 0.11170117 0.011547826 -0.13973881 -0.06401803 -0.008985076 -0.046223477 0.12144942 0.18587555 0.07694288 0.04967267 0.029923735 -0.108522505 -0.08174919 0.0049767843
35 -0.0748167 -0.1200808 0.09372234 0.23822933 0.21427509 0.11750801 -0.10506226 -0.23347662 0.033576824 0.011789077 0.2103584 -0.05475949 -0.08014053 -0.13004662 -0.14858912 0.10151578 0.08079143 -0.04213072 -0.22323571 0.09339414 0.17347613 -0.042465426 0.013225765 0.29251483 0.16559523 0.044581503 0.0615254 0.12171836 -0.2788273 -0.039148062 -0.06928816 -0.01249667 -0.059184056 -0.021751082 -0.15730217 0.1294674 -0.18238145 0.0668855 0.059865396 0.0021345972 -0.1664837 0.12172602 -0.05061463 0.007623704 0.053521387 -0.0761376 0.08380063 -0.043504916 0.25727823 0.07439534 -0.020368671 0.024296664 0.077429235 -0.2073824 -0.22880295 0.0077563203 0.13792594 -0.32510146 0.23821047 -0.1695425 0.048983872 -0.21000123 0.2542961 -0.0051043145 -0.11618196 -0.04663811 -0.038990803 -0.25456733 0.015863921 -0.054056816 -0.13101962 0.13672993 -0.07557192 -0.033077657 -0.08722431 0.18088426 -0.042853735 -0.057053737 -0.38606423 -0.15133797 0.21647237 0.12810461 7.460232e-05 0.111586414 -0.124240495 0.20077202 0.10632796 0.022715315 -0.16344123 0.014718357 -0.046925824 -0.05491401 0.1029497 0.1940988 0.053522404 0.02089298 0.0035975624 -0.09402013 -0.116821885 0.0007111377
82 -0.12238823 -0.14548627 0.11032292 0.22664483 0.18764053 0.12509592 -0.037059817 -0.23486902 -0.026665574 -0.019121863 0.23636809 -0.094001785 -0.044935383 -0.102687575 -0.13815644 0.085338466 0.13042739 -0.06900493 -0.15797542 0.07155729 0.14984745 0.034916 0.036338508 0.27518344 0.15369618 0.0661331 0.008089243 0.12606224 -0.2778702 -0.055138767 -0.11406383 -0.012247826 -0.04639815 -0.033088315 -0.07617456 0.12319033 -0.19654188 0.10326086 0.016053913 -0.010354654 -0.21053329 0.120802835 -0.015703674 -0.0036629434 0.08363013 -0.05303846 0.08634789 -0.0858378 0.24257015 0.0018862718 0.024828566 0.09039904 0.09465814 -0.19989653 -0.26811945 0.04267566 0.104442134 -0.3545299 0.24369073 -0.20103095 0.0041243276 -0.2518394 0.25119153 0.017395107 -0.13842954 -0.016978983 -0.06621311 -0.32284415 0.03085897 -0.012181166 -0.18746151 0.15205929 -0.12647706 0.046243478 -0.09693747 0.18716733 -0.057269067 -0.11607609 -0.38203692 -0.08620765 0.2408101 0.1674797 -0.008726747 0.12916909 -0.11765305 0.1991549 0.16676791 -0.021649938 -0.15402752 -0.045613818 0.0024819998 -0.027020812 0.09674945 0.18490605 0.05267632 0.077349044 0.04666522 -0.116644576 -0.05758179 -0.024048487
59 -0.06803887 -0.13459691 0.112626724 0.19509181 0.24920219 0.11955477 -0.13654323 -0.23527505 0.018320808 -0.0060861576 0.22927448 -0.077380344 -0.01660234 -0.17534357 -0.15484606 0.082093306 0.08978458 -0.14979297 -0.20068265 0.12396231 0.20329607 0.016574059 -0.038245466 0.27419785 0.15456235 -0.016973015 0.047151823 0.11524593 -0.24273539 -0.01935656 -0.12577188 -0.012912417 -0.039027818 -0.043678015 -0.15318598 0.13578957 -0.1896651 0.076092884 0.05556855 -0.0018781633 -0.18699263 0.09223547 -0.01663454 -0.0046475967 0.07153872 -0.061983567 0.08356225 -0.114644766 0.22959298 0.038942784 -0.04648568 0.042301048 0.102500856 -0.20106347 -0.26254937 -0.013148911 0.13012445 -0.31622642 0.24773814 -0.18883957 0.060535677 -0.28261936 0.27127677 -0.017867826 -0.13331087 -0.043124557 -0.033883765 -0.30251712 0.005367556 -0.04459696 -0.11335585 0.123741284 -0.0895538 0.045307245 -0.100543015 0.12614125 -0.06127947 -0.113648824 -0.346452 -0.1517447 0.17643014 0.14604045 -0.040752247 0.13610472 -0.1465271 0.23543416 0.11181281 0.067491345 -0.1127336 -0.037646927 -0.069591165 -0.09467737 0.09907813 0.213242 0.069752105 0.060144078 -0.021992132 -0.06928883 -0.11931739 0.013014014
29 -0.0854 -0.1360112 0.08311989 0.23253007 0.2046193 0.10744867 -0.08284118 -0.23805615 0.0034607472 0.0030593413 0.20367607 -0.09041575 -0.09106217 -0.105314024 -0.16117425 0.1079364 0.07095945 -0.021828951 -0.18815675 0.07990494 0.15910098 -0.018770868 0.051804725 0.27168056 0.1714166 0.054474074 0.049571134 0.1344064 -0.27212667 -0.035833 -0.076337904 -0.018350692 -0.032167383 -0.008659276 -0.121382736 0.106648 -0.20753844 0.050086275 0.035282325 0.008612913 -0.17660564 0.10112693 -0.06700203 0.017891197 0.071675494 -0.07085326 0.09435179 -0.048596077 0.23778778 0.0617722 -0.0072898557 0.045321483 0.07304695 -0.20563671 -0.23816864 0.016555926 0.13504182 -0.34508583 0.22800276 -0.177082 0.044598892 -0.21704896 0.24705511 -0.0010767569 -0.11062322 -0.035580613 -0.07498178 -0.25548667 0.031489924 -0.011260717 -0.14079711 0.14104727 -0.09330775 -0.018446587 -0.08556689 0.19366315 -0.05538456 -0.06655946 -0.4006885 -0.10595825 0.22733328 0.15306434 0.030304808 0.112450875 -0.14516154 0.18158506 0.14722 -0.0018568907 -0.16629027 -0.013809037 -0.03465618 -0.036665335 0.09712152 0.16086392 0.04040611 0.02654166 0.030168405 -0.1053285 -0.09665708 0.0005425373
72 -0.06809594 -0.09899949 0.0766618 0.25777104 0.21312997 0.10314861 -0.08116295 -0.22443885 0.050763812 0.040982984 0.18539499 -0.031980354 -0.10959546 -0.100218385 -0.14737907 0.096287616 0.077084966 0.004962852 -0.21996482 0.10055058 0.17591406 -0.06062395 0.057073712 0.28259605 0.16610272 0.064576425 0.06876341 0.13361426 -0.28337362 -0.0382877 -0.036743682 -0.014996689 -0.063127495 -0.010625557 -0.1840211 0.14195673 -0.16671497 0.053144667 0.073654555 0.027880972 -0.1460403 0.13430724 -0.076299384 0.021768717 0.051876348 -0.06672185 0.10568546 -0.022893155 0.25800174 0.09096823 -0.016278243 0.027002696 0.09009887 -0.1946069 -0.23639797 0.028955745 0.15250063 -0.3749989 0.22564559 -0.16266671 0.036707897 -0.19574527 0.2569036 -0.00079609745 -0.10013817 -0.045876756 -0.03505919 -0.24456364 0.04006282 -0.013822811 -0.15315416 0.14916901 -0.09062977 -0.08842158 -0.06243233 0.17750607 -0.043720555 -0.032372966 -0.4309686 -0.15956464 0.21505415 0.14665851 0.030775797 0.12436809 -0.11634771 0.18111636 0.10857618 -0.012244241 -0.16906776 0.033571232 -0.030159423 -0.04404731 0.10772436 0.1572862 0.031374037 0.011943585 0.016681533 -0.09697729 -0.12267834 -0.0175588
4 -0.12549137 -0.1352524 0.096800596 0.23017398 0.19275838 0.12602678 -0.02831373 -0.2249908 -0.0068165464 -0.017090712 0.19248578 -0.105374806 -0.07091099 -0.09310837 -0.13777465 0.09107256 0.09769416 -0.026796304 -0.17118044 0.049621288 0.13790597 0.011061472 0.05518553 0.27323532 0.17746484 0.07171143 0.011945302 0.122567885 -0.28980333 -0.03861929 -0.09981447 -0.008898204 -0.0521514 -0.02301522 -0.08048743 0.12141456 -0.2037593 0.08263891 0.031152947 0.015162119 -0.17684218 0.10862817 -0.035064835 -0.002016483 0.09245215 -0.044946782 0.07458506 -0.05241465 0.24353327 0.0382283 0.007187268 0.068083666 0.08963625 -0.1938365 -0.2409054 0.04427999 0.11726155 -0.35697126 0.23085049 -0.21189605 0.0075239665 -0.22724004 0.27332664 0.022308152 -0.10013658 -0.02525951 -0.05997583 -0.2757227 0.06759595 -0.008130646 -0.19351715 0.18374917 -0.13262828 -0.006785777 -0.06968011 0.18138817 -0.053069863 -0.08615763 -0.39898503 -0.0963679 0.24096195 0.17384955 0.014443939 0.12633789 -0.10142749 0.18965845 0.16756962 -0.032416236 -0.15703535 -0.044322014 -0.01204925 -0.036344107 0.12016073 0.15650262 0.04767283 0.06721375 0.034552418 -0.10393039 -0.07315775 -0.028754108
25 -0.1121893 -0.11072988 0.070297554 0.23564188 0.19791971 0.10790838 -0.054744862 -0.24004172 0.03370351 0.017726056 0.21561907 -0.070844606 -0.084445134 -0.09088936 -0.15079957 0.10670678 0.087633 -0.010281082 -0.21137229 0.051980842 0.14496209 -0.054824773 0.042018417 0.3160989 0.14691554 0.075142466 0.039287012 0.11976407 -0.31211784 -0.025125086 -0.051111724 -0.013759801 -0.065435484 0.0004898448 -0.13172138 0.12544999 -0.16657321 0.054226194 0.061165523 0.0301215 -0.16968933 0.1105661 -0.0729104 0.012927152 0.055202555 -0.07198077 0.061187677 -0.01986545 0.24460165 0.06253694 -0.011396798 0.05093937 0.06844622 -0.18378903 -0.23347984 0.033470444 0.14443533 -0.32824042 0.22592737 -0.17210409 0.022006094 -0.19384056 0.25605366 0.0023716947 -0.08779026 -0.04243475 -0.04729933 -0.2655722 0.021217559 -0.038846467 -0.14390273 0.17010301 -0.07661556 -0.056691203 -0.091744676 0.18657629 -0.048993237 -0.06106333 -0.41568214 -0.108329415 0.2316559 0.15669565 0.034196865 0.11370148 -0.11597519 0.18664956 0.11979345 0.008292469 -0.18120612 -0.007900019 -0.022048352 -0.023399789 0.0999511 0.18984398 0.024508378 0.023781696 0.0011230455 -0.08305684 -0.118477926 -0.013529592
73 -0.09447172 -0.07432721 0.063978955 0.2800481 0.20198773 0.12773664 -0.06037535 -0.20777243 0.07514142 0.06773085 0.17756066 -0.045095112 -0.15040384 -0.08861865 -0.15658762 0.085482575 0.07495613 0.042222593 -0.26219574 0.08342132 0.15568268 -0.08019628 0.058299057 0.30563357 0.1607341 0.100917056 0.056593437 0.15212728 -0.29893428 -0.037332665 -0.00958176 -0.031510025 -0.06433716 0.022900613 -0.19350691 0.13265668 -0.18397872 -0.0024901864 0.07917114 0.041344766 -0.106236026 0.14792842 -0.12786403 0.023255868 0.07067189 -0.08930875 0.11252002 0.06018762 0.25092167 0.075318396 -0.0020749003 0.023701295 0.069810264 -0.20478016 -0.19367045 0.0199002 0.12299024 -0.34383693 0.20364183 -0.1568332 0.04376681 -0.16225635 0.25130668 -0.008761939 -0.049190573 -0.051783554 -0.047915474 -0.22082126 0.058035202 -0.008847106 -0.14954159 0.18409586 -0.11122222 -0.12624533 -0.054763995 0.20714161 -0.050900284 -0.015185082 -0.44271043 -0.15573962 0.22847828 0.1253108 0.052628797 0.092299566 -0.13530257 0.19749549 0.121631645 -0.03444509 -0.21580455 0.062380876 -0.015528603 -0.004267151 0.112542436 0.15918939 0.006764876 -0.021625336 0.030036287 -0.11180735 -0.129637 -0.00827716
86 -0.10547998 -0.099099115 0.050870653 0.26685947 0.20998877 0.097828805 -0.07880901 -0.20070438 0.067117326 0.046560984 0.1652254 -0.06858269 -0.12814659 -0.11035536 -0.16813627 0.08359134 0.06509974 0.015086272 -0.2411031 0.06869354 0.16076851 -0.07187215 0.053669278 0.30632523 0.17132334 0.07195088 0.04288759 0.1444175 -0.31787637 -0.033735584 -0.012707124 -0.01954481 -0.07268721 0.026877854 -0.17437734 0.13746472 -0.17562973 -0.0016613636 0.08233772 0.043367263 -0.13849017 0.123454034 -0.10555086 0.02482785 0.04328814 -0.072898164 0.087501116 0.0192325 0.25639087 0.06894247 -0.031197447 0.030857647 0.065737434 -0.19979341 -0.20417786 0.023814114 0.15502365 -0.3573183 0.2334287 -0.16761474 0.038276628 -0.18179585 0.2391141 -0.015655044 -0.07613853 -0.068243906 -0.039867457 -0.22128643 0.048231542 -0.005955891 -0.14391363 0.19088423 -0.078352965 -0.09336611 -0.082627885 0.19112676 -0.06007077 -0.03271116 -0.43869504 -0.14444864 0.23063345 0.14601517 0.058618028 0.094206214 -0.1430705 0.18721241 0.13121347 -0.00953617 -0.18337482 0.019080633 -0.029011833 -0.02254866 0.1006738 0.17855583 0.018177774 -0.03513894 0.018533083 -0.09227161 -0.13971539 -0.006359385
67 -0.08174391 -0.15470783 0.13132387 0.20832197 0.24039213 0.12492955 -0.10891691 -0.23321992 -0.0021288358 -0.009064473 0.24595885 -0.053075965 -0.03351074 -0.15332037 -0.122255355 0.1001618 0.09791585 -0.14156877 -0.18140744 0.122212775 0.20434695 0.023139369 -0.02155072 0.2639202 0.1512091 -0.012245266 0.02885321 0.12519643 -0.22995369 -0.03901311 -0.14688069 0.00926469 -0.040307943 -0.04662166 -0.12378754 0.14047863 -0.20327123 0.09591265 0.054593563 -0.009380758 -0.19442408 0.11945632 -0.0092685595 0.013262356 0.060994707 -0.050432377 0.08569481 -0.12127924 0.24579264 0.04582821 -0.0318217 0.057094023 0.096119896 -0.20409213 -0.254792 0.018255407 0.123835 -0.31331325 0.26877224 -0.2009573 0.071300365 -0.3100217 0.2801843 0.003984346 -0.16254544 -0.024295652 -0.057321437 -0.30265749 0.016187273 -0.036356233 -0.115762055 0.11644025 -0.09164687 0.02294605 -0.09768999 0.12664905 -0.060246516 -0.11397615 -0.34272718 -0.15191826 0.1841479 0.16990025 -0.021007631 0.14100675 -0.12702493 0.20947245 0.12369241 0.05120836 -0.10421382 -0.04249854 -0.05685518 -0.06879899 0.09583362 0.19738697 0.09657723 0.07725057 0.004058284 -0.08305349 -0.09923483 -0.017658608
21 -0.060952514 -0.11100153 0.08410289 0.2026609 0.22822513 0.114353485 -0.12415869 -0.23113301 0.034458295 0.023641422 0.20747757 -0.060322236 -0.066259764 -0.12685356 -0.14454497 0.09576692 0.081476696 -0.08105826 -0.21355294 0.11946971 0.1773383 -0.025705572 -0.011264666 0.3041935 0.1541926 0.02001311 0.065782845 0.1161068 -0.2602188 -0.027197223 -0.056283254 -0.0075850617 -0.050237205 -0.038395714 -0.1910792 0.14805275 -0.16927272 0.089552715 0.069951914 0.0065768813 -0.1623611 0.11349089 -0.04182842 -0.008557522 0.03177033 -0.059916757 0.08033559 -0.051823873 0.24853273 0.06566641 -0.03168371 0.024403784 0.09819984 -0.20527463 -0.25337645 0.01536981 0.13609554 -0.319175 0.241209 -0.16170368 0.06779018 -0.22899815 0.26478896 -0.008731274 -0.128119 -0.03812769 -0.023114799 -0.2867988 0.01156479 -0.032342225 -0.14116122 0.11706486 -0.07317512 -0.01229154 -0.07752041 0.1454944 -0.06787992 -0.076560654 -0.37408254 -0.15576343 0.18657437 0.12018202 -0.01841456 0.1170149 -0.13691412 0.20477907 0.08595353 0.043726843 -0.15589443 0.0078899395 -0.054224893 -0.06255718 0.11230036 0.19349073 0.05419916 0.033351053 -0.008611283 -0.09687574 -0.12044535 -0.0030742034
8 -0.12250311 -0.11671702 0.06302791 0.2361593 0.19783238 0.11765654 -0.069329284 -0.22802624 0.0066507854 0.013330956 0.17567448 -0.07555114 -0.09868906 -0.10120966 -0.13083526 0.10456967 0.089015715 -0.05798941 -0.18518136 0.063629895 0.13426031 -0.05245061 0.013691854 0.30470648 0.14905038 0.055894993 0.028350515 0.14111619 -0.29400623 -0.051088706 -0.06028217 -0.0062000644 -0.081835166 0.008632728 -0.10028061 0.1276529 -0.1663764 0.08059455 0.034177378 0.040658098 -0.14869753 0.13641183 -0.029567158 -0.004597032 0.05178984 -0.08252654 0.04587109 -0.026269954 0.26717573 0.066744946 -0.021941626 0.043807242 0.0713701 -0.17260934 -0.22869025 0.026998427 0.15402162 -0.33994335 0.27696687 -0.20195405 0.02192984 -0.22663583 0.2744242 -0.0023383654 -0.111871906 -0.0449566 -0.051568583 -0.26107198 0.07720638 -0.004019965 -0.15056795 0.17373277 -0.07992944 -0.032171864 -0.07655607 0.16532072 -0.045286696 -0.050695457 -0.41036296 -0.13406843 0.20316665 0.18179628 0.046973106 0.14374019 -0.114430524 0.17639187 0.12780343 0.01198816 -0.15377697 -0.031883195 -0.0023801685 -0.027882777 0.112028666 0.16040699 0.06496027 0.024441555 0.022573277 -0.10473222 -0.10904116 0.0027366413
14 -0.09174117 -0.1298051 0.06543115 0.22872022 0.21785843 0.096725255 -0.11536988 -0.22503361 0.021961598 0.021772953 0.18700005 -0.06613719 -0.089426816 -0.11261769 -0.16799884 0.09815395 0.072537355 -0.04809838 -0.22076167 0.09267144 0.15570237 -0.029226117 0.027062677 0.2877503 0.17350587 0.037124973 0.041143075 0.12138018 -0.2669846 -0.023044754 -0.059904825 -0.010854377 -0.056607462 -0.014291188 -0.1614196 0.12152335 -0.17392093 0.058794327 0.06068342 0.012190881 -0.17282589 0.11599127 -0.063877024 0.0025256274 0.038044583 -0.07190001 0.08197379 -0.025846152 0.25263762 0.073716104 -0.02752442 0.026447529 0.09430628 -0.19931866 -0.24170399 0.022142477 0.13041501 -0.3583842 0.24708636 -0.16719979 0.034269556 -0.22597249 0.24519603 -0.02506488 -0.104680836 -0.050488096 -0.052376337 -0.2655842 0.026674535 -0.011937631 -0.15428758 0.16454941 -0.09047105 -0.03127053 -0.06889599 0.18574345 -0.07286384 -0.06977087 -0.4030483 -0.13123928 0.21693546 0.13602687 0.034389913 0.103315376 -0.13355461 0.18616897 0.14150178 0.025522098 -0.16283336 0.0023865073 -0.03299772 -0.040829092 0.10680738 0.17355593 0.031485777 1.5632411e-05 0.019604811 -0.08308409 -0.122190796 -0.0101169525
101 -0.049831137 -0.084334366 0.092604 0.2507405 0.20547652 0.14058574 -0.0809429 -0.222963 0.07248551 0.02001229 0.19819634 0.014658368 -0.09866102 -0.09648673 -0.12675947 0.113790736 0.07466266 -0.016183026 -0.23473075 0.11105651 0.22883146 -0.032887675 0.05852604 0.27457374 0.13470753 0.043548707 0.0749568 0.14516096 -0.25245133 -0.040477253 -0.06604855 -0.017329128 -0.029758047 -0.035495404 -0.22390077 0.15971431 -0.18732895 0.060987588 0.0761568 0.008014835 -0.14935201 0.1689233 -0.07593076 0.059716687 0.04541289 -0.06127236 0.11515913 -0.026059452 0.27297324 0.081680946 -0.009878357 0.028657965 0.10249268 -0.20167802 -0.2228134 0.038005613 0.11175868 -0.37682313 0.20287322 -0.16398942 0.09013689 -0.21224447 0.2558226 -0.012909325 -0.098672256 -0.052387215 -0.03057876 -0.26535115 0.012141678 -0.0068127615 -0.14604278 0.11214238 -0.10354312 -0.075483784 -0.08080692 0.1730073 -0.044939656 -0.020921124 -0.4177325 -0.185905 0.21574834 0.12413362 -0.0045068157 0.13280714 -0.120864935 0.17197552 0.08480499 -0.032573137 -0.15208015 0.06585155 -0.037650052 -0.04126715 0.11679584 0.16843392 0.047460973 0.02864616 0.003447494 -0.10663985 -0.11517779 -0.016773107
46 -0.11114337 -0.1902388 0.1126289 0.22176285 0.20547026 0.13398707 -0.078938045 -0.23420276 -0.045550764 -0.02047688 0.22899356 -0.10503098 -0.041794598 -0.109423816 -0.16073911 0.099577524 0.13811149 -0.074760854 -0.15060104 0.07262129 0.13220483 0.038532037 0.023464175 0.26698786 0.18104668 0.050970547 -0.01469691 0.078479305 -0.26408976 -0.04315456 -0.116855465 -0.009076507 -0.021292556 -0.047209825 -0.039316304 0.112551264 -0.22684398 0.11053232 0.025445867 -0.0026748157 -0.22272086 0.09077247 -0.009832795 0.015433957 0.08959733 -0.037969008 0.1074455 -0.07302461 0.2326693 0.0095463665 2.3146247e-05 0.074855685 0.09329684 -0.20438342 -0.26866725 0.0139810005 0.08190859 -0.35714313 0.25136358 -0.19738472 0.002556288 -0.27546105 0.26006976 -0.004854809 -0.118195914 -0.02034924 -0.08750151 -0.31047657 0.023944939 -0.019826202 -0.18516023 0.1774344 -0.1385457 0.07667355 -0.0774541 0.19754513 -0.061151683 -0.127673 -0.37061825 -0.08347997 0.2420496 0.16210423 -0.025489535 0.11627527 -0.12639292 0.20106009 0.1828434 0.00973882 -0.1360883 -0.06964659 -0.03158259 -0.021713156 0.10195323 0.18597913 0.08183916 0.09133151 0.05493569 -0.09855278 -0.04795109 -0.032376748
85 -0.0658134 -0.09448765 0.0884299 0.2492677 0.20727494 0.0967924 -0.10921376 -0.2095923 0.03664611 0.035374276 0.18535414 -0.053497832 -0.096676774 -0.12298608 -0.16401011 0.080407806 0.06621306 -0.0054215924 -0.23566133 0.10250871 0.16686209 -0.042347074 0.032057308 0.2816068 0.17967463 0.04111374 0.06874955 0.13828473 -0.26821637 -0.05064597 -0.057957426 -0.02535983 -0.054177262 0.004058532 -0.17486213 0.117288195 -0.18209428 0.005133704 0.07578586 0.02046553 -0.14906788 0.119270675 -0.077207156 0.028395504 0.05032687 -0.087934196 0.09139205 -0.039567307 0.24314767 0.075991996 -0.01905539 0.017087445 0.06091501 -0.20788902 -0.21450675 0.0037311148 0.15683436 -0.35289294 0.22175363 -0.1395755 0.04008674 -0.21733439 0.24908645 -0.0025641771 -0.09532644 -0.058133937 -0.03264753 -0.23501292 0.01567906 -0.031037632 -0.11350646 0.15980849 -0.06634926 -0.07352404 -0.083265334 0.17931642 -0.03990682 -0.067149594 -0.40076855 -0.14428477 0.20779562 0.12386058 0.037136022 0.09030052 -0.12893558 0.19905202 0.1412582 0.00315868 -0.17265306 0.01655872 -0.03131377 -0.036835387 0.08457437 0.17098317 0.032155946 -0.0042917123 0.015759079 -0.0919812 -0.13645953 0.0045027626
17 -0.07887257 -0.145131 0.057813965 0.20745394 0.23764887 0.095380634 -0.1307601 -0.22482097 0.022602623 -0.01583511 0.22174443 -0.08366225 -0.064775035 -0.15001497 -0.14932507 0.084219374 0.10950625 -0.10418732 -0.20290251 0.09654768 0.14631113 -0.00952428 -0.030765595 0.292124 0.17025338 0.015641885 0.05219559 0.112864114 -0.25919956 -0.018657278 -0.09941306 0.006986018 -0.052964795 -0.03933999 -0.14008786 0.12401051 -0.15364105 0.064579956 0.071899235 0.02880379 -0.1968741 0.10477896 -0.03438716 -0.008993753 0.04702999 -0.05157855 0.08219006 -0.049249522 0.24590617 0.045523033 -0.033206493 0.054059822 0.11119642 -0.2196371 -0.26634404 0.0080916975 0.14414264 -0.32253852 0.25966617 -0.18047158 0.02783455 -0.27140966 0.26774758 -0.00331494 -0.11474494 -0.05463128 -0.043016285 -0.29361224 0.020764858 -0.039882462 -0.12706205 0.16908492 -0.06844923 0.0050907037 -0.09705787 0.14499044 -0.08626794 -0.105736114 -0.3750368 -0.1518421 0.20234096 0.15964733 0.015353583 0.108441666 -0.14746316 0.2010075 0.15698582 0.0576072 -0.12986135 -0.02131514 -0.04492066 -0.048343677 0.09091847 0.20953366 0.08329038 0.033700686 0.0059071 -0.078181185 -0.1102184 -0.006312839
100 -0.07352964 -0.08844935 0.0522011 0.24968116 0.20192735 0.11238722 -0.0699699 -0.22057901 0.0363565 0.028332213 0.15990236 -0.054405782 -0.1446552 -0.081779696 -0.16009489 0.07928728 0.083193235 0.019989988 -0.22079179 0.0957101 0.15071055 -0.07246 0.038761247 0.29970342 0.16444753 0.08842987 0.051412415 0.12856664 -0.29281712 -0.0499236 -0.0029589953 -0.02950884 -0.07257637 0.008354029 -0.15696314 0.13104153 -0.16563748 0.030740501 0.066990584 0.041623447 -0.12071238 0.15218829 -0.07998524 0.010757779 0.025693562 -0.072738096 0.08446342 0.032296006 0.2615361 0.087707564 -0.012273815 0.017551325 0.07932974 -0.20135811 -0.22311208 0.03906601 0.14330259 -0.34568426 0.24059105 -0.16444366 0.042123962 -0.18184093 0.2347819 -0.0059489035 -0.08813919 -0.046186414 -0.031015523 -0.24134001 0.062453996 0.0005292528 -0.16620958 0.1658997 -0.090008005 -0.08129637 -0.07395781 0.19061013 -0.050739847 -0.022836626 -0.44041312 -0.16423638 0.2309477 0.14669707 0.034736425 0.11646276 -0.121325605 0.17830566 0.10684946 -0.014151161 -0.1707114 0.027647443 -0.012017575 -0.020193074 0.11689413 0.14885135 0.024758235 -0.011320642 0.018501276 -0.106419556 -0.12178552 -0.014239172
2 -0.077976875 -0.08884422 0.070974015 0.27367854 0.17440088 0.111928836 -0.057105493 -0.21201593 0.05187328 0.05633252 0.1950379 -0.056050915 -0.12321534 -0.095814556 -0.14326744 0.10461281 0.054520704 0.0022061602 -0.24034202 0.111621104 0.15943538 -0.059655 0.062283985 0.29191247 0.15206222 0.09440622 0.04713747 0.1223098 -0.26914448 -0.054847624 -0.0063967807 -0.042505223 -0.08203349 0.01645665 -0.1719625 0.13699985 -0.18494809 -0.0051887454 0.05592705 0.015315312 -0.13798639 0.1357478 -0.1065899 0.031294655 0.05333933 -0.08999588 0.102781385 0.023492394 0.25407624 0.0633485 0.006323845 0.03895405 0.08189593 -0.20927304 -0.21413282 -0.0016998119 0.13568658 -0.3330468 0.20135044 -0.15450032 0.031940956 -0.14990568 0.25843215 -0.018804671 -0.07259656 -0.023552118 -0.04271924 -0.24129668 0.039202962 -0.030602384 -0.1521587 0.16352743 -0.10922682 -0.090877175 -0.060408704 0.19630834 -0.046721358 -0.012714183 -0.44550484 -0.1445485 0.23921049 0.12512581 0.029925466 0.0866931 -0.13404958 0.20580135 0.10379323 -0.033422794 -0.2109701 0.06648755 0.0032576679 -0.014426897 0.11231952 0.1741747 0.015636796 -0.011401094 0.00809203 -0.11978861 -0.11580772 0.011290906
66 -0.10211263 -0.16427274 0.10842324 0.20940869 0.2203968 0.13486448 -0.07856338 -0.23439413 -0.03188686 -0.016315693 0.25108823 -0.12223191 -0.026956026 -0.114278175 -0.15385908 0.111954875 0.10300071 -0.10583039 -0.16339193 0.071352646 0.14555503 0.03450261 0.0073153474 0.25697237 0.18272567 0.032622926 0.0053228997 0.11526313 -0.26404244 -0.034992505 -0.12740766 -0.015333253 -0.02856645 -0.045828637 -0.06565079 0.11513947 -0.21205674 0.114954054 0.027309947 0.0065774927 -0.22180966 0.09044562 -0.01460601 -0.010542913 0.09897026 -0.061369743 0.076420926 -0.1009798 0.23415816 0.024871256 -0.0037549841 0.06472057 0.08490057 -0.2296366 -0.26947036 0.024800284 0.106772035 -0.32478836 0.25920367 -0.19495268 0.029132579 -0.28287116 0.2753396 -0.00927594 -0.15069178 -0.027182162 -0.069535 -0.3122804 0.012285364 -0.042028885 -0.16264123 0.16267112 -0.105824105 0.067541115 -0.09689384 0.14962266 -0.07051239 -0.14285941 -0.3597668 -0.08889663 0.21879515 0.18473962 -0.022311077 0.14345685 -0.14256606 0.21155304 0.17254378 0.025645599 -0.13418484 -0.07484842 -0.042151514 -0.049886063 0.09584067 0.20042908 0.06154795 0.08049955 0.033485193 -0.10335828 -0.087738305 -0.006957191
3 -0.10135096 -0.18170644 0.10647631 0.22261862 0.20158063 0.1463729 -0.060111612 -0.23998554 -0.021127123 -0.01642612 0.23859276 -0.11938168 -0.034977376 -0.08837815 -0.15077542 0.08711332 0.1275232 -0.033097353 -0.18153138 0.060873672 0.13236651 0.037928678 0.028283654 0.23537973 0.19488671 0.070704006 -0.0015387905 0.082539245 -0.27077562 -0.07307221 -0.11475502 -0.02508028 -0.017076189 -0.04600224 -0.058146425 0.10764308 -0.23573071 0.10132088 0.015905382 -0.0054259724 -0.21060012 0.083291024 -0.021619089 0.0018786805 0.09255924 -0.0610616 0.11355443 -0.08139812 0.21997817 0.005183183 0.023504095 0.07716949 0.08733831 -0.22614153 -0.26950243 0.009879626 0.09790884 -0.35095543 0.24997027 -0.18851912 0.004975368 -0.26747155 0.2804587 0.0045106825 -0.1494669 -0.022599118 -0.09464269 -0.29044873 0.013408 -0.033176754 -0.16819939 0.17104533 -0.13731614 0.06765626 -0.07177354 0.18177097 -0.07865273 -0.12649992 -0.352634 -0.06889038 0.252501 0.16574936 -0.02840274 0.12774217 -0.1465829 0.2228514 0.20616545 0.015115422 -0.15571311 -0.05075289 -0.026373934 -0.040425465 0.07818031 0.18990153 0.05991419 0.08339007 0.06887868 -0.10948708 -0.066665016 -0.032515187
40 -0.087806866 -0.11512124 0.1118644 0.23853137 0.21315129 0.122995004 -0.07011637 -0.23361151 0.017496895 0.004532277 0.21004994 -0.05270912 -0.092714936 -0.08903705 -0.13694176 0.09624322 0.059955712 -0.03320958 -0.20459974 0.10776403 0.17750408 -0.031390753 0.06003613 0.25154927 0.15342729 0.046073325 0.0553986 0.15588729 -0.2586714 -0.04899168 -0.09262559 -0.021074612 -0.06304566 -0.011343739 -0.15630841 0.11705255 -0.18440637 0.03860175 0.058491748 -0.0037381183 -0.1573686 0.122451015 -0.072859764 0.024530292 0.05134834 -0.0640553 0.098171 -0.041128576 0.23875204 0.06657362 -0.015923165 0.034055106 0.08677304 -0.19069852 -0.2227194 0.033223465 0.13818695 -0.3421644 0.23147416 -0.1645426 0.04783456 -0.22763623 0.25288022 -0.0062712817 -0.09347118 -0.027717926 -0.052592397 -0.25095427 0.0330837 -0.00679599 -0.1449353 0.12692542 -0.08258222 -0.064497314 -0.0735746 0.17820226 -0.058648907 -0.057342473 -0.39878005 -0.14998263 0.21054894 0.14069016 0.02891099 0.11661231 -0.1314641 0.18481137 0.12455709 -0.012033257 -0.14944677 0.016167635 -0.018381925 -0.045257762 0.110369004 0.15155402 0.05002341 0.03901383 0.009810928 -0.11372948 -0.09173979 -0.017281251
75 -0.055219527 -0.086907476 0.10508862 0.23765796 0.17632905 0.12928757 -0.0398659 -0.24638133 0.025653653 0.025991695 0.2217616 -0.021594035 -0.11559253 -0.081552066 -0.13282421 0.109385855 0.10437514 -0.003339468 -0.20928471 0.10857305 0.18191925 -0.016997078 0.063546434 0.28336132 0.12797399 0.06475691 0.033897206 0.119636245 -0.2749667 -0.039725725 -0.043190517 -0.03445816 -0.050779376 -0.005200656 -0.16877694 0.12847099 -0.16668427 0.07827236 0.045860544 0.017761989 -0.16854964 0.1619328 -0.08259817 0.02629862 0.038865343 -0.059578583 0.09665802 -0.040514402 0.25705528 0.035220362 0.027230326 0.06109646 0.07064494 -0.19402662 -0.24802148 0.040995143 0.116018265 -0.36821115 0.21812236 -0.1783877 0.037941616 -0.17646128 0.23431657 0.02753497 -0.118736915 -0.017721992 -0.056101028 -0.27195168 0.014069829 -0.007761193 -0.16447838 0.11520042 -0.10619863 -0.03693688 -0.09150366 0.20023897 -0.037705712 -0.049637605 -0.42671466 -0.16464908 0.22268708 0.118897445 0.007533437 0.13055278 -0.10156271 0.16561563 0.09321778 -0.042635836 -0.18863842 0.04019785 -0.009173655 -0.0065789116 0.11143006 0.16126901 0.015012302 0.046817113 0.038372274 -0.13072386 -0.082762234 -0.013356322
97 -0.09350908 -0.12071898 0.10607608 0.24749176 0.21023585 0.13755158 -0.110059716 -0.22643559 0.036418606 0.036020495 0.20635311 -0.088746324 -0.07446488 -0.12846519 -0.17035171 0.07423221 0.08126019 -0.030976998 -0.23933503 0.08234092 0.16154101 -0.032978874 0.03275764 0.2770157 0.18596487 0.04190427 0.048063952 0.123955004 -0.2796535 -0.060536087 -0.08522302 -0.035250418 -0.05609923 0.0018132798 -0.16448757 0.12321864 -0.20717083 0.04238525 0.061151285 0.019272601 -0.17209275 0.09874604 -0.058539607 0.020177273 0.07526981 -0.08155059 0.0958026 -0.06913784 0.24182975 0.046612028 -0.004717744 0.035057984 0.0675344 -0.21076213 -0.25257516 -0.0014452694 0.13353667 -0.35736045 0.2457728 -0.1578992 0.03772451 -0.24107528 0.2697909 -0.01079377 -0.103196785 -0.046732523 -0.051244788 -0.24871524 0.0075552217 -0.041083943 -0.124506 0.17641857 -0.08950973 -0.023096677 -0.06875557 0.17125118 -0.04150791 -0.08153741 -0.3871251 -0.14474836 0.22120793 0.13841033 0.011827129 0.114132196 -0.14372213 0.22179969 0.15132853 0.010402438 -0.16403212 -0.0010947118 -0.043430533 -0.06546796 0.104364805 0.1879502 0.036090866 0.03146493 0.023057433 -0.09971414 -0.12639172 0.010549728
92 -0.064694285 -0.089461274 0.08929182 0.27727023 0.18326353 0.1286008 -0.04657002 -0.22729348 0.0492831 0.0427018 0.1939551 -0.061905168 -0.1519402 -0.085870504 -0.1600993 0.08983783 0.08901637 0.04213449 -0.24617958 0.08448076 0.13715483 -0.06344766 0.046955224 0.31334928 0.17431295 0.099300765 0.052387603 0.1240042 -0.29027238 -0.056517612 0.004492088 -0.040131673 -0.03849353 0.008566116 -0.17584985 0.114923954 -0.19046186 0.018562114 0.061921507 0.027584156 -0.11965557 0.13353685 -0.108352475 0.021277504 0.060017083 -0.08745324 0.105008215 0.046616092 0.24460202 0.07746874 0.010804415 0.038457286 0.06196188 -0.21097237 -0.20406276 0.032235324 0.13091728 -0.33288032 0.20591985 -0.14063203 0.0556958 -0.1654221 0.24957357 0.021568377 -0.08355898 -0.03942965 -0.054132987 -0.23452005 0.048774883 -0.025013294 -0.14455135 0.15104814 -0.08607003 -0.11461469 -0.064482816 0.20242551 -0.04931426 -0.045609053 -0.4191533 -0.16128492 0.24421711 0.12402751 0.042834785 0.07714241 -0.14036082 0.19748844 0.11294956 -0.027626067 -0.20515996 0.047359314 -0.0056054494 -0.008105045 0.09631019 0.1537768 0.0041394117 0.008965653 0.04483624 -0.11831228 -0.13625962 -0.026108183
