106 100
103 0.045231808 0.20677191 -0.043266244 0.22869745 0.21886428 -0.0043911086 -0.011661022 -0.16246924 -0.21254814 0.09076435 0.054833118 0.13901682 0.028096091 0.10703748 0.056255635 -0.21628055 -0.06220914 -0.08006691 -0.013786399 0.17905004 0.03511247 0.01786564 -0.18130456 -0.12039586 0.034175415 0.08914413 -0.18938574 -0.042185146 0.33402014 -0.09548526 -0.11972057 0.08071598 -0.006161915 0.108046375 -0.01799932 -0.15059769 -0.04976426 -0.18840379 0.1284434 0.02413653 -0.15942779 0.06990445 -0.043680858 -0.32443938 0.11172092 0.047580622 0.0016417884 -0.120348446 -0.21127929 -0.1426305 -0.072747864 -0.11613515 0.05836254 -0.20917082 -0.044649933 -0.11516412 -0.06671522 -0.15345351 0.11912195 -0.29219672 -0.19939198 0.13540316 -0.092600904 0.07508482 0.23234239 0.048820652 -0.15021622 0.14634469 0.17816897 -0.08252529 0.038146153 0.05557566 -0.14416596 -0.106304206 -0.18286835 0.017082099 0.111832604 0.014726478 -0.11242544 0.18872726 0.074461535 0.027344132 -0.34354082 -0.016131697 0.0543074 0.10252794 0.02173996 0.046683613 -0.08825046 0.28354564 0.23504072 -0.07696908 0.05307686 -0.19574407 -0.17556317 -0.08506085 0.08221931 0.11474051 -0.011857175 -0.03427832
31 0.10376038 0.18049961 -0.021359898 0.2690291 0.19512977 -0.0041543758 -0.009024135 -0.23522939 -0.13371593 0.097696744 -0.016441884 0.09025029 0.041190516 0.21250984 0.11416761 -0.221654 0.03915595 -0.17296256 -0.011486319 0.2775876 -0.1414687 -0.022573404 -0.22900641 -0.04656981 -0.05281614 0.107676014 -0.06282178 -0.026467277 0.27672267 -0.036116097 -0.13079397 0.05824174 -0.04627603 0.052076317 -0.05542673 -0.1719492 0.06926218 -0.37991327 0.24741678 0.11118315 -0.33244485 -0.042638663 -0.011806497 -0.39271057 0.008569 -0.058735624 -0.090139925 -0.10940035 -0.19288233 -0.16468151 0.0022916063 -0.18528788 0.121958226 -0.22684376 0.022024611 -0.04135845 -0.05155193 -0.036697086 0.11963654 -0.24792689 -0.21753873 0.21316946 -0.13772844 0.105458416 0.14976111 0.05362203 -0.19062486 0.12981431 0.26276064 0.050455544 0.019961266 0.10041923 -0.097184435 -0.16077134 -0.15230332 -0.021206819 0.10778409 0.19277325 -0.14965415 0.30055708 0.050996225 0.057227816 -0.4020003 0.03122848 0.10359471 0.09385754 0.003765147 0.05755537 -0.017115368 0.27767456 0.2503398 -0.070766 -0.0070534707 -0.27706438 -0.14170891 -0.12292855 0.13921396 0.03817537 0.0031507977 -0.03711821
57 0.043883517 0.20561638 -0.026517114 0.24053855 0.21174946 0.0067104343 0.0031907589 -0.13495176 -0.24003829 0.057039455 0.04774388 0.13899857 -0.0034048297 0.10551593 0.04518438 -0.23096861 -0.06010454 -0.063519485 -0.006616546 0.14575863 0.0354595 0.034442503 -0.1892122 -0.105431564 0.011382561 0.089707136 -0.18466209 -0.061717212 0.3173096 -0.08800924 -0.11278087 0.06867595 -0.014555823 0.12506746 -0.006161261 -0.17313597 -0.06411689 -0.17581688 0.13042802 0.039359495 -0.1511177 0.07112411 -0.041753456 -0.3272149 0.14530186 0.03874355 0.037992906 -0.10959275 -0.24368936 -0.14638655 -0.06672443 -0.14263827 0.049429 -0.17282246 -0.03521518 -0.11246026 -0.111153185 -0.15775229 0.1246043 -0.3053803 -0.20249225 0.12421829 -0.07855684 0.08279743 0.23850287 0.05654823 -0.14520803 0.17479111 0.1395766 -0.08227543 0.0136072375 0.063265845 -0.14644028 -0.10814578 -0.19729014 0.04026531 0.1538717 -0.017088726 -0.11906125 0.16667652 0.08973862 0.00033314235 -0.33497676 0.0069729346 0.06805597 0.10877769 -0.005340686 0.028536886 -0.11554762 0.29237035 0.2250954 -0.06948909 0.09513526 -0.18443464 -0.20400575 -0.07055676 0.058025658 0.14811875 -0.049867667 -0.013753418
76 0.04409993 0.2287899 -0.031745937 0.23941058 0.23877716 0.006973954 -0.011114805 -0.14433035 -0.2272661 0.08285278 0.041201666 0.14578442 0.015723329 0.12711188 0.03895903 -0.21792927 -0.05667303 -0.073141225 -0.021942368 0.16572355 0.054051537 0.037483495 -0.17508328 -0.11756601 0.022452747 0.092039086 -0.20730847 -0.06755775 0.32507086 -0.08568869 -0.10457546 0.07399683 -0.007500652 0.13114062 -0.018955437 -0.15051216 -0.0680404 -0.17661935 0.105947316 0.046406128 -0.12886849 0.050837006 -0.040702242 -0.32692015 0.13812342 0.038932115 0.010648817 -0.10991229 -0.22216846 -0.14467551 -0.05879791 -0.12718743 0.047690425 -0.19001134 -0.0454529 -0.11617953 -0.07850808 -0.17259288 0.12796673 -0.30536 -0.18978497 0.14919646 -0.10103328 0.103981934 0.23566002 0.053658936 -0.12139119 0.16698232 0.15752985 -0.091766186 0.032111917 0.05386593 -0.16206072 -0.100805394 -0.19305106 0.003476431 0.1241263 -0.017014407 -0.11182172 0.17550258 0.09981725 0.0069067734 -0.35539788 -0.029421085 0.049621277 0.11294257 0.011664013 0.0451423 -0.097722985 0.27726132 0.21334212 -0.079492725 0.08306751 -0.16510105 -0.1765401 -0.07469531 0.071972154 0.120320216 -0.02544417 -0.020616528
13 0.045398746 0.20395264 -0.05396967 0.22567658 0.22432199 0.015234429 -0.015639098 -0.20407286 -0.20864296 0.11243705 0.052124117 0.13832399 0.035088826 0.11283554 0.040287044 -0.24238974 -0.016559219 -0.095294625 -0.042725198 0.21305163 -0.007527582 0.0024654872 -0.1570827 -0.12251055 0.042343907 0.1083948 -0.15755635 -0.030780906 0.3326472 -0.08310434 -0.13079408 0.06390826 0.008375559 0.095392354 -0.044001874 -0.13305268 -0.048823424 -0.22557259 0.15365288 0.00967769 -0.20606765 0.07289205 -0.050189532 -0.3346454 0.07662474 0.040189117 -0.039141662 -0.11638421 -0.18758926 -0.1381498 -0.05172936 -0.15526073 0.076867715 -0.19441843 -0.018487487 -0.09591836 -0.042172644 -0.11960027 0.119766615 -0.31903282 -0.19107534 0.11115668 -0.083737366 0.07916457 0.21188645 0.071698055 -0.1714604 0.13521239 0.19967851 -0.043098185 0.034306563 0.06635683 -0.114209734 -0.13664222 -0.1836351 -0.007508358 0.08472687 0.05496008 -0.10123866 0.1715342 0.027670324 0.03510861 -0.3585163 -0.020383758 0.06341545 0.10634688 0.013494878 0.048063267 -0.052688904 0.27747285 0.262213 -0.04350678 0.055976264 -0.215924 -0.15551713 -0.11259031 0.09182816 0.106721595 0.018315218 -0.05490527
41 0.088655695 0.1782759 -0.0131265875 0.24430653 0.21073774 0.0066523864 0.0017041335 -0.18973547 -0.17454205 0.061645016 0.0042438246 0.09408219 0.011956205 0.18179642 0.051623672 -0.24714567 -0.0011978535 -0.14545187 -0.009341505 0.23782682 -0.055213388 0.00017320867 -0.19924681 -0.082303286 -0.020194165 0.09161106 -0.106077336 -0.0644056 0.26889992 -0.05527709 -0.13436218 0.05426889 -0.04096896 0.10120561 -0.0469009 -0.1907659 0.019304425 -0.3103185 0.16969018 0.09229717 -0.24238913 0.0039316895 -0.051159192 -0.35077456 0.08976521 -0.02654109 -0.021288903 -0.104252465 -0.21948428 -0.14838612 -0.018573094 -0.1700802 0.08933637 -0.18324888 -0.010504958 -0.04677786 -0.0676955 -0.07169318 0.137651 -0.25590137 -0.22710949 0.18534756 -0.09556138 0.09364293 0.17806354 0.08357177 -0.1656061 0.1614124 0.1999218 0.024155855 -0.009815898 0.0828407 -0.13400379 -0.14278497 -0.15891129 -0.020395692 0.112053834 0.1013114 -0.12178551 0.26052028 0.09064905 0.05196941 -0.3764519 0.012684025 0.089931406 0.10446265 0.012923756 0.03911287 -0.039325792 0.28756413 0.2299524 -0.052180592 0.044968348 -0.23608886 -0.16156417 -0.088654436 0.08392522 0.0749562 -0.01771092 -0.045073397
21 0.07607554 0.20104192 0.023284087 0.24944748 0.22480614 0.0005615258 -0.01788481 -0.1646935 -0.20507053 0.040925894 0.030304449 0.079792485 -0.013580506 0.16222262 0.04453459 -0.25683072 0.005916997 -0.12394662 -0.014816066 0.24488302 -0.04005451 -0.004822391 -0.18270348 -0.072049916 -0.021402305 0.06563901 -0.092657134 -0.044811014 0.24252576 -0.028691247 -0.14371859 0.071261376 -0.005081153 0.11573256 -0.017023217 -0.20321305 0.020892635 -0.29399282 0.1834631 0.082147874 -0.24153568 0.016425196 -0.060347382 -0.34094802 0.089984156 -0.016415594 -0.013211199 -0.11092418 -0.24665655 -0.15563206 -0.028101625 -0.16156498 0.07586291 -0.19037123 0.0076772794 -0.05828684 -0.079914875 -0.08878686 0.17278297 -0.29137355 -0.23088016 0.19060953 -0.12103617 0.09323192 0.21457703 0.104211845 -0.21171738 0.1604666 0.17023636 0.044675 -0.044947717 0.09040738 -0.11560986 -0.12851499 -0.15244709 0.0019700932 0.13903126 0.10472728 -0.11683813 0.23618846 0.06352547 0.07342062 -0.360205 0.04122483 0.085506774 0.13873588 0.021191573 0.038157854 -0.08191746 0.27962944 0.23218289 -0.045437936 0.038839333 -0.23403545 -0.16142243 -0.091366835 0.068286575 0.10559375 -0.05160233 -0.003173448
16 0.029379267 0.21630189 -0.024470994 0.24997924 0.22315598 -0.008638547 -0.008807728 -0.1495414 -0.24633682 0.069209665 0.034829777 0.13421105 0.02295056 0.103645004 0.044220027 -0.25391272 -0.05405797 -0.065076314 -0.0022758178 0.18019424 0.056536265 0.024022374 -0.15195403 -0.11252871 -0.0035275826 0.07246325 -0.1882995 -0.046513192 0.30342433 -0.09295439 -0.112416364 0.06955261 0.0096101025 0.12484335 -0.018645642 -0.150353 -0.06456581 -0.1982963 0.13297987 0.052661203 -0.15440726 0.07735987 -0.043829296 -0.30709624 0.13972917 0.043603055 0.015849886 -0.12292503 -0.22944811 -0.14084865 -0.05078997 -0.11067059 0.05002011 -0.18110484 -0.02513588 -0.08872388 -0.09243821 -0.16212636 0.13843611 -0.28688282 -0.20165429 0.15581074 -0.07911808 0.08962228 0.2395392 0.053275835 -0.14554703 0.15720713 0.15479632 -0.08013114 0.01265506 0.07729176 -0.14696197 -0.08920799 -0.17643994 0.032621756 0.14119531 0.001029667 -0.106250316 0.16961779 0.07531203 0.02977982 -0.34043837 -0.01273172 0.07297115 0.1050586 0.017865237 0.038046695 -0.110476136 0.29048327 0.23556809 -0.06547282 0.08439388 -0.21581112 -0.19007833 -0.07053487 0.066653654 0.13386537 -0.043564674 -0.009796093
15 0.079547204 0.21606627 -0.029573083 0.24962047 0.21021402 -0.017914042 -0.005782275 -0.19282058 -0.20163037 0.07609021 0.021191176 0.107732266 0.028184406 0.12262175 0.050984707 -0.23039807 -0.025159996 -0.104354225 -0.030874321 0.20881847 -0.021096077 -0.0009925563 -0.17739193 -0.10682481 0.02894653 0.0962771 -0.14517672 -0.025475051 0.28125545 -0.07018603 -0.12507541 0.0705452 -0.002267867 0.09531445 -0.050270755 -0.13260469 -0.009969748 -0.250854 0.17227647 0.014071928 -0.21435328 0.05791472 -0.040016048 -0.33829004 0.08402047 -0.00976144 -0.024460865 -0.11052169 -0.20710498 -0.15132377 -0.05955336 -0.14279984 0.07350002 -0.21673928 -0.020659095 -0.09611183 -0.04862742 -0.1079981 0.1305362 -0.3024165 -0.21401665 0.15229431 -0.09107819 0.07563894 0.19298472 0.054779653 -0.15132658 0.14521575 0.21597172 -0.019725073 0.005257033 0.08666709 -0.12959626 -0.124300614 -0.17321426 0.018888382 0.11929754 0.05368057 -0.13110387 0.19245905 0.05051065 0.057415158 -0.37198505 -0.010496661 0.06392584 0.11011611 0.023776634 0.044039134 -0.07021593 0.2662689 0.2639236 -0.04986813 0.053782742 -0.21969056 -0.15569386 -0.10122596 0.097810395 0.10646685 -0.013449237 -0.047486473
90 0.028977826 0.22263011 -0.046150032 0.24340451 0.23155926 0.008757903 -0.0059006154 -0.14937577 -0.210081 0.08938886 0.032583464 0.12367322 0.014346296 0.11623667 0.04281249 -0.21983065 -0.07791001 -0.0862678 -0.0012793574 0.14790939 0.08466082 0.046374906 -0.19127864 -0.12639642 0.008952572 0.11598689 -0.2153344 -0.07212628 0.33399183 -0.11026403 -0.10778961 0.052112598 -0.0106728915 0.13189344 -0.024428317 -0.13500002 -0.08272385 -0.13675576 0.09758016 0.036206782 -0.11497499 0.06373889 -0.039443575 -0.34109798 0.14386465 0.032875873 0.028293371 -0.09953223 -0.22910488 -0.14663568 -0.08110888 -0.13550487 0.04530025 -0.16706929 -0.042337462 -0.11044761 -0.11957806 -0.18359806 0.11514767 -0.31626445 -0.19452123 0.1410979 -0.08256308 0.08540733 0.23383537 0.030448124 -0.10156408 0.15894474 0.15655741 -0.117516875 0.0312563 0.05200045 -0.16727981 -0.098738946 -0.1908124 0.021462329 0.12485248 -0.028257826 -0.10156494 0.16888228 0.11158804 -0.025989896 -0.35037488 -0.029899007 0.065866105 0.11506813 -0.0076097613 0.044194583 -0.104963 0.3038328 0.2179462 -0.09909335 0.09504267 -0.16691744 -0.21590108 -0.05493941 0.05199171 0.14133005 -0.03168146 -0.031427708
95 0.078827746 0.20190898 -0.016245373 0.22030398 0.2097177 -0.022158107 -0.020995751 -0.2030596 -0.21435153 0.07366995 0.024800243 0.09396546 0.025660813 0.10632213 0.0693532 -0.23541081 -0.021810902 -0.089284755 -0.026960557 0.22899386 -0.020638343 -0.017070003 -0.16565925 -0.08839033 0.025456807 0.06936859 -0.12696187 -0.024565069 0.26623684 -0.06529966 -0.1311965 0.0773434 -0.021729903 0.09582827 -0.028937588 -0.15556957 0.006353874 -0.28292432 0.17964551 0.028203875 -0.24232773 0.04304131 -0.045232687 -0.33152235 0.06337409 0.0044836923 -0.035586637 -0.13762037 -0.21344481 -0.15922618 -0.044746317 -0.11054317 0.077847615 -0.23054154 -0.0055469833 -0.09379911 -0.020941593 -0.12512404 0.15069497 -0.28800577 -0.23783818 0.16074175 -0.112724885 0.0617122 0.21180412 0.0675161 -0.19908404 0.14544357 0.2232802 0.014161274 -0.014790678 0.077888414 -0.11490363 -0.110647865 -0.15093212 0.010119434 0.09925653 0.086863406 -0.11354901 0.21024624 0.031310804 0.07198615 -0.3764056 -0.009639331 0.07898503 0.11047347 0.033244662 0.029838704 -0.07722576 0.2671874 0.27151817 -0.029849637 0.019288074 -0.22448733 -0.14755403 -0.09795174 0.090042025 0.10754892 -0.016349686 -0.026721507
7 0.037066307 0.22283614 -0.011988784 0.23105943 0.22907259 0.0029450534 -0.0255068 -0.14847891 -0.24765652 0.06614194 0.04737665 0.14350781 0.00555572 0.102037035 0.050074186 -0.23333669 -0.05548486 -0.07621574 -0.009164121 0.17221552 0.016204365 0.032816272 -0.19982691 -0.10930087 0.01940421 0.086899444 -0.18458699 -0.057406396 0.33720002 -0.065616585 -0.10177097 0.071711875 -0.014474175 0.12043604 -0.031888805 -0.16241722 -0.045279827 -0.18429078 0.14433539 0.015153588 -0.14874652 0.049555365 -0.036322426 -0.3325179 0.13363284 0.048072796 0.02607714 -0.103452 -0.2273559 -0.15744765 -0.04220547 -0.14612201 0.06481059 -0.20710489 -0.007824419 -0.11952828 -0.099490166 -0.15875292 0.1417664 -0.3163707 -0.1939907 0.104204215 -0.094446816 0.07512207 0.25084585 0.069077015 -0.1516743 0.1685175 0.1432359 -0.08056897 0.019459473 0.08116515 -0.13468672 -0.10221268 -0.19362815 0.011953091 0.14736521 0.00092740974 -0.13052765 0.15682176 0.066892065 0.015992707 -0.3541607 -0.0045806216 0.065971635 0.12755905 -0.00090305833 0.04799235 -0.10679447 0.268931 0.23257756 -0.048491552 0.081903554 -0.204594 -0.18945768 -0.09311753 0.055249494 0.14072864 -0.048854623 -0.034965787
86 0.034970667 0.22588019 -0.050241042 0.24546295 0.22287907 0.015568383 0.007826916 -0.17362583 -0.19434111 0.08567782 0.036073644 0.12062289 0.024311464 0.12403582 0.042135358 -0.23035917 -0.0870946 -0.07558201 -0.00045426493 0.1510373 0.0697555 0.034047164 -0.18576609 -0.11940887 0.029352132 0.11591614 -0.21006636 -0.07720082 0.35292035 -0.10989416 -0.115056366 0.055771947 0.0035430489 0.13634402 -0.029466523 -0.12071898 -0.07336298 -0.1279622 0.1241769 0.01551429 -0.11718621 0.070094526 -0.06516163 -0.3399551 0.15712276 0.026757836 0.02475932 -0.10382127 -0.25214285 -0.1403869 -0.08320057 -0.12560302 0.043899585 -0.18055278 -0.06307568 -0.11431908 -0.110023156 -0.17657802 0.12723148 -0.31978622 -0.19728516 0.14568426 -0.07170395 0.07956073 0.23335949 0.023615835 -0.07599358 0.15689982 0.15452223 -0.1295721 0.02191133 0.048064433 -0.16827235 -0.1031333 -0.20120318 0.022044415 0.13295116 -0.03845324 -0.09693291 0.14369503 0.10648928 -0.036426503 -0.3650275 -0.04067587 0.05818783 0.108244464 -0.0059661483 0.06360197 -0.09042081 0.30652854 0.22272933 -0.085861124 0.101700716 -0.16271433 -0.20547284 -0.052941 0.05153602 0.1435371 -0.042375904 -0.059219815
14 0.09249374 0.20234431 -0.005568235 0.21706772 0.22150351 -0.011065079 -0.006502414 -0.20241372 -0.2159451 0.07316947 0.03568801 0.0843499 0.011952872 0.114478774 0.0616362 -0.21729594 -0.00089425367 -0.1156704 -0.035670653 0.23414211 -0.046687536 -0.025536155 -0.16447504 -0.087902516 0.029280331 0.07707404 -0.117050044 -0.03830009 0.26068822 -0.05277434 -0.13869743 0.0790174 -0.02524759 0.101291135 -0.050534617 -0.15679058 0.0065419506 -0.2856706 0.18368624 0.03152492 -0.24500069 0.05127798 -0.049441874 -0.346554 0.059802685 -0.010415026 -0.025945716 -0.107967526 -0.19752786 -0.13708471 -0.04717872 -0.13635169 0.083565176 -0.22158776 0.0056768823 -0.101343006 -0.029478818 -0.110618874 0.15705198 -0.30946493 -0.23446019 0.15632361 -0.11628702 0.063406 0.21090005 0.07863657 -0.19178267 0.14433521 0.23120986 0.019906454 -0.011129742 0.077046186 -0.10379942 -0.12840016 -0.15726945 0.0015916792 0.09870773 0.08944297 -0.11666401 0.2015723 0.027449757 0.06962865 -0.36063695 0.013449911 0.062012225 0.1163038 0.029535621 0.025599534 -0.064750604 0.250452 0.2669507 -0.02794862 0.02598513 -0.2086143 -0.1425142 -0.104106985 0.09840164 0.11171932 -0.0071628704 -0.022178376
45 0.08224098 0.20275255 -0.02221686 0.24372439 0.22252458 0.0036364386 -0.043877628 -0.1688013 -0.22069398 0.0738046 0.032667506 0.11004139 0.01889635 0.1260229 0.058509216 -0.22671364 -0.007303042 -0.11433692 -0.03706986 0.21837115 -0.04728136 -0.009039823 -0.17087474 -0.07999971 0.022322597 0.08461616 -0.16289529 -0.036387935 0.28581813 -0.05674414 -0.13002536 0.080173574 -0.027423661 0.11260966 -0.030767778 -0.17448866 0.0026719656 -0.28018096 0.17821506 0.04909305 -0.21499594 0.014759993 -0.019810209 -0.33451733 0.068529844 0.002661288 -0.020796815 -0.11674895 -0.22294968 -0.17651717 -0.05692221 -0.13617203 0.070318535 -0.21248245 0.004309651 -0.09368956 -0.048869092 -0.114051975 0.16027203 -0.29570267 -0.23093405 0.15798688 -0.1338674 0.078250974 0.2256698 0.0685163 -0.18263409 0.13936982 0.20921679 0.007113429 -0.0023457122 0.06975224 -0.13397399 -0.121264905 -0.14223272 -0.010205279 0.11620773 0.06340519 -0.12903216 0.20414981 0.03153006 0.070370965 -0.38675663 -0.0067319777 0.06943028 0.12200807 0.024376528 0.020806534 -0.055194393 0.25738856 0.2523788 -0.03176984 0.025490861 -0.21269304 -0.13189597 -0.08310386 0.0914505 0.09345314 -0.022358276 -0.015045099
20 0.10049525 0.2125604 -0.01030998 0.25330433 0.21615423 -0.006021326 -0.04304947 -0.1996939 -0.22607057 0.060409978 0.028129375 0.076005824 0.025520748 0.13104884 0.07372445 -0.26260483 0.016560636 -0.122740105 -0.00058259093 0.26914087 -0.037359517 -0.02739079 -0.15030643 -0.10606587 0.008343022 0.05883217 -0.10797559 -0.011104566 0.26075795 -0.043498203 -0.14168178 0.06439864 -0.024503097 0.11898165 -0.03239049 -0.17561571 0.0315757 -0.3280836 0.22065684 0.053595375 -0.25873378 0.052234624 -0.05571164 -0.33734268 0.071457215 -0.007657933 -0.03233839 -0.13639009 -0.23811178 -0.18256183 -0.02781371 -0.12422357 0.07735999 -0.23746562 0.027951987 -0.06993655 -0.026659366 -0.10630147 0.17039916 -0.28609326 -0.23173085 0.16661605 -0.13881047 0.07301002 0.2220379 0.08389115 -0.23358595 0.13442057 0.23265345 0.03138952 -0.04683629 0.1210325 -0.120121896 -0.11782445 -0.12882681 0.0052693463 0.113131344 0.11043985 -0.13466597 0.21213779 0.0005216137 0.10525207 -0.39501598 0.023340512 0.09119283 0.124189675 0.048373222 0.02992902 -0.08238017 0.2636453 0.2926883 -0.031537604 0.0076665785 -0.2821379 -0.14905332 -0.1069547 0.095044024 0.10916196 -0.024351392 -0.008244315
35 0.112052634 0.21077323 -0.025874356 0.23692359 0.21888903 -0.009548958 -0.037904426 -0.21906078 -0.21295835 0.09005655 0.01745431 0.09394933 0.041823655 0.09898769 0.07891745 -0.23630242 0.012852064 -0.10474435 -0.04212451 0.25297505 -0.06858988 -0.020337941 -0.15671764 -0.09901871 0.043543093 0.067654245 -0.13948257 -0.008041915 0.28811935 -0.048195284 -0.12932692 0.081024654 -0.026469462 0.08338927 -0.04776572 -0.13931285 0.031214392 -0.3276357 0.21679191 0.012581704 -0.25383413 0.0614907 -0.03436409 -0.33736226 0.03449945 -0.013178844 -0.06654375 -0.13265453 -0.18373427 -0.17154841 -0.034340065 -0.11968552 0.07387458 -0.2634628 0.020323206 -0.10235293 0.012751804 -0.094457604 0.12601058 -0.27709794 -0.20912959 0.1530285 -0.12175646 0.07192009 0.2007965 0.059702817 -0.20920055 0.13431016 0.27221635 0.017002426 0.0035883265 0.10394708 -0.12080162 -0.11952538 -0.15101114 0.0018115003 0.09835319 0.10546499 -0.13137977 0.21570285 -0.00893971 0.11038871 -0.3867224 -0.011103688 0.0685329 0.09670182 0.039552506 0.024387604 -0.05519775 0.2423531 0.29608673 -0.022570625 -0.013025587 -0.24894974 -0.1096311 -0.13313293 0.1295464 0.082623705 0.0103155635 -0.02954277
56 0.029101001 0.20604894 -0.043235525 0.23215443 0.22187008 0.010699651 0.0007022951 -0.15905452 -0.24135049 0.07671392 0.05615365 0.13658787 0.014827384 0.10142666 0.04755621 -0.24163847 -0.05254545 -0.06964228 -0.0040713176 0.15598191 0.05722448 0.02673635 -0.18229845 -0.119390205 0.017523836 0.1036115 -0.20054524 -0.063000225 0.34555846 -0.08939441 -0.114043914 0.072964035 0.006515616 0.1237516 -0.015382863 -0.15766321 -0.07793025 -0.15831389 0.11911199 0.019081596 -0.1388372 0.072683804 -0.042946327 -0.31537753 0.14980873 0.058081497 0.03181556 -0.11623077 -0.23086822 -0.14888076 -0.056375254 -0.13362026 0.05468952 -0.17692806 -0.02780361 -0.108828664 -0.08605238 -0.17118867 0.14437811 -0.30769718 -0.18877076 0.10226954 -0.08684525 0.0853586 0.25530693 0.054506656 -0.1335855 0.15779807 0.13738641 -0.08619648 0.01836381 0.06504085 -0.14532296 -0.101874456 -0.21109533 0.024038676 0.12688376 -0.019841986 -0.1148819 0.14310102 0.06437482 -0.009095056 -0.3334523 -0.02442663 0.060424797 0.121685185 0.0058225067 0.042821176 -0.09853827 0.296043 0.22850372 -0.055536132 0.09661497 -0.19388069 -0.18982255 -0.078076825 0.05719044 0.14858392 -0.043879353 -0.03335456
96 0.0321259 0.22314738 -0.048721824 0.23097274 0.22916938 0.00042746868 -0.009800029 -0.15113698 -0.21155289 0.09259349 0.04632599 0.13911708 0.030722117 0.1029265 0.052079774 -0.21384324 -0.08179692 -0.06392825 -0.00042954666 0.14453319 0.08860191 0.03535672 -0.1849938 -0.12897825 0.016059738 0.09584453 -0.22871754 -0.054900974 0.3271851 -0.11295026 -0.10101782 0.06893244 -0.0014368114 0.13789691 -0.005434424 -0.13511242 -0.077026784 -0.15186687 0.098978326 0.045958582 -0.11196654 0.06324198 -0.0359055 -0.32156676 0.14100258 0.050785713 0.024490284 -0.106629364 -0.23251814 -0.15283054 -0.07652915 -0.10876091 0.042682603 -0.18700697 -0.044747632 -0.120063595 -0.09043434 -0.18507932 0.10945753 -0.29396707 -0.19206592 0.15502276 -0.099773146 0.086462855 0.24307106 0.025562622 -0.10011646 0.14896837 0.16179618 -0.115950294 0.037220348 0.04506376 -0.16982397 -0.098860584 -0.19127697 0.039807048 0.13073358 -0.03540939 -0.10179982 0.17974961 0.099883944 -0.0003668265 -0.33804664 -0.03840436 0.04982862 0.09206501 0.0037301446 0.052317906 -0.0965281 0.29393068 0.21292254 -0.08829905 0.07650275 -0.17547582 -0.19529767 -0.054061193 0.07119588 0.12269917 -0.036551464 -0.022342978
85 0.04208384 0.24191381 -0.05516324 0.26436892 0.21674006 -0.0024584949 -0.02256338 -0.1433952 -0.22599109 0.102595426 0.05033948 0.13169645 0.021179121 0.1256363 0.041027855 -0.24106541 -0.07105912 -0.08147944 0.0061018816 0.17306347 0.08606228 0.032552287 -0.16858028 -0.12863746 0.023115845 0.087051146 -0.23856176 -0.026363079 0.3283518 -0.1101711 -0.10846676 0.08571766 -0.0031015354 0.13555084 -0.0056962315 -0.13841586 -0.06165365 -0.17982231 0.11942804 0.047782294 -0.12502664 0.060917005 -0.044197083 -0.32281458 0.13308448 0.03210152 -0.015894024 -0.12026843 -0.2322711 -0.15090738 -0.07487299 -0.10998045 0.039208595 -0.19508454 -0.061082054 -0.09956929 -0.087755986 -0.17695642 0.111495174 -0.28522697 -0.18499061 0.17526144 -0.10016209 0.10044337 0.24307759 0.026610387 -0.109488316 0.15224352 0.17287901 -0.117626354 0.02558649 0.04736274 -0.16615126 -0.094003245 -0.18171065 0.03125968 0.12777725 -0.025734156 -0.11957981 0.1876953 0.08209367 0.017326258 -0.35320193 -0.03224868 0.04957263 0.09590697 0.010028893 0.04864358 -0.10678294 0.28949928 0.23165226 -0.10201556 0.071252786 -0.1862251 -0.1953642 -0.053068187 0.07942905 0.1140345 -0.044329494 -0.00565459
64 0.06078642 0.19189939 -0.04696792 0.25504494 0.20264393 0.010365964 -0.03800774 -0.16386028 -0.20469223 0.10665166 0.045229755 0.12870435 0.02581435 0.12468208 0.06553732 -0.2422377 -0.015427774 -0.11469121 -0.014535682 0.21579891 -0.030803043 0.014618372 -0.17805712 -0.10367896 0.010501764 0.11545201 -0.16840453 -0.029743852 0.3275308 -0.087004 -0.1166012 0.07506719 -0.014440734 0.09591814 -0.026296424 -0.16540645 -0.030241609 -0.23056914 0.17581457 0.05785789 -0.20161779 0.027642101 -0.01722249 -0.3363524 0.0863964 0.027958382 -0.038134653 -0.12115912 -0.20167592 -0.14843473 -0.05987429 -0.15723872 0.067946725 -0.19916748 -0.021353403 -0.07628258 -0.069798596 -0.13995652 0.11845841 -0.28286916 -0.1981347 0.12619549 -0.09559905 0.07822276 0.21491906 0.056749765 -0.17505918 0.14026967 0.20250063 -0.049197644 0.02080095 0.06530027 -0.13282251 -0.124448046 -0.18322125 -0.016152624 0.10899787 0.049307216 -0.11924632 0.19603626 0.034272604 0.0373545 -0.3632495 -0.008447808 0.08280048 0.10409992 0.005782303 0.04260742 -0.06429479 0.28397483 0.2459843 -0.0696399 0.038263224 -0.22289203 -0.15331161 -0.08572099 0.07818019 0.09382198 -0.0146273505 -0.03458768
2 0.054079913 0.21323024 -0.026692018 0.23331054 0.22872245 0.004098969 -0.009255121 -0.1640034 -0.21210334 0.07685967 0.027578123 0.12645692 0.0060831043 0.12486794 0.033353213 -0.23544994 -0.04801644 -0.08374746 -0.00742674 0.18962288 0.03663656 0.026201269 -0.17008089 -0.12724026 0.013427349 0.08580337 -0.17314339 -0.061246306 0.32172167 -0.084031336 -0.122997716 0.060811386 -0.0040676314 0.1316125 -0.014688995 -0.15684152 -0.049668618 -0.18887094 0.11663104 0.053499002 -0.14797042 0.04778954 -0.04050252 -0.32320178 0.13315095 0.03068584 0.017790392 -0.09637854 -0.23461239 -0.13869658 -0.052628484 -0.13807625 0.047688358 -0.1827601 -0.038343642 -0.10085535 -0.083077274 -0.1469275 0.123454146 -0.2968009 -0.19093098 0.145038 -0.09622366 0.091113016 0.24035008 0.05998546 -0.13884121 0.14992723 0.15764084 -0.054358676 0.017724872 0.06642513 -0.16120887 -0.11217506 -0.17432076 0.008463251 0.11503663 -0.0014985892 -0.1033026 0.19464903 0.097901374 0.025854079 -0.34281793 -0.022917153 0.054239403 0.11153997 0.017941978 0.04778353 -0.088359185 0.29383087 0.22692966 -0.08523186 0.07942667 -0.17464645 -0.18303744 -0.07022959 0.059232596 0.11119152 -0.033447597 -0.025383292
10 0.08974706 0.20894907 -0.04243939 0.23599587 0.22628614 0.00044563098 -0.008537981 -0.22334638 -0.18538809 0.10511285 0.020608202 0.09962876 0.040486418 0.121691726 0.059658673 -0.21699263 -0.014367106 -0.12796861 -0.03188492 0.22755452 -0.03456184 -0.0023797555 -0.17576785 -0.105624616 0.031317834 0.115354836 -0.14069214 -0.050566647 0.31275898 -0.076333985 -0.12632003 0.045298107 -0.018110076 0.07866683 -0.06758635 -0.13053088 -0.024014328 -0.26699987 0.16882986 0.014666519 -0.2339105 0.054543246 -0.028014023 -0.35658303 0.07094077 -0.0053203763 -0.052144565 -0.11144393 -0.18912971 -0.14867315 -0.058257442 -0.14739999 0.07764481 -0.22714238 -0.014900311 -0.10819398 -0.013254943 -0.115796044 0.12551315 -0.31066173 -0.20372051 0.1394767 -0.0938188 0.08287408 0.18660572 0.05426731 -0.15688574 0.1428555 0.24251835 -0.021784438 0.03444855 0.06477564 -0.12576199 -0.13537759 -0.17739616 -0.02481335 0.080437705 0.080673985 -0.11672804 0.18860231 0.045031067 0.052243832 -0.38494116 -0.031568903 0.07334399 0.0902531 0.02653395 0.04737604 -0.036946375 0.2766699 0.26853153 -0.042972896 0.032701124 -0.20905393 -0.13375622 -0.11467579 0.10422123 0.101921976 0.020325705 -0.06666516
94 0.020458065 0.22466357 -0.05004073 0.23918359 0.2222948 0.0030150355 -0.0172565 -0.1377504 -0.23327051 0.097769074 0.05579237 0.1466435 0.01280842 0.11835416 0.035853744 -0.23065116 -0.103705175 -0.056408398 0.016024867 0.13166314 0.110778004 0.042160388 -0.17157438 -0.12946466 0.030389827 0.09602514 -0.23648247 -0.05708361 0.35362148 -0.099560246 -0.09777046 0.087801374 -0.0038436172 0.13044141 0.0060883914 -0.13705277 -0.0905757 -0.12707971 0.10494928 0.03800686 -0.10959679 0.08586586 -0.044187594 -0.31367886 0.16731739 0.060649153 0.02145098 -0.12595807 -0.24035157 -0.13272019 -0.07698213 -0.10582235 0.048929602 -0.18943861 -0.058800295 -0.11370671 -0.10867603 -0.20480573 0.10211875 -0.3078851 -0.16954195 0.15577504 -0.0961998 0.091749854 0.25556758 0.045529917 -0.10381307 0.17644443 0.15009582 -0.13140032 0.04588806 0.04407214 -0.16928244 -0.09758416 -0.20913784 0.049154494 0.13527744 -0.04025048 -0.09188284 0.1840241 0.09304 -0.011020112 -0.33430293 -0.010770003 0.039553545 0.08595849 0.0052706357 0.038056448 -0.1235713 0.295818 0.21016048 -0.11748021 0.1030163 -0.16659926 -0.20755032 -0.06236236 0.067498714 0.13759507 -0.038478963 -0.01164075
25 0.030979017 0.20713402 -0.033300765 0.2175174 0.22362235 0.0020318332 0.0010729132 -0.1530103 -0.21597679 0.082520224 0.047907926 0.13052286 0.02345733 0.11341461 0.047521517 -0.20541894 -0.042611677 -0.08045496 -0.013453605 0.17006275 0.01845794 0.03118104 -0.19612756 -0.113335885 0.02111687 0.1040467 -0.19541314 -0.056057055 0.3312525 -0.10300551 -0.11045354 0.056868643 -0.003207532 0.10737482 -0.01612696 -0.14340457 -0.05884403 -0.1788823 0.123433016 0.016626898 -0.1581409 0.06652873 -0.029046603 -0.32074815 0.12678216 0.047864106 0.010123303 -0.10713961 -0.20196827 -0.13598742 -0.06262304 -0.13307 0.05709831 -0.18441086 -0.029236283 -0.11799425 -0.093637325 -0.16094904 0.13434523 -0.31135872 -0.19350202 0.11605559 -0.0779046 0.07207239 0.21851288 0.05367681 -0.13382585 0.15583675 0.16106397 -0.07819937 0.029196462 0.058841776 -0.14508693 -0.09825595 -0.19762209 0.022717187 0.11767684 0.0117460815 -0.11976849 0.16041473 0.07214331 -0.0052733845 -0.3500181 -0.018090414 0.06737249 0.09700204 0.008189533 0.048098456 -0.09276161 0.28495708 0.24018645 -0.078522764 0.057463933 -0.20159543 -0.1960436 -0.0839729 0.06373946 0.12888213 -0.022595087 -0.04992893
84 0.03470063 0.19705953 -0.042003546 0.23045462 0.22139321 0.020390399 -0.026007863 -0.17357995 -0.21098259 0.100901775 0.036404822 0.15061378 0.0148993265 0.12508261 0.0285549 -0.23119697 -0.058752067 -0.07009905 -0.010399964 0.15939923 0.049577024 0.048842497 -0.19479233 -0.13363598 0.016789244 0.115904056 -0.18561754 -0.062208284 0.3550477 -0.0933476 -0.119863704 0.051974725 -0.010267582 0.11236352 -0.014539304 -0.14607851 -0.089535795 -0.1498208 0.11209917 0.042261764 -0.14146066 0.074470244 -0.043799262 -0.32904664 0.15059792 0.059072867 0.021680692 -0.11201637 -0.22491653 -0.1330405 -0.070926085 -0.15201123 0.059889488 -0.17509855 -0.052980147 -0.0980632 -0.103670925 -0.18303987 0.098187216 -0.2965104 -0.17831631 0.12159413 -0.070685916 0.07667441 0.22827317 0.058156386 -0.119675264 0.14481568 0.14357653 -0.09534496 0.021787371 0.056148868 -0.15245423 -0.12728283 -0.20421055 0.0030658117 0.11368753 -0.024259683 -0.094147794 0.17648487 0.087133415 -0.0055961413 -0.34076154 -0.027894154 0.063532546 0.096535504 -0.013527291 0.059843615 -0.089166425 0.3012453 0.22158653 -0.085560255 0.09865862 -0.18258081 -0.19749577 -0.0663274 0.05824344 0.13276252 -0.018655006 -0.04815866
87 0.055773742 0.21711451 -0.037324063 0.2429686 0.23488541 0.0082281735 -0.008333046 -0.15396464 -0.2171629 0.0724179 0.031335417 0.1340349 0.016186856 0.12278548 0.043438 -0.21962732 -0.07066183 -0.093254335 -0.0120489355 0.15778755 0.07145878 0.043465216 -0.20020054 -0.108900264 -0.0049373615 0.110617414 -0.20892192 -0.07615886 0.31342733 -0.11384539 -0.111402564 0.052131455 -0.023357693 0.120304376 -0.030204061 -0.14955784 -0.07237499 -0.17307535 0.10263098 0.04612989 -0.11784229 0.060929794 -0.037573136 -0.33045596 0.14993873 0.027782578 0.025535839 -0.1095748 -0.23369451 -0.14783362 -0.070729494 -0.13015819 0.057670463 -0.17774297 -0.04057259 -0.109902285 -0.100363806 -0.18179403 0.11435906 -0.28561917 -0.20459943 0.14706007 -0.09690059 0.09581878 0.21845017 0.036820408 -0.088602215 0.16109365 0.14945148 -0.095975764 0.036097247 0.0466193 -0.17773336 -0.09378521 -0.17590508 0.02354686 0.12997112 -0.02344705 -0.11366301 0.17908753 0.115505956 -0.0108980965 -0.36126384 -0.01977644 0.07217442 0.09870276 -0.0015242861 0.04417155 -0.08429671 0.29117045 0.21898174 -0.08525306 0.09883443 -0.18120071 -0.1994229 -0.059219897 0.0753189 0.14224397 -0.045063242 -0.020383334
4 0.04724486 0.20366727 -0.023193829 0.21685852 0.22966939 0.018275063 -0.0044597555 -0.1824428 -0.22655366 0.068248905 0.049005102 0.13515931 0.0013375463 0.11093254 0.04174012 -0.23084709 -0.0330572 -0.085743755 -0.01692875 0.17565182 0.026952967 0.014593381 -0.1817899 -0.12226848 0.018476242 0.10287159 -0.17298827 -0.07299435 0.31823757 -0.092602655 -0.12705377 0.056200024 -0.012451556 0.12389873 -0.03985364 -0.13741484 -0.05234914 -0.18324107 0.10904675 0.012142418 -0.15182878 0.061299257 -0.05769067 -0.33186522 0.12063619 0.03323485 0.015131984 -0.099162966 -0.21411112 -0.13870427 -0.05907249 -0.1493686 0.05487574 -0.19375862 -0.025573118 -0.107951604 -0.06780378 -0.15467295 0.14569755 -0.32161802 -0.20598906 0.09738789 -0.09320371 0.081397176 0.2203669 0.057449955 -0.14587477 0.14754139 0.15559958 -0.055812847 0.015107486 0.06403142 -0.14292672 -0.12704232 -0.17992015 -0.0050781746 0.09857886 0.0056426604 -0.10905176 0.15142289 0.074778706 0.014857446 -0.36161342 -0.03989979 0.06556439 0.12619486 0.009634953 0.06251238 -0.07025418 0.29133746 0.23898634 -0.040996175 0.07894018 -0.18835069 -0.17856142 -0.08504932 0.052258205 0.12774263 -0.020237217 -0.044367697
104 0.048270047 0.21091653 -0.029188573 0.22235811 0.2248851 0.0044268593 -0.02819423 -0.15592355 -0.20481399 0.08459055 0.035431203 0.13355385 0.016924048 0.1383958 0.03750761 -0.22519791 -0.04970168 -0.09539381 -0.007846627 0.18608883 0.013382089 0.028903153 -0.19146052 -0.12326065 0.012459198 0.10710235 -0.1651016 -0.06325235 0.321559 -0.071754865 -0.104790285 0.06067045 -0.009474749 0.11153421 -0.03944824 -0.15165131 -0.037498593 -0.20604151 0.12062987 0.037654378 -0.16727747 0.039022148 -0.025980616 -0.34308827 0.12001596 0.015942993 0.00023930115 -0.10498282 -0.20804869 -0.14432156 -0.04601499 -0.15451725 0.06815493 -0.18957832 -0.02849951 -0.09440333 -0.06573363 -0.14758667 0.1107847 -0.29863024 -0.18469888 0.13639879 -0.097334154 0.08796834 0.22422235 0.07231686 -0.13641271 0.15095803 0.16537344 -0.049908847 0.045936074 0.06334787 -0.15708378 -0.124528274 -0.18282 -0.0091711655 0.113156654 0.01457809 -0.10843934 0.20582971 0.08380424 0.016900016 -0.357309 -0.019346792 0.06506813 0.103304386 0.01097944 0.035997096 -0.08667844 0.2811798 0.21934234 -0.081513636 0.072596475 -0.17997806 -0.18251526 -0.083505295 0.08291334 0.11664646 -0.011362563 -0.023721416
66 0.088052586 0.19790761 -0.033198614 0.22603293 0.23434664 0.0027039463 -0.03386528 -0.18872944 -0.22852215 0.077993415 0.03393617 0.13233542 0.034011047 0.11169294 0.0745171 -0.21890068 -0.02621422 -0.09939006 -0.03352703 0.19271421 -0.03202283 -0.013634372 -0.17021754 -0.0931555 0.029205687 0.10236734 -0.16693406 -0.04717339 0.29307216 -0.08045506 -0.12093835 0.06690213 -0.03734556 0.104163766 -0.04895209 -0.1441552 -0.023095554 -0.25091812 0.16131103 0.039677717 -0.20374618 0.039699193 -0.027458075 -0.34452978 0.06848886 0.009810983 -0.01003253 -0.12279998 -0.20852387 -0.15958107 -0.05046867 -0.13726842 0.07561828 -0.2244261 0.004379325 -0.10967599 -0.03192519 -0.14467955 0.14492592 -0.29036307 -0.22849289 0.14618823 -0.11673794 0.08452281 0.22478785 0.045115314 -0.17579235 0.14454165 0.2158358 -0.011997556 0.014570943 0.06940441 -0.14292766 -0.11638085 -0.16366373 -0.012103352 0.11077797 0.05355062 -0.12544203 0.2017498 0.04531717 0.03672151 -0.37098825 -0.029324971 0.078028485 0.11339687 0.021201858 0.024433713 -0.07066085 0.2541045 0.2620453 -0.044275407 0.02745968 -0.19948494 -0.13556196 -0.088752754 0.09782533 0.10778607 -0.0024993818 -0.029883401
101 0.043730073 0.21849984 -0.034482956 0.23029958 0.22599113 -0.0057135453 -0.024664486 -0.15774965 -0.21246569 0.0792306 0.04904171 0.12648341 0.0051056556 0.11520176 0.04144257 -0.2241158 -0.06474042 -0.075209066 -0.0189502 0.16250241 0.026463112 0.020648591 -0.18259509 -0.12593763 0.02520115 0.08608575 -0.16775458 -0.06526787 0.32917896 -0.07051317 -0.107546054 0.08223841 -0.014380624 0.11893771 -0.03931643 -0.1532746 -0.046168067 -0.19450139 0.13047735 0.040820245 -0.16979755 0.039233677 -0.027865918 -0.3455433 0.11369866 0.035395116 0.0018288128 -0.11343996 -0.21853448 -0.13435937 -0.06257485 -0.14602076 0.062102035 -0.20188622 -0.035836555 -0.10868246 -0.06992892 -0.1598361 0.11208774 -0.30338144 -0.20517668 0.13110122 -0.093905866 0.083390966 0.2380684 0.06130751 -0.14843524 0.16972639 0.15402476 -0.05771013 0.024440901 0.06261586 -0.13632812 -0.12086178 -0.19283934 0.025610484 0.13077413 0.007454411 -0.11631557 0.19117136 0.08733072 0.01608272 -0.34365058 -0.0068146973 0.05353237 0.11220296 0.016219141 0.04399609 -0.10703381 0.27378026 0.20884918 -0.07832984 0.08467908 -0.17135212 -0.19206238 -0.081509076 0.07361407 0.13174784 -0.026612312 -0.017211588
77 0.059132397 0.22213747 -0.04027006 0.2231 0.24279122 0.0074930373 -0.014139086 -0.16309178 -0.19749643 0.08016045 0.027412785 0.12325325 0.032959197 0.12084993 0.047887225 -0.2114441 -0.08357738 -0.086211585 0.0008767357 0.1568875 0.066046506 0.043133747 -0.19509631 -0.1244208 0.020185856 0.09823225 -0.20828146 -0.070610456 0.34129232 -0.097078614 -0.12662247 0.07244822 -0.030107569 0.11763083 -0.025063952 -0.13649017 -0.068962745 -0.15676545 0.1217493 0.039119013 -0.13594705 0.07442877 -0.027771095 -0.34551764 0.14340389 0.038786486 0.020784719 -0.110596865 -0.23369096 -0.16866416 -0.07174622 -0.12748389 0.054248452 -0.19796647 -0.041992676 -0.120313935 -0.109384134 -0.18577981 0.0963714 -0.29387245 -0.19435126 0.14229138 -0.11107328 0.07451825 0.2231541 0.03293976 -0.10606599 0.14923249 0.15928106 -0.10261183 0.031536143 0.041321207 -0.16556934 -0.10816281 -0.18394871 0.020675264 0.12190149 -0.02418335 -0.09325743 0.1925924 0.10183984 0.0030282454 -0.35460335 -0.019195909 0.05690639 0.091758505 0.011398327 0.041393507 -0.09244836 0.29154155 0.22587265 -0.09137182 0.08521322 -0.18115577 -0.20523457 -0.06280514 0.080925524 0.1418186 -0.031791188 -0.03484503
8 0.05249753 0.19326222 -0.04067618 0.22491568 0.22197923 0.012857253 -0.017133664 -0.17971906 -0.22032282 0.08230241 0.04596943 0.126689 0.011372624 0.12235706 0.04157127 -0.23841809 -0.035286486 -0.07966463 -0.0058032824 0.1986 0.029735353 0.007488432 -0.17652918 -0.111589655 0.0070169205 0.09989389 -0.1651383 -0.061186157 0.33591646 -0.071622804 -0.118017025 0.056666505 -0.0041391198 0.12202054 -0.020203054 -0.16484487 -0.0569692 -0.19360097 0.13466434 0.037485614 -0.17486756 0.06534101 -0.054030836 -0.32198897 0.13200782 0.051092964 0.013597844 -0.12134488 -0.22809185 -0.13288598 -0.043136448 -0.13481933 0.06560339 -0.18259336 -0.036164515 -0.088406816 -0.06811325 -0.15790199 0.13673611 -0.29174668 -0.19009519 0.13562906 -0.0960831 0.07412276 0.23538701 0.06184796 -0.16150667 0.16332717 0.15474182 -0.040409785 0.0013182851 0.07053914 -0.1402172 -0.1132422 -0.19045316 -0.003441429 0.10205315 0.012074354 -0.09522307 0.17759521 0.0686971 0.018751139 -0.34132645 -0.019731967 0.061577525 0.10206417 0.025648454 0.039733555 -0.0802807 0.29276127 0.24376604 -0.062722996 0.070926994 -0.19108911 -0.1731892 -0.08248774 0.049469788 0.11561515 -0.027794957 -0.04231648
1 0.055965953 0.21508889 -0.019081328 0.22900262 0.23239684 0.0146501465 -0.021205999 -0.16040212 -0.19999795 0.065280505 0.023984522 0.12506096 0.016594488 0.14215969 0.047599047 -0.2282157 -0.063984096 -0.087491795 -0.017783616 0.16672663 0.031695843 0.038213976 -0.19037011 -0.12371007 -0.0040305634 0.09588663 -0.17746513 -0.068155974 0.3295792 -0.0812789 -0.12328041 0.05088334 -0.011181607 0.1333432 -0.029586785 -0.14859973 -0.0626893 -0.18133798 0.12660292 0.042853337 -0.14184223 0.06172915 -0.053156853 -0.33514598 0.13927735 0.017819703 0.03319259 -0.095142506 -0.24304841 -0.1474028 -0.051037252 -0.1401299 0.058865964 -0.18979563 -0.04504539 -0.10575614 -0.11076349 -0.16275929 0.121873096 -0.29447466 -0.20785998 0.14686184 -0.08362994 0.08574923 0.21753168 0.046494845 -0.11738115 0.14460368 0.15517668 -0.06456997 0.01273818 0.055920847 -0.15677612 -0.11557132 -0.18244587 0.0018358374 0.13380204 -0.008562278 -0.09157877 0.17169008 0.11219429 0.0009051448 -0.35338676 -0.01766595 0.067207254 0.102890044 -0.0057051615 0.0561837 -0.08686235 0.3030008 0.22580495 -0.07433241 0.09378384 -0.1828873 -0.1981781 -0.06749575 0.06077748 0.12105602 -0.042754624 -0.039535683
93 0.05281098 0.2272028 -0.048369016 0.23029953 0.23289847 -0.007360348 -0.011769903 -0.15283847 -0.19818127 0.090350665 0.0316434 0.14157574 0.036992133 0.12559146 0.05210126 -0.20729104 -0.0810715 -0.086093694 -0.00562066 0.14640155 0.059400313 0.049494226 -0.19811264 -0.12230755 0.011637176 0.10244527 -0.19839504 -0.06641606 0.33774933 -0.09555917 -0.09602606 0.05266837 -0.018539537 0.10063221 -0.029308844 -0.13896662 -0.081005506 -0.15791944 0.11204348 0.041360404 -0.14341334 0.06647946 -0.020975515 -0.3530636 0.1333179 0.024519622 0.012449208 -0.10537054 -0.2197915 -0.16313209 -0.071356826 -0.11960732 0.05281428 -0.20255417 -0.047555096 -0.1274041 -0.094318405 -0.19208045 0.08487426 -0.30305272 -0.18503565 0.15309279 -0.100420736 0.09593099 0.22376898 0.022118697 -0.09887251 0.16914837 0.16313799 -0.109398656 0.0663024 0.034812294 -0.17265934 -0.10075651 -0.19875555 0.030697146 0.123953104 -0.021176023 -0.11609617 0.18720135 0.10884425 -0.00055553863 -0.36698332 -0.032061044 0.060629692 0.09878183 -0.0072101867 0.041564807 -0.106052734 0.29776812 0.22372657 -0.106480874 0.08379915 -0.17035912 -0.20038876 -0.06825722 0.082256526 0.13643366 -0.030766876 -0.01473919
46 0.061070386 0.2142185 -0.047610726 0.23520465 0.23403244 0.00848185 -0.020756679 -0.19281252 -0.23701455 0.09971317 0.04807169 0.15822957 0.009593476 0.1019229 0.03524857 -0.24327067 -0.024990922 -0.0984072 -0.047885668 0.20624365 0.015365511 0.005607425 -0.16482568 -0.122213334 0.039541446 0.10667185 -0.18498325 -0.027176972 0.32440957 -0.07769582 -0.110344514 0.05776781 0.007657513 0.108008504 -0.03819655 -0.13786568 -0.036086775 -0.22739753 0.13505745 0.005107386 -0.1740591 0.06835413 -0.06424229 -0.3240484 0.097148046 0.034867283 -0.019119905 -0.12392196 -0.20103317 -0.1382853 -0.054661606 -0.14535749 0.06749903 -0.21369879 -0.031286836 -0.10444829 -0.034497976 -0.1314221 0.13135548 -0.30704644 -0.19200908 0.12249754 -0.08390457 0.08388915 0.21874562 0.057999793 -0.16383937 0.1560419 0.18759955 -0.03995846 0.02928612 0.077355884 -0.14066884 -0.12653045 -0.19200566 -0.012102047 0.08730342 0.020928167 -0.11503353 0.15783256 0.043060157 0.03641625 -0.3619194 -0.03195972 0.06147698 0.101521984 0.010994936 0.03770366 -0.060776558 0.2697769 0.26741606 -0.05621244 0.06257278 -0.20962693 -0.15235187 -0.108084574 0.07460392 0.10788898 -0.0041396026 -0.03834135
89 0.039956544 0.22234671 -0.027615504 0.22392648 0.2235426 0.019217465 -0.022677626 -0.16317907 -0.20871273 0.07885561 0.035363074 0.12646404 0.015728515 0.1273235 0.04913587 -0.22396128 -0.07371493 -0.07889156 -0.0044803754 0.14858912 0.053147785 0.04426121 -0.19591051 -0.109386906 0.019369947 0.11581791 -0.1998947 -0.06334723 0.31220734 -0.09507897 -0.117260665 0.07088808 -0.001081998 0.12965734 -0.007921184 -0.13310361 -0.05860735 -0.14908174 0.116401814 0.041852742 -0.14242943 0.060402006 -0.031346105 -0.32114547 0.122040816 0.041310046 0.020138621 -0.11575724 -0.23836173 -0.14640824 -0.085943155 -0.12913594 0.056340832 -0.17330499 -0.04542261 -0.114989586 -0.10930944 -0.17727925 0.11589708 -0.29568753 -0.18743214 0.14137928 -0.099433504 0.08930818 0.21839027 0.046563882 -0.11026968 0.13626274 0.14772902 -0.09128584 0.018762361 0.05248213 -0.1554326 -0.119796716 -0.18263446 0.023402313 0.124132864 -0.0070646317 -0.101767644 0.1789867 0.080701634 -0.017382896 -0.33384234 -0.026915293 0.05616673 0.11129227 -0.016252933 0.05777608 -0.08856207 0.28914186 0.21234082 -0.072980754 0.088323675 -0.17630875 -0.19744071 -0.061858956 0.05459054 0.1306836 -0.0345272 -0.031197263
51 0.038673803 0.2036002 -0.035536565 0.2139825 0.23479877 0.026726315 -0.03423802 -0.17883857 -0.2265766 0.0897522 0.045359958 0.16801256 0.0088055795 0.12983237 0.027998174 -0.2283263 -0.05243779 -0.06635108 -0.037471216 0.18134092 0.027222367 0.047557842 -0.19770552 -0.1373573 0.01165936 0.11787905 -0.17838244 -0.08382324 0.3613395 -0.10370226 -0.124310985 0.045167428 -0.011409416 0.13548313 -0.03712961 -0.14374976 -0.07809043 -0.17545041 0.09907071 0.040418215 -0.13245401 0.05727891 -0.06507629 -0.340906 0.15194865 0.039948184 0.02594336 -0.115396924 -0.2285669 -0.13256921 -0.060862698 -0.14420865 0.04216078 -0.18571399 -0.060904272 -0.09618023 -0.08703046 -0.16908762 0.10668983 -0.30418423 -0.19172475 0.115349434 -0.073747076 0.087134734 0.22891618 0.056014847 -0.11704386 0.1565774 0.14216913 -0.064723104 0.02864636 0.043891434 -0.16918457 -0.13860285 -0.20723583 -0.018268673 0.11113614 -0.019859325 -0.09542045 0.16276301 0.10500815 -0.0031450044 -0.3663157 -0.04885372 0.061552886 0.09629471 -0.02029283 0.056978572 -0.079141095 0.30866206 0.22832048 -0.06878313 0.09256611 -0.18021227 -0.1680386 -0.07328522 0.061084695 0.12015006 -0.022498162 -0.041905414
9 0.09812679 0.19674185 -0.0071660895 0.23356487 0.21141662 -0.0165474 -0.0052092504 -0.20201106 -0.18118341 0.087344185 0.01986745 0.097884536 0.015062212 0.15331541 0.07391703 -0.21674012 -0.0013636932 -0.13681948 -0.03169995 0.24417643 -0.076028064 -0.016140506 -0.19619559 -0.0775602 0.0047013983 0.10467889 -0.11124365 -0.04455842 0.2621123 -0.04933289 -0.1199103 0.07002606 -0.010056533 0.07737935 -0.050174307 -0.16665234 0.03297079 -0.29050854 0.1777004 0.06830826 -0.25335824 0.016643893 -0.032501575 -0.34902433 0.050908733 -0.026469667 -0.037871335 -0.10102465 -0.19634947 -0.14611912 -0.033035997 -0.16567606 0.09271248 -0.20297499 -0.0043951385 -0.07282871 -0.028091151 -0.086702354 0.142236 -0.27817494 -0.21880366 0.17004909 -0.110035 0.09077526 0.19096516 0.07353975 -0.18114528 0.13500649 0.21776208 0.029689968 0.012720858 0.08103116 -0.109352894 -0.14001055 -0.14697243 -0.0021007985 0.103030525 0.120580845 -0.119554 0.23650162 0.05023007 0.054106638 -0.3664573 0.00195606 0.08394681 0.11999141 0.0069224285 0.03439385 -0.055883534 0.27031362 0.23962507 -0.045116443 0.019449176 -0.21609008 -0.15679598 -0.11156626 0.09879559 0.0878399 -0.008404697 -0.03230944
55 0.020599656 0.21796528 -0.028230617 0.237647 0.22079064 -0.0022242977 0.0020582422 -0.16157359 -0.24050573 0.07232451 0.06569129 0.13587476 -0.008094885 0.09353731 0.028173545 -0.25015694 -0.043337937 -0.0626808 -0.002092758 0.1794643 0.06383504 0.009965345 -0.17009416 -0.13727193 0.03139116 0.0843628 -0.19438246 -0.05328337 0.33442023 -0.079658456 -0.11557754 0.07362391 0.0049699363 0.13394521 -0.023305971 -0.14789425 -0.06696957 -0.14978488 0.13240822 0.0011733929 -0.14375164 0.08800259 -0.06509131 -0.31720638 0.14857717 0.06257819 0.031383157 -0.10667529 -0.22894557 -0.1303645 -0.05736575 -0.14397919 0.045774676 -0.17995025 -0.040792543 -0.10995482 -0.09053357 -0.16250221 0.14122243 -0.325928 -0.18312064 0.10265521 -0.06921198 0.0686925 0.24680124 0.064512 -0.13777237 0.15746155 0.12744157 -0.089066625 -0.0015426587 0.08135213 -0.12874658 -0.09578444 -0.20419247 0.036469318 0.13160169 -0.0137503175 -0.11704345 0.14270933 0.06805069 0.0056398395 -0.33294433 -0.0072944886 0.0628282 0.12919965 0.0067155533 0.058520377 -0.107411824 0.2903713 0.23599607 -0.067710206 0.09958897 -0.20141466 -0.19600199 -0.07508206 0.03462971 0.13776675 -0.046102982 -0.04919174
43 0.028451266 0.18977104 -0.017387949 0.22481923 0.22040522 0.007056652 0.010184817 -0.17876127 -0.24604368 0.056906518 0.053037766 0.14386149 -0.008227795 0.1143474 0.042001262 -0.25411063 -0.020771695 -0.07471935 -0.0075387275 0.20849971 0.01272598 -0.001912964 -0.17657053 -0.113632515 -0.0040060617 0.09017381 -0.14925706 -0.07055867 0.3333605 -0.068718486 -0.1296256 0.05619338 -0.00089269213 0.13221805 -0.020535685 -0.19057521 -0.05729341 -0.20056078 0.136167 0.03671188 -0.1703214 0.07356223 -0.07028002 -0.3275917 0.14550896 0.05871079 0.03173934 -0.11261154 -0.2198159 -0.13449326 -0.03516169 -0.14666142 0.060589172 -0.16525155 -0.03508197 -0.084597506 -0.08577897 -0.15091133 0.15348805 -0.28967875 -0.19287278 0.12530433 -0.07754871 0.08186106 0.24931048 0.079817295 -0.1750877 0.17390157 0.13856903 -0.027769072 -0.014158707 0.07560423 -0.13989255 -0.12165658 -0.19550014 0.008294074 0.12035331 0.029286223 -0.105956905 0.15889706 0.075651534 0.010683973 -0.33877143 -0.0038870363 0.07533654 0.12070503 0.009979345 0.034524307 -0.09590542 0.3023094 0.2360602 -0.05737253 0.08751712 -0.20774627 -0.18424508 -0.08542791 0.03985452 0.13423158 -0.02589697 -0.03375307
3 0.069214776 0.17095888 -0.016830152 0.24137275 0.20271043 0.014709721 -0.019618077 -0.2296883 -0.18858388 0.10016778 0.015659297 0.12025974 0.029467937 0.1569143 0.087247044 -0.24467976 0.04268381 -0.13457185 -0.025503455 0.28002587 -0.09877981 -0.030176273 -0.1806582 -0.09433693 -0.024029909 0.101082765 -0.08358862 -0.04393108 0.29618356 -0.06867819 -0.12816621 0.045269 -0.022040844 0.08199947 -0.051492624 -0.17047635 0.023377126 -0.33144176 0.19168252 0.074178055 -0.27686447 0.016866218 -0.049689725 -0.35898376 0.03871616 0.009048855 -0.05832356 -0.12198222 -0.1685152 -0.13462433 -0.0024259465 -0.1674264 0.09925056 -0.20931257 0.01050758 -0.057450503 -0.034803994 -0.076294184 0.12447326 -0.2605251 -0.2092555 0.15976433 -0.110712945 0.08058837 0.18617226 0.07433199 -0.20408165 0.12618175 0.2188573 0.045588188 -0.0059691677 0.09234679 -0.093071826 -0.1708992 -0.16491157 -0.02951224 0.079600096 0.14094518 -0.12202826 0.24909599 0.02085913 0.051241547 -0.37125358 0.0067998306 0.08506631 0.08803716 0.020601837 0.046384167 -0.045644443 0.27073753 0.2747162 -0.058103304 0.017505856 -0.26467398 -0.13914028 -0.12352061 0.11025845 0.06460693 0.012717604 -0.03679464
83 0.023265809 0.20975196 -0.04594702 0.21075425 0.2153315 0.00920948 -0.005419868 -0.18054968 -0.2115105 0.08136571 0.05437753 0.12855414 0.021208646 0.101336695 0.049640242 -0.2356869 -0.039188653 -0.0600082 -0.0038283882 0.16868043 0.029806383 0.021671494 -0.17510507 -0.115043655 0.015572694 0.103415005 -0.18161353 -0.060523856 0.35123834 -0.09091395 -0.12246224 0.07668735 0.0079865465 0.11469796 -0.006397467 -0.1437798 -0.07575468 -0.17824213 0.12575702 0.02002266 -0.16498992 0.086387254 -0.04227482 -0.3276152 0.13828526 0.06260681 0.022197152 -0.1204209 -0.21005327 -0.14210826 -0.07073992 -0.1404107 0.0541774 -0.17712086 -0.04315096 -0.11384938 -0.07907232 -0.17061315 0.12137021 -0.31481192 -0.18591489 0.12156292 -0.07088364 0.06741999 0.23775156 0.06255351 -0.14223647 0.14958802 0.15189505 -0.07606819 0.019686053 0.06186767 -0.12699799 -0.121836856 -0.20074655 0.024337944 0.116708964 -0.0050599207 -0.096346244 0.15404071 0.060193967 -0.0019309795 -0.3385915 -0.010949941 0.056443416 0.09579449 0.0045521506 0.042409174 -0.1044062 0.29393736 0.23071101 -0.06277608 0.06995479 -0.19596788 -0.18876167 -0.0834382 0.05289826 0.124781586 -0.01546844 -0.038569827
78 0.013421265 0.21808176 -0.05897706 0.25510445 0.21292686 0.006565321 -0.002331077 -0.14399977 -0.23403504 0.10374025 0.058850996 0.15072764 0.011426867 0.10892024 0.03697592 -0.23785727 -0.095197715 -0.0700553 -0.0009073629 0.1497555 0.112251386 0.03313664 -0.16541599 -0.13450626 0.027930949 0.08993041 -0.24086346 -0.058227032 0.35137135 -0.12398876 -0.10376137 0.0641359 -0.0026982375 0.13605152 -0.0106635075 -0.12989478 -0.10047997 -0.12715946 0.10351899 0.027193692 -0.09141918 0.07870454 -0.060448192 -0.3233202 0.1553703 0.061532814 0.01843315 -0.11318982 -0.24090724 -0.11621351 -0.08091903 -0.118229106 0.043804977 -0.17619088 -0.0639832 -0.10758443 -0.10008995 -0.19568245 0.11430623 -0.3058564 -0.1818781 0.15810151 -0.06771778 0.085197374 0.25545043 0.032235973 -0.10260374 0.176941 0.14699589 -0.13468221 0.043911096 0.05089481 -0.18106927 -0.086285785 -0.20794256 0.041194554 0.1368567 -0.062854275 -0.09461117 0.15926632 0.10100904 -0.025049778 -0.33456874 -0.0225375 0.049535345 0.094642 0.0032297256 0.05101397 -0.10630319 0.29986763 0.21478902 -0.11868081 0.10209776 -0.15883005 -0.2097847 -0.045303684 0.055900563 0.14294282 -0.044916518 -0.017476445
71 0.015916536 0.22525191 -0.04192864 0.22502552 0.2176479 0.011153399 0.0042956914 -0.15016423 -0.2427788 0.08248116 0.048895262 0.14771116 0.00028705425 0.09398805 0.039019145 -0.22620371 -0.06616771 -0.060928214 -0.013587771 0.16087982 0.06828371 0.026039986 -0.17875202 -0.13546297 0.005223074 0.10002887 -0.20623411 -0.06914892 0.3515021 -0.08634459 -0.097932786 0.061842967 0.004896172 0.13846725 -0.021145048 -0.15301593 -0.09329767 -0.16309938 0.10846918 0.018404635 -0.13087365 0.070635326 -0.04148626 -0.30880627 0.16301365 0.059402194 0.031596877 -0.12505552 -0.23083048 -0.14149065 -0.055984594 -0.13302918 0.03500332 -0.17505252 -0.05215974 -0.10996326 -0.0911128 -0.19086246 0.12613817 -0.31454396 -0.17803352 0.1209287 -0.07342852 0.08401902 0.2595405 0.042829823 -0.13242456 0.18555033 0.14824022 -0.08544828 0.04024204 0.06534645 -0.16968535 -0.11252976 -0.21774812 0.034636132 0.12527889 -0.03141797 -0.091669925 0.15800369 0.0958549 -0.0072116745 -0.3388055 -0.026507886 0.0656578 0.10557812 0.013501479 0.030706894 -0.11334838 0.30576885 0.22860922 -0.09891379 0.09303069 -0.18518919 -0.2030083 -0.06756776 0.055803046 0.14053789 -0.039524477 -0.024751466
88 0.02231453 0.2188646 -0.048025176 0.24267927 0.20967638 0.011889791 0.0050147683 -0.13734685 -0.2264763 0.0915472 0.05058018 0.14395401 0.015686836 0.1119453 0.048920475 -0.236214 -0.08172346 -0.072343 0.005760809 0.14884244 0.07884753 0.03543968 -0.17359638 -0.10714486 0.018328162 0.09220248 -0.22126971 -0.056971848 0.3305348 -0.106307276 -0.093877256 0.0774458 0.010875971 0.13729675 -0.017812278 -0.15017137 -0.08281539 -0.14607528 0.10586486 0.049828675 -0.12247397 0.06669192 -0.05696022 -0.31183302 0.1517825 0.042019147 0.01869848 -0.11882098 -0.23899731 -0.12499411 -0.07118887 -0.11945798 0.044038303 -0.17048606 -0.03511065 -0.09678472 -0.10679571 -0.1778972 0.12663676 -0.30130497 -0.17963089 0.15107657 -0.079033345 0.101103894 0.24700955 0.040337384 -0.1214085 0.17984612 0.1541209 -0.11524589 0.026257206 0.046913244 -0.1677702 -0.10076359 -0.21004073 0.037294954 0.14069408 -0.01883943 -0.1058614 0.17239209 0.08915744 -0.009253214 -0.32711726 -0.014457342 0.050254866 0.10549844 -0.0048490786 0.034565005 -0.10491965 0.3001806 0.20641287 -0.08721198 0.10456481 -0.17998555 -0.19757788 -0.057790533 0.064180054 0.12660594 -0.047782995 -0.019507524
73 0.018109448 0.22711295 -0.04116419 0.24966452 0.21925779 0.004505157 -0.005594538 -0.13805488 -0.23698857 0.06903115 0.04596076 0.14176363 0.002895875 0.112780035 0.03726829 -0.23235093 -0.07635626 -0.055864662 -0.0068764677 0.13996337 0.08052475 0.039106917 -0.17575672 -0.12745225 0.009977393 0.09499022 -0.21485883 -0.06635983 0.3367876 -0.103330836 -0.11119753 0.07697037 -0.012031496 0.14571637 -0.019809777 -0.14336659 -0.0950288 -0.15202832 0.11005462 0.026774973 -0.10558018 0.06716934 -0.046379868 -0.3182901 0.17186151 0.049011026 0.037966024 -0.1260773 -0.23480636 -0.13379352 -0.08207819 -0.12077319 0.03198337 -0.1679066 -0.0517038 -0.106650986 -0.097042195 -0.1881291 0.1207789 -0.31022808 -0.19153506 0.14321657 -0.073989175 0.08874098 0.25529736 0.042745546 -0.10820496 0.17655692 0.14321285 -0.10752921 0.02964001 0.0548189 -0.1784025 -0.09534222 -0.21154492 0.04050047 0.14011775 -0.04535175 -0.10654444 0.15167515 0.095462464 -0.020969655 -0.34332228 -0.021525398 0.051851965 0.10500783 -0.004885745 0.044272978 -0.113494284 0.30113393 0.21403912 -0.098522894 0.09773108 -0.17732303 -0.19806574 -0.049400836 0.06130437 0.15071069 -0.044467572 -0.020847626
30 0.10122264 0.2022736 -0.026755929 0.22669216 0.21903363 -0.005416188 -0.020951297 -0.20753999 -0.19718361 0.08959422 0.021999974 0.10663192 0.03828459 0.11861 0.08375923 -0.20046155 -0.0054469192 -0.1136336 -0.04776522 0.21959227 -0.08331452 -0.01530836 -0.18638006 -0.07167305 0.024113849 0.08554491 -0.13426836 -0.018523622 0.2803441 -0.059520725 -0.124542505 0.06070646 -0.026539538 0.06421338 -0.05658862 -0.1519656 0.020723019 -0.30593634 0.18811248 0.032720413 -0.2606844 0.024681706 -0.019062402 -0.34766698 0.0274219 -0.008946699 -0.067006014 -0.13076761 -0.18577266 -0.15423794 -0.04920058 -0.13386038 0.08289846 -0.24445553 0.00792552 -0.096331455 -0.0007591608 -0.09518178 0.12694302 -0.2783999 -0.22378987 0.14909218 -0.11679156 0.075635694 0.19001521 0.048264205 -0.19685167 0.13741346 0.2527772 0.013943849 0.027215436 0.07863488 -0.10903776 -0.12597238 -0.15307213 -0.016531823 0.08169805 0.11645966 -0.12502426 0.2152921 0.013127451 0.079792306 -0.3774576 -0.018946877 0.08400134 0.103999995 0.015231409 0.0382872 -0.034009904 0.2552096 0.2689007 -0.021655887 -0.0037372422 -0.2208551 -0.11655273 -0.11846287 0.10865241 0.09065747 0.008241671 -0.0414097
100 0.047885235 0.22664195 -0.04605501 0.24604183 0.22583218 -0.0024053059 -0.01190105 -0.15944177 -0.20202222 0.0873041 0.04481258 0.12230891 0.012667196 0.12341802 0.046366334 -0.21814136 -0.077133894 -0.08230938 0.002218011 0.15077536 0.07197105 0.029488785 -0.19060013 -0.11804407 0.016249398 0.09572671 -0.21500316 -0.062861905 0.3282509 -0.09562822 -0.11436768 0.071686685 -0.0024061685 0.12874791 -0.01599188 -0.14705576 -0.07110647 -0.16651675 0.11665449 0.04754922 -0.12391364 0.06402107 -0.035082415 -0.32319644 0.14366579 0.040912304 0.008618721 -0.11066806 -0.22751482 -0.14938541 -0.07085281 -0.12236386 0.05084766 -0.18792662 -0.045596916 -0.113504045 -0.10348524 -0.16477723 0.118263416 -0.302515 -0.18622492 0.15861496 -0.10439439 0.09552966 0.2319686 0.029780902 -0.09569354 0.16287367 0.15727898 -0.100142896 0.028026082 0.04399461 -0.16163628 -0.0965798 -0.19481291 0.02805732 0.118014246 -0.019792316 -0.101693705 0.17795342 0.09177276 0.00046206373 -0.35340643 -0.025846297 0.04900842 0.08904893 0.013116791 0.050598707 -0.0994094 0.29305163 0.22474113 -0.09346301 0.093417354 -0.16857024 -0.19995229 -0.065267354 0.07362964 0.12344103 -0.039744206 -0.023421446
59 0.08073044 0.18906309 -0.02052721 0.24458076 0.20907003 0.003823733 -0.025591861 -0.20405889 -0.17134307 0.10411729 -0.0012795618 0.09305814 0.034665707 0.164621 0.06710174 -0.21371187 -0.0016274082 -0.14262384 -0.011980528 0.25107086 -0.07858201 -0.013340697 -0.18032181 -0.0741819 -0.0089368345 0.09977778 -0.09834336 -0.028345412 0.29068053 -0.05148069 -0.11575089 0.053096548 -0.015340506 0.06646707 -0.04817216 -0.15220772 0.01856442 -0.32630694 0.19342887 0.06332753 -0.2726597 0.017051889 -0.01580815 -0.36066782 0.04916977 -0.012686731 -0.078755274 -0.11801815 -0.17988165 -0.14280625 -0.024329904 -0.16341859 0.09950674 -0.22688127 0.005855882 -0.06977118 -0.02446485 -0.07125758 0.12933286 -0.26467314 -0.20156752 0.17888354 -0.105716884 0.08613248 0.17039426 0.074995436 -0.18821058 0.13683198 0.22535042 0.026418613 0.030994046 0.08514132 -0.10731315 -0.14209603 -0.15616612 -0.014688797 0.09790428 0.14072643 -0.13152635 0.24733436 0.04159578 0.070022516 -0.3634598 0.002410134 0.082278885 0.08280021 0.021353224 0.054875307 -0.04231974 0.27140582 0.25347188 -0.06581908 0.008765739 -0.24121217 -0.13984272 -0.11279934 0.11477759 0.066861875 0.006608945 -0.03689468
44 0.0075742556 0.18685725 -0.042714544 0.2311557 0.22202739 0.014510829 0.015203721 -0.15653446 -0.24683087 0.062840484 0.07167702 0.15934113 -0.0042964877 0.090722546 0.04609669 -0.24807443 -0.06506142 -0.052929472 -0.0014043994 0.1503336 0.065945484 0.022727855 -0.18675166 -0.1137337 0.025228713 0.1020347 -0.19881944 -0.077490956 0.35057035 -0.10278405 -0.119685076 0.06340971 -0.0049966797 0.12526911 -0.025553703 -0.1668465 -0.08350316 -0.121604964 0.10397083 0.01859618 -0.11538894 0.07149407 -0.0625658 -0.32791844 0.1680399 0.07961641 0.044327002 -0.09838811 -0.23613428 -0.118315876 -0.052419983 -0.13726889 0.05432887 -0.16758673 -0.043603458 -0.10509575 -0.111334175 -0.17057173 0.140975 -0.31723356 -0.18605427 0.09212403 -0.07485956 0.076455995 0.2608751 0.055914875 -0.1331967 0.17552471 0.116246834 -0.100918055 0.0148703875 0.06351351 -0.15071097 -0.10789047 -0.22492374 0.02059821 0.12664245 -0.03689846 -0.108318694 0.13040671 0.098352246 -0.025464049 -0.32565266 -0.008706302 0.050967015 0.11932141 -0.0053205057 0.04718107 -0.10539523 0.29965308 0.20609452 -0.072184555 0.1099149 -0.16478932 -0.20357743 -0.06316927 0.025793178 0.15264985 -0.040834885 -0.038741846
81 0.08777448 0.19287363 -0.04024148 0.22326006 0.21645117 0.010103444 -0.043399874 -0.1949399 -0.20454973 0.1096552 0.02399602 0.13994469 0.047332395 0.130154 0.07074883 -0.227526 0.015089567 -0.108923085 -0.04343726 0.2249306 -0.07039904 0.0024888497 -0.18526992 -0.10593307 0.020060204 0.12067196 -0.12797685 -0.035287354 0.31193998 -0.06659114 -0.11046 0.040993117 -0.023770183 0.07535078 -0.053972892 -0.14801764 -0.012138373 -0.27556896 0.17470911 0.030665651 -0.23823509 0.037262853 -0.026481945 -0.3414286 0.048552502 -0.001049121 -0.05086497 -0.117449954 -0.17516513 -0.13897315 -0.027802924 -0.16692829 0.08252502 -0.23075198 0.006692579 -0.087971576 -0.024663623 -0.112199366 0.10192044 -0.28986445 -0.20112377 0.11229783 -0.09106837 0.082062915 0.18402655 0.059322312 -0.18268707 0.13284718 0.22135818 -0.00856408 0.038499296 0.07528 -0.1286112 -0.15280598 -0.17071275 -0.044054866 0.09373088 0.08434922 -0.11402637 0.20114166 0.03125787 0.044768695 -0.3801226 -0.03220841 0.08104043 0.08567951 0.011513662 0.03352387 -0.046158805 0.2494309 0.28155816 -0.047532693 0.022485053 -0.21664211 -0.13209552 -0.12690026 0.115864 0.08262784 0.021026481 -0.055450838
32 0.06173922 0.20346221 -0.027691836 0.2392984 0.21786043 0.017690688 0.0042962655 -0.17629796 -0.17512654 0.07861855 0.010507338 0.110141605 0.025876716 0.14128935 0.056284335 -0.21091211 -0.042457037 -0.11891371 -0.004395467 0.17673044 0.011415712 0.028105345 -0.20845655 -0.09785767 -0.002592806 0.121860266 -0.15851264 -0.07972096 0.3114698 -0.10075636 -0.11640194 0.028455513 -0.035378512 0.11262218 -0.055857193 -0.13715608 -0.04590006 -0.19515355 0.13221335 0.047487434 -0.16892794 0.029759096 -0.042688604 -0.3481892 0.11557934 -0.0015639035 0.0024956483 -0.08704238 -0.22528869 -0.13804221 -0.050516803 -0.13446134 0.0689776 -0.17832711 -0.03041719 -0.09386683 -0.091393344 -0.14303443 0.10439689 -0.3009266 -0.21456376 0.14099535 -0.095906354 0.09147957 0.19217056 0.032961033 -0.09428138 0.16056162 0.17506911 -0.06989552 0.032353748 0.04465686 -0.16161525 -0.12619595 -0.18017478 -0.01966119 0.10360559 0.027783 -0.09746314 0.1946402 0.09936188 -0.01923151 -0.3732967 -0.030657893 0.076539345 0.09587422 -0.006103485 0.051011898 -0.05813892 0.2992357 0.24169186 -0.080008306 0.080416575 -0.19033042 -0.19126508 -0.0774865 0.082684405 0.11556324 -0.01264241 -0.057480156
12 0.09590787 0.19880109 -0.018102665 0.23938558 0.21364945 -0.0022147517 -0.033439405 -0.19767335 -0.18265691 0.08262433 0.00082497025 0.083348125 0.038623516 0.14436093 0.061038196 -0.21132267 -0.00024226318 -0.13352484 -0.019102072 0.2451034 -0.07480064 -0.01272282 -0.18150546 -0.0734077 0.0021913522 0.085500464 -0.10849736 -0.030893015 0.2878254 -0.058382403 -0.13328354 0.05922503 -0.042430118 0.07675727 -0.05109197 -0.15161927 0.025393002 -0.3149317 0.18701485 0.04405998 -0.25904784 0.013867618 -0.007514723 -0.35755223 0.062863156 -0.01522406 -0.058106337 -0.11594153 -0.19691454 -0.1665401 -0.037632294 -0.1459302 0.07683825 -0.22494744 0.004883465 -0.08715592 -0.018352263 -0.100091726 0.14538246 -0.28402033 -0.2323701 0.16508459 -0.11650886 0.06652393 0.19914046 0.07434864 -0.19661634 0.13378657 0.22829005 0.017671209 0.010181452 0.075403936 -0.123165905 -0.122665085 -0.14188932 -0.033097845 0.07624961 0.099598005 -0.13131903 0.24081114 0.01894099 0.07562096 -0.3920668 -0.004428548 0.08232182 0.096861236 0.040426444 0.049428478 -0.049769152 0.27280137 0.26838654 -0.043030217 -0.00033547072 -0.22764406 -0.13420185 -0.105586536 0.10439805 0.087449126 -0.006284981 -0.036639016
29 0.08050562 0.20908755 -0.048518524 0.24776681 0.22790606 0.0114672445 -0.012242192 -0.16345778 -0.20367132 0.10258557 0.023683576 0.14881158 0.048599478 0.13915877 0.06704853 -0.22828044 -0.07240769 -0.112817705 -0.01430415 0.17386831 0.020265723 0.030225484 -0.19941972 -0.10526323 0.0003970793 0.09932822 -0.19051877 -0.06394964 0.30876848 -0.10943964 -0.095530726 0.050654646 -0.040913425 0.08631063 -0.05011405 -0.14733219 -0.05842768 -0.21158585 0.14015903 0.07030207 -0.15939844 0.053396314 -0.03950574 -0.3522525 0.10601057 0.005582114 -0.0068735396 -0.11330696 -0.22029948 -0.16227655 -0.061346386 -0.13310434 0.086000234 -0.20686983 -0.02904093 -0.09791353 -0.08869068 -0.17007309 0.078384444 -0.2696169 -0.21658568 0.16463572 -0.10512564 0.09637195 0.19234568 0.03641024 -0.11220592 0.15251061 0.1988062 -0.0838043 0.04518157 0.04274071 -0.16568899 -0.106250174 -0.17815192 0.0064513544 0.11278746 0.014681783 -0.120480016 0.22096163 0.11528509 0.0068635438 -0.37667257 -0.022602452 0.07810589 0.08665608 -0.0102701485 0.029421886 -0.071568385 0.29111695 0.23600884 -0.10394475 0.067130424 -0.18582672 -0.17456017 -0.077185154 0.113185614 0.13407423 -0.019219732 -0.02894306
62 0.046615116 0.2131656 -0.03724216 0.251285 0.21657307 -0.004218095 0.0041959235 -0.1645883 -0.19513102 0.083243266 0.036743294 0.11589561 0.015102019 0.12789106 0.060647808 -0.22168319 -0.07534317 -0.094181135 -0.007100148 0.16823833 0.04357919 0.039170824 -0.21244898 -0.10569086 0.01495805 0.10780483 -0.19567317 -0.056170467 0.31126156 -0.09733581 -0.10802937 0.055676952 -0.012860364 0.10534737 -0.036599573 -0.14076132 -0.050564267 -0.16283883 0.13791692 0.033891026 -0.14320044 0.0509553 -0.038643472 -0.35350773 0.11639918 0.018282928 -0.0014208663 -0.0976576 -0.23232011 -0.14682783 -0.06458903 -0.12513746 0.05927124 -0.19277784 -0.029244868 -0.10517599 -0.11063407 -0.16350023 0.10679289 -0.29953915 -0.19443026 0.14688504 -0.09718118 0.095172256 0.21888877 0.022214063 -0.105038665 0.15380774 0.16496837 -0.0920208 0.03185478 0.055670053 -0.15481059 -0.09309418 -0.19073762 0.03030409 0.13051353 -0.008144644 -0.121032946 0.17794892 0.09945136 -0.0015540795 -0.35550436 -0.017217375 0.06343658 0.10838538 -0.012017623 0.048407894 -0.08591174 0.3020344 0.21866563 -0.07611288 0.07963578 -0.17750213 -0.20066714 -0.07527469 0.06378026 0.13134614 -0.028860822 -0.04241069
28 0.05250111 0.21390808 -0.026290044 0.23479983 0.23019823 0.0023586373 -0.023096206 -0.14222631 -0.2140992 0.076861806 0.028213622 0.1352291 0.028929641 0.11930952 0.06000398 -0.24051061 -0.0688955 -0.085596636 0.0089367 0.14895535 0.059776314 0.036007427 -0.19290921 -0.107264 -0.0031712423 0.092712335 -0.19113006 -0.04698229 0.30833718 -0.09976589 -0.10492855 0.06836486 -0.01731117 0.11936879 -0.014140949 -0.15454018 -0.055430774 -0.17445639 0.11526899 0.04946794 -0.13190874 0.0576204 -0.028616702 -0.33199167 0.13551171 0.029732283 0.022256326 -0.1067353 -0.23539944 -0.16067974 -0.07388353 -0.1281351 0.0678503 -0.18295075 -0.022495547 -0.111720584 -0.1135862 -0.18046987 0.114976786 -0.27982646 -0.21091948 0.13884647 -0.097301185 0.08963875 0.22358866 0.0427343 -0.1189863 0.14650397 0.14749974 -0.09099261 0.017758707 0.049818456 -0.15180436 -0.10510186 -0.17482224 0.028740698 0.1392956 -0.008832163 -0.107865684 0.18221301 0.091543436 -0.00076949166 -0.33827624 -0.014287447 0.061785836 0.11349798 -0.0133042205 0.042013448 -0.096903324 0.28466594 0.22075292 -0.07515654 0.08870152 -0.19581437 -0.2004734 -0.05941141 0.06091945 0.13319361 -0.05002645 -0.00886583
74 0.057580292 0.20101154 -0.030031376 0.22202784 0.21577819 -0.0004756315 -0.010221792 -0.18740138 -0.19948326 0.07445174 0.027689086 0.109527536 0.019494945 0.10706578 0.052647438 -0.22448894 -0.034897067 -0.0845447 -0.03052917 0.18416323 -0.00075911434 0.014689808 -0.18354475 -0.09445756 0.033055644 0.100255646 -0.15401968 -0.05680315 0.30277812 -0.08522102 -0.12154168 0.056078393 -0.0047744117 0.10044702 -0.040567234 -0.14958899 -0.04592177 -0.19672236 0.1421991 0.022340547 -0.1808022 0.060572736 -0.04902508 -0.33696234 0.104609236 0.027573058 -0.0011965048 -0.10450081 -0.20953052 -0.13615358 -0.064835586 -0.1349651 0.0695837 -0.18724151 -0.01847761 -0.10898203 -0.069726154 -0.14017685 0.13910025 -0.306597 -0.21090464 0.12384969 -0.0887811 0.07812184 0.20705636 0.056897663 -0.13871968 0.15041944 0.17604934 -0.04743693 0.016728655 0.06794412 -0.13276498 -0.10934081 -0.1709431 -0.0019851464 0.107461564 0.025240446 -0.09645636 0.17032945 0.0613048 0.012838002 -0.36219198 -0.020052394 0.059649434 0.11205288 0.0072921207 0.04551814 -0.079887815 0.28756553 0.23493809 -0.041931532 0.06191631 -0.19135572 -0.17227884 -0.08768086 0.061887637 0.12762798 -0.0111299055 -0.048477605
79 0.075130075 0.20558068 -0.050795835 0.22873916 0.22715862 0.0125748245 -0.019310275 -0.18911813 -0.22172792 0.10141161 0.031893484 0.14072672 0.035701077 0.114162035 0.038641345 -0.21954352 -0.045743678 -0.09548048 -0.027855434 0.19803251 -0.0030507853 0.015127507 -0.17798707 -0.10669036 0.03658791 0.110936046 -0.18600649 -0.035881788 0.32740167 -0.09281192 -0.11726246 0.06561518 -0.022208875 0.08786348 -0.04701873 -0.14818753 -0.046460398 -0.2329663 0.13579163 0.025985686 -0.18183315 0.06341092 -0.039593197 -0.34188604 0.104776286 0.018192826 -0.03275363 -0.121691555 -0.20634955 -0.15371495 -0.052338567 -0.13671084 0.08024931 -0.2104232 -0.029988423 -0.10630796 -0.050474305 -0.13914691 0.12178673 -0.2881641 -0.20417084 0.15206103 -0.104651526 0.078926235 0.21449901 0.0532149 -0.14291988 0.1556512 0.2065609 -0.05075666 0.034424398 0.056434367 -0.14974505 -0.12113567 -0.17056508 -0.009267166 0.08236891 0.02393553 -0.11470545 0.19685028 0.06889415 0.037618842 -0.36585492 -0.022311186 0.06146923 0.09842323 0.024347974 0.036977332 -0.06402328 0.27987656 0.25037348 -0.07273836 0.05241874 -0.18264484 -0.14815958 -0.09955779 0.09554757 0.11641755 0.006075633 -0.043056168
49 0.06163046 0.21511231 -0.02247603 0.22239615 0.2250753 -0.0053840894 0.008144539 -0.18795195 -0.18715161 0.0674919 0.036971547 0.124739625 0.018126205 0.121928364 0.042115305 -0.22425951 -0.05367637 -0.105246164 -0.027689775 0.19193038 0.0016961492 0.011102038 -0.2051213 -0.09254458 0.01841823 0.11067432 -0.15914099 -0.06895875 0.31033984 -0.07807683 -0.11522219 0.055605233 -0.010488933 0.110661045 -0.038342096 -0.1466088 -0.02704212 -0.19007908 0.14633709 0.021384919 -0.18053044 0.029096847 -0.05795722 -0.3382682 0.11307451 0.011019239 0.0071750963 -0.09896501 -0.23062278 -0.13756166 -0.05158264 -0.14143413 0.070341095 -0.18037869 -0.024688624 -0.10123352 -0.07799422 -0.13862075 0.13181162 -0.317836 -0.2069572 0.12941857 -0.092053175 0.07704066 0.21636413 0.053432852 -0.11885597 0.15864818 0.1782916 -0.06277858 0.008884407 0.057621356 -0.1402137 -0.11967701 -0.18550149 -0.008725915 0.109482884 0.023362596 -0.10940036 0.17834349 0.08488803 -0.003676966 -0.37413394 -0.016129227 0.06403028 0.12479243 0.003846051 0.054743554 -0.0694145 0.28481013 0.22349101 -0.046361357 0.081505686 -0.19244097 -0.18884751 -0.08311569 0.078850396 0.13003847 -0.03092046 -0.06111915
40 0.08704555 0.19218636 -0.028421586 0.23864695 0.21436575 -0.013774354 -0.023284646 -0.17285638 -0.20378341 0.08565704 0.023542162 0.1146599 0.04119139 0.12055062 0.077248484 -0.2204056 -0.029272303 -0.12180325 -0.024237897 0.20006469 -0.037655182 0.022687057 -0.19569813 -0.09075785 0.020566924 0.10247918 -0.12802537 -0.043081544 0.30169365 -0.07234813 -0.10018597 0.063106515 -0.012987876 0.08129235 -0.054256458 -0.15320244 -0.0013522517 -0.2501335 0.17261374 0.042064153 -0.20682503 0.036792364 -0.019549558 -0.34725517 0.07471485 0.0020584287 -0.03654617 -0.11352248 -0.19065619 -0.1624647 -0.046181872 -0.15700743 0.08838344 -0.22746664 0.0017816519 -0.08723194 -0.043850318 -0.13244408 0.08874667 -0.2780398 -0.20522739 0.1269343 -0.101771235 0.07848967 0.18070304 0.06702184 -0.1522026 0.14956927 0.20470639 -0.029372662 0.0439196 0.061869666 -0.13153358 -0.113734476 -0.18056267 -0.011054204 0.11208571 0.07700488 -0.12333525 0.19859251 0.064230055 0.039673917 -0.36960915 -0.0055476483 0.07866431 0.09001234 -0.003633689 0.018072696 -0.06560129 0.26037106 0.2514841 -0.07215692 0.032634713 -0.21691881 -0.14428917 -0.11852859 0.12157325 0.12290656 1.1347768e-05 -0.016652156
39 0.097538434 0.17680384 -0.030837502 0.26398993 0.2205053 -0.002878514 0.008089368 -0.19755238 -0.15413259 0.09971237 -0.008205596 0.11287873 0.035990465 0.1754633 0.0695444 -0.23096074 -0.010570264 -0.15217821 -0.027716562 0.2262193 -0.025056258 0.034366958 -0.2326138 -0.082748294 -0.023771767 0.12743746 -0.13837717 -0.07811469 0.28660682 -0.093286134 -0.12211867 0.038262345 -0.05253185 0.07027953 -0.065387964 -0.159969 -0.0014884961 -0.26133555 0.16796744 0.08981087 -0.21916306 -0.0096358275 -0.03824929 -0.38344976 0.08694023 -0.023953943 -0.034921896 -0.07635867 -0.20594852 -0.14966325 -0.021124555 -0.17107485 0.088081636 -0.2045959 -0.0075807744 -0.058842573 -0.09305026 -0.09844825 0.08661685 -0.26984677 -0.22710665 0.15997064 -0.10958005 0.114869125 0.17169878 0.047732994 -0.11143649 0.16561624 0.2143836 -0.037185512 0.031558245 0.041823823 -0.14772359 -0.12844832 -0.17792062 -0.013549892 0.11078081 0.08066012 -0.121348865 0.23887192 0.123656005 0.023410771 -0.39646026 -0.023219265 0.09076818 0.10575954 -0.021807441 0.032134164 -0.040316027 0.30844828 0.2339559 -0.077235766 0.050489526 -0.19164719 -0.1756464 -0.08954942 0.11499593 0.091429956 0.0051758788 -0.04570243
70 0.01488773 0.21054775 -0.02848276 0.23122944 0.21092497 0.0007409423 0.006513474 -0.1502734 -0.24036193 0.06843065 0.046582602 0.13377728 -0.004082164 0.101949126 0.029893687 -0.23441038 -0.06529962 -0.0675807 -0.011554192 0.16406636 0.060363796 0.023703286 -0.17180502 -0.11853775 0.020470928 0.09276228 -0.19373035 -0.06567943 0.3388936 -0.08727565 -0.11792818 0.06542364 -0.0011047729 0.13198414 -0.006748953 -0.15937608 -0.08081865 -0.14228997 0.112906106 0.013146555 -0.13724425 0.08220804 -0.060270887 -0.31974852 0.16846147 0.057273097 0.031648364 -0.11272788 -0.23019744 -0.13181166 -0.0615028 -0.12851879 0.037821848 -0.16624407 -0.046527915 -0.103948094 -0.10253555 -0.1726077 0.13937503 -0.31892103 -0.18041496 0.11956017 -0.06384782 0.07096658 0.24978702 0.05631813 -0.14001241 0.17549895 0.13886528 -0.094788745 0.013936189 0.06648552 -0.14711386 -0.09584285 -0.21519463 0.029220033 0.12062927 -0.022097554 -0.10081405 0.13523671 0.08873806 -0.00307513 -0.33221188 -0.017536763 0.051559385 0.12330786 -4.62933e-05 0.038877554 -0.1035725 0.2939641 0.22684309 -0.06657576 0.092639364 -0.17772056 -0.19892979 -0.06315458 0.036404997 0.14685284 -0.040528886 -0.03260623
91 0.05402348 0.20491584 -0.026985267 0.2345869 0.22984953 0.0043553207 -0.0057704165 -0.15629335 -0.21625634 0.06923987 0.032973886 0.13820162 0.010882318 0.1114417 0.059948545 -0.21706246 -0.056715127 -0.081643775 -0.011052495 0.15214323 0.028973142 0.036952645 -0.21012533 -0.10622346 0.0039045552 0.11082082 -0.1874178 -0.06637542 0.31353104 -0.09755308 -0.10319743 0.056358825 -0.023745067 0.11027262 -0.023127416 -0.15369074 -0.055580866 -0.16689329 0.117133975 0.043409705 -0.15089275 0.04516551 -0.02557796 -0.33510724 0.12739162 0.03198007 0.013705472 -0.087395705 -0.2285092 -0.14682946 -0.060290445 -0.1346893 0.07218616 -0.18188886 -0.022888722 -0.12459401 -0.111581564 -0.16412325 0.11032824 -0.30561623 -0.19528985 0.12210912 -0.095773354 0.08630309 0.2274621 0.040069286 -0.10408748 0.15392916 0.147224 -0.0934268 0.035737645 0.044795338 -0.14615406 -0.09789843 -0.18954352 0.016361967 0.13563946 -0.00951126 -0.11521666 0.17603703 0.094007246 -0.005418604 -0.3619862 -0.017386021 0.06553996 0.113871284 -0.0015424909 0.04467967 -0.09128689 0.28644443 0.2289929 -0.059794743 0.08896032 -0.1748845 -0.19962133 -0.07280642 0.06892205 0.13590293 -0.03931242 -0.04104118
18 0.06194376 0.18693976 -0.02424056 0.2358174 0.21405232 0.0045554447 0.0017623183 -0.15549503 -0.22001572 0.054155134 0.032990325 0.100665376 0.0058953357 0.11668488 0.053058308 -0.23124684 -0.0343789 -0.097125314 -0.001996705 0.1792804 -0.012054025 0.0034586377 -0.18373834 -0.07859771 0.0024123788 0.084624164 -0.15354863 -0.054071732 0.27444634 -0.075672984 -0.112569705 0.06822361 -0.0070557226 0.11416477 -0.008751104 -0.18057828 -0.022184225 -0.23178627 0.14775522 0.057746883 -0.19881842 0.045730866 -0.039409146 -0.32914877 0.09745333 0.02647664 0.0058318786 -0.10511614 -0.21526186 -0.14730208 -0.05488758 -0.12902333 0.06686362 -0.17789026 -0.016628869 -0.09070235 -0.06903181 -0.11835388 0.14797105 -0.28250453 -0.21866095 0.15510179 -0.10059095 0.08816207 0.21645278 0.06113986 -0.1698464 0.16580114 0.16409813 -0.018225472 0.005913907 0.077528775 -0.13467066 -0.09788874 -0.16196315 0.018284924 0.13188747 0.055768196 -0.11367222 0.19719198 0.07410437 0.03770899 -0.3485496 0.009030962 0.06719887 0.1184175 0.013435834 0.029992342 -0.08672698 0.2840532 0.23157762 -0.03989487 0.042976372 -0.2178775 -0.17337629 -0.07764334 0.071432784 0.11262278 -0.03139361 -0.025720246
69 0.044100128 0.22102915 -0.049843773 0.21916144 0.24373753 0.004713422 -0.019017253 -0.15850061 -0.20894375 0.087609254 0.05044592 0.14419115 0.028212503 0.11866909 0.03740471 -0.21256879 -0.06091919 -0.07449869 -0.020238917 0.16684815 0.036248196 0.024558298 -0.1788472 -0.12392774 0.0393674 0.10256662 -0.21011774 -0.06616948 0.3458953 -0.09374467 -0.11390121 0.07055016 -0.021145463 0.1141322 -0.039640736 -0.14369023 -0.06453535 -0.16990906 0.12657781 0.022957413 -0.1507456 0.051052522 -0.048331738 -0.34102243 0.12546676 0.042253338 0.00053537043 -0.114916675 -0.22110783 -0.15670744 -0.07222042 -0.12395136 0.065540135 -0.20381589 -0.04532858 -0.11380776 -0.06649034 -0.17092691 0.11796229 -0.3006691 -0.20999952 0.13973434 -0.09178589 0.0869772 0.22313201 0.049455248 -0.12774353 0.14309429 0.17377175 -0.094727576 0.037829798 0.041782886 -0.15195027 -0.10821772 -0.18040487 -0.004400573 0.10805952 -0.00974852 -0.10457201 0.16713347 0.09108278 -0.0022690727 -0.36303985 -0.029444404 0.060184773 0.103904374 0.0070142415 0.034565102 -0.08894997 0.28723076 0.21824029 -0.07102316 0.07025304 -0.16690129 -0.16789643 -0.07835133 0.0692062 0.13327251 -0.01039063 -0.03316604
11 0.060619257 0.23559453 -0.040231336 0.24630073 0.23936887 0.015212406 -0.035970334 -0.17128316 -0.24553059 0.10528634 0.039069768 0.161553 0.017691724 0.11860709 0.04585777 -0.2259215 -0.04545684 -0.08471523 -0.035406858 0.18924993 0.030126328 0.028980082 -0.1701631 -0.11433904 0.035784896 0.104730435 -0.21834259 -0.044380855 0.3324986 -0.0819783 -0.1047839 0.079900526 0.0140449 0.120675094 -0.017665876 -0.14782304 -0.049241915 -0.20081165 0.13098313 0.033875134 -0.15656713 0.06468963 -0.04351663 -0.3201862 0.11154685 0.044016663 -0.026571155 -0.13507117 -0.21757649 -0.13750213 -0.064273946 -0.12846762 0.045367055 -0.20401876 -0.04452734 -0.112814166 -0.052424848 -0.15999727 0.13706958 -0.305932 -0.17761864 0.15777276 -0.09655015 0.103384785 0.23419663 0.052929785 -0.1481006 0.15250698 0.1864288 -0.06295123 0.03213852 0.057391573 -0.15094444 -0.116165094 -0.18677641 -0.008033715 0.11278522 0.012098808 -0.12083944 0.17788042 0.055218484 0.038233347 -0.3573009 -0.047984164 0.05159314 0.107738025 0.0037699258 0.05147564 -0.0783789 0.27665746 0.24187371 -0.069612086 0.050505694 -0.19058494 -0.14277981 -0.08838458 0.0775369 0.1022463 -0.00826441 -0.02987324
67 0.09904758 0.19124086 -0.0075221756 0.21221897 0.21798286 0.013103782 -0.016886864 -0.21863781 -0.19022217 0.06355771 0.0010722211 0.06756137 0.037568577 0.13792342 0.05653635 -0.21060397 -0.010217193 -0.13245791 -0.032975685 0.2440438 -0.071647 -0.025587302 -0.1812264 -0.07150233 0.031750258 0.08721418 -0.11810878 -0.04951915 0.26390326 -0.06069483 -0.14309488 0.0463238 -0.06026011 0.07725154 -0.07126347 -0.15740947 0.017114414 -0.3172319 0.18741585 0.01630231 -0.2631884 0.018893305 -0.015015635 -0.36137357 0.051642288 -0.02176698 -0.04262091 -0.10575085 -0.20076247 -0.15938216 -0.040936213 -0.1383015 0.0902569 -0.22667891 0.01036833 -0.11175927 -0.015372853 -0.09051405 0.16840307 -0.31261978 -0.25112075 0.14171581 -0.12603934 0.06190687 0.18350159 0.070993416 -0.19771963 0.13825913 0.2548037 0.032519113 -0.0022228572 0.0791419 -0.1302047 -0.13645634 -0.14076753 -0.03544631 0.07588134 0.103375345 -0.12306379 0.20639469 0.008835442 0.07437356 -0.40148497 -0.020151095 0.086303085 0.10428623 0.056719482 0.031147107 -0.034145992 0.26303035 0.29224572 -0.010711184 0.008122779 -0.21647142 -0.1280896 -0.11488931 0.09833583 0.097431384 0.008625447 -0.07322433
75 0.026410129 0.22938724 -0.0536839 0.23372018 0.22088103 0.007085378 -0.016002972 -0.14376146 -0.23516446 0.08201142 0.060573876 0.14321312 0.004765563 0.10207904 0.033653583 -0.23064564 -0.07043758 -0.067378104 -0.01862681 0.14162213 0.085762195 0.03348105 -0.17417046 -0.11527096 0.018630052 0.090580285 -0.22862463 -0.049050055 0.32868144 -0.10312209 -0.09783699 0.07038553 -0.0026875772 0.13080935 -0.010924285 -0.13786288 -0.08298639 -0.1643862 0.102379866 0.04329722 -0.112187475 0.061921183 -0.046561547 -0.3114211 0.13626361 0.044901293 0.013017051 -0.12389027 -0.22232261 -0.13431366 -0.07197024 -0.11317508 0.037170384 -0.17566006 -0.05156599 -0.11634698 -0.08616283 -0.18552768 0.12130863 -0.28908697 -0.18048944 0.15258536 -0.08473323 0.09267722 0.24914347 0.03880468 -0.118135035 0.17784525 0.1490956 -0.10299146 0.033018023 0.052430417 -0.18084909 -0.100703955 -0.19387566 0.026782 0.12468808 -0.046262275 -0.09959556 0.16221406 0.086784735 0.008075267 -0.33593935 -0.022491852 0.05131474 0.09911007 0.004008761 0.026764706 -0.10375543 0.28333104 0.20657003 -0.09620477 0.09175157 -0.16738963 -0.18930598 -0.05416174 0.07064719 0.12135863 -0.042491168 -0.0065071187
19 0.056712616 0.19840306 0.012468734 0.2665257 0.21391426 -0.013304061 -0.006665531 -0.193535 -0.22370084 0.030829245 0.019741371 0.07084673 0.0025380158 0.16476387 0.076524064 -0.26982588 0.012121016 -0.10764272 0.02234626 0.25655955 -0.035040513 -0.027068853 -0.16483058 -0.08834852 -0.052272227 0.04029057 -0.07029406 -0.027002905 0.25601345 -0.039894342 -0.15250367 0.07313358 -0.013409361 0.11032103 -0.030049076 -0.20257966 0.016233454 -0.33446988 0.19272135 0.09048723 -0.2708024 0.01945577 -0.044363886 -0.35010988 0.094410986 0.0041761254 -0.024827864 -0.13379332 -0.23626798 -0.15781574 -0.00423394 -0.1494237 0.0963237 -0.21092029 0.017103026 -0.04016613 -0.07921698 -0.084249236 0.16815685 -0.26800874 -0.23382708 0.19508235 -0.124547236 0.086891666 0.22436763 0.095406145 -0.23441377 0.14704722 0.1703226 0.047976527 -0.050270457 0.11207721 -0.09976028 -0.13386697 -0.14391112 0.02533217 0.123551205 0.12599404 -0.11979137 0.23969702 0.05780982 0.085646264 -0.3498849 0.063114464 0.09851059 0.106193 0.042703956 0.04888211 -0.08560089 0.2794791 0.24075295 -0.06906597 0.029970415 -0.2860202 -0.16783227 -0.10330303 0.08047918 0.11331128 -0.032676682 0.008280593
0 0.063390434 0.21395043 -0.045956366 0.23823698 0.23330158 0.0009260856 -0.02517196 -0.19299339 -0.21942346 0.10452581 0.04609692 0.11943756 0.029741246 0.08982912 0.05151174 -0.2522385 -0.018198824 -0.10201474 -0.008582342 0.21321754 0.039216906 -0.01808846 -0.13569859 -0.13672823 0.053632237 0.08611459 -0.18273598 -0.022420546 0.31120202 -0.06825469 -0.13688667 0.077332295 0.0075547765 0.11214191 -0.016259192 -0.1381762 -0.025714984 -0.20986596 0.1516863 0.004393145 -0.18378429 0.099788085 -0.062622994 -0.32334074 0.07890782 0.050495602 -0.029494088 -0.13574332 -0.19164181 -0.15375327 -0.06702435 -0.124036625 0.06861401 -0.21977799 -0.008721192 -0.10780371 -0.028972097 -0.12672295 0.14492545 -0.31932047 -0.17387637 0.12252525 -0.10792647 0.06686154 0.22807737 0.05699767 -0.17791495 0.13724476 0.19038182 -0.056538664 0.008400074 0.09030558 -0.110201634 -0.10063348 -0.17631814 0.024704523 0.09460803 0.04447749 -0.110017225 0.17279409 0.0044366186 0.045437384 -0.3623154 -0.014219023 0.062167533 0.100344956 0.02610529 0.046770304 -0.08689666 0.26530328 0.26818857 -0.044859797 0.05064654 -0.22731492 -0.16337487 -0.09859059 0.0805519 0.101972625 0.005622644 -0.025574753
63 0.020432428 0.20634875 -0.04092487 0.23570831 0.22035196 0.003639699 -0.0027597921 -0.13611487 -0.2529859 0.07143406 0.06519576 0.15290394 -0.0071797334 0.09801182 0.03244895 -0.22155969 -0.05608406 -0.056862872 0.0012788001 0.15763608 0.08115311 0.039381456 -0.18275762 -0.12489762 0.0052408287 0.0901728 -0.2072513 -0.074103214 0.35223174 -0.09276009 -0.11526236 0.055292692 0.011531984 0.13807513 -0.0068121073 -0.16851418 -0.09010366 -0.13869499 0.09934276 0.025826192 -0.104978494 0.083151214 -0.047410466 -0.31805354 0.16481008 0.063709915 0.044946063 -0.107393704 -0.23042972 -0.1329775 -0.0508945 -0.12830679 0.049821943 -0.16789313 -0.039530694 -0.11519757 -0.10663583 -0.18755822 0.1408276 -0.30626032 -0.19129767 0.11903828 -0.06486078 0.07735359 0.2515529 0.061816256 -0.12955153 0.18070745 0.11697024 -0.095691174 0.030180246 0.053818822 -0.16071567 -0.09324418 -0.20802775 0.02658068 0.12647745 -0.04190022 -0.11016259 0.13291721 0.09876149 0.001071466 -0.33366838 -0.014992424 0.06031442 0.10951167 -0.0011933695 0.036773335 -0.11377087 0.30394527 0.21903525 -0.08308971 0.109592356 -0.17248312 -0.20422275 -0.07154556 0.046022207 0.1435656 -0.047334045 -0.030248754
6 0.0704995 0.20117241 -0.04110343 0.23272775 0.22288911 -0.0119914 -0.025633654 -0.17244838 -0.16039589 0.11181834 0.018579945 0.121241376 0.060971756 0.11950955 0.08957779 -0.18835934 -0.04253865 -0.11692464 -0.020619389 0.184759 -0.017208612 0.016499149 -0.21213745 -0.09580795 0.015795296 0.093034014 -0.17015222 -0.030677492 0.31567913 -0.085931495 -0.11250068 0.06794985 -0.022534916 0.058274828 -0.033290196 -0.13677049 -0.021043152 -0.2321213 0.17485514 0.04838122 -0.20871496 0.05445571 -0.012714708 -0.35159117 0.07539282 0.015376762 -0.04887163 -0.123541206 -0.18000442 -0.17149104 -0.07206754 -0.11344484 0.08430399 -0.23097186 -0.023545697 -0.10841043 -0.06208842 -0.1448832 0.08410915 -0.2802063 -0.20447654 0.16633119 -0.11273906 0.076096825 0.16904302 0.020340985 -0.13461615 0.13989155 0.21447213 -0.077021986 0.055477884 0.052314 -0.12067117 -0.100962184 -0.18106969 0.012422177 0.103221335 0.06726996 -0.12935506 0.21460061 0.05502038 0.034014657 -0.36612716 -0.0040965546 0.0740396 0.081318356 0.0017832051 0.037875127 -0.06980045 0.27204418 0.23336989 -0.091415964 0.020274194 -0.21217352 -0.17171426 -0.10093968 0.110923566 0.096980765 0.004785205 -0.038285248
60 0.062376563 0.18236396 -0.027408795 0.24059494 0.20853251 0.008918548 -0.04021446 -0.18443999 -0.19478838 0.11294585 0.027999824 0.13964066 0.04064539 0.14307478 0.07439717 -0.21395259 0.0048396117 -0.11828495 -0.039075125 0.23435491 -0.056491222 -0.0023267274 -0.19545369 -0.107079014 0.0017177399 0.10293447 -0.1308694 -0.035867106 0.32346702 -0.07722577 -0.11696548 0.042931166 -0.008670581 0.0809551 -0.043887977 -0.15705284 -0.0009294644 -0.2757679 0.16795272 0.053530455 -0.23042837 0.029851634 -0.038255785 -0.3470591 0.06145988 0.019725118 -0.05302003 -0.12028154 -0.1763603 -0.141082 -0.03207094 -0.16045885 0.08010129 -0.22480877 -0.02015599 -0.07515958 -0.032804783 -0.11996357 0.106581286 -0.27098534 -0.19011737 0.14813031 -0.0958147 0.082400694 0.18825284 0.05765871 -0.17234431 0.13842972 0.21471542 -0.011812935 0.039316494 0.08070115 -0.12230163 -0.13735422 -0.17060825 -0.025737429 0.09171296 0.085867725 -0.106156155 0.21504739 0.035605453 0.047963563 -0.36696172 -0.02087703 0.08514578 0.07937771 0.0013451071 0.052305598 -0.047191378 0.2683118 0.25676447 -0.06419733 0.026551826 -0.23161352 -0.14034267 -0.10561878 0.100681186 0.07794793 0.010307879 -0.036771804
48 0.07817976 0.21136303 -0.043937553 0.23334691 0.2144712 -0.015699828 -0.021681678 -0.19696288 -0.17958343 0.1014446 0.02960296 0.1061342 0.039778925 0.11609511 0.062860504 -0.20119266 -0.010290794 -0.11119611 -0.027856601 0.21224128 -0.04451061 0.006000282 -0.20432894 -0.083173156 0.01865245 0.10644833 -0.16302739 -0.040544745 0.31377286 -0.07127028 -0.115642026 0.06848734 -0.017467178 0.07348794 -0.037414607 -0.14212647 -0.0031922483 -0.26449177 0.17964903 0.033587832 -0.22003344 0.02631444 -0.016040528 -0.35157046 0.07090173 0.013171122 -0.036878955 -0.11441217 -0.18417193 -0.16273512 -0.053858034 -0.14712705 0.074346304 -0.22163393 -0.012668808 -0.098883234 -0.05070177 -0.122329295 0.11274512 -0.29438537 -0.21074212 0.15344499 -0.1044222 0.082268484 0.20049536 0.04522253 -0.14639047 0.14182968 0.22737566 -0.03422869 0.038628623 0.06643012 -0.12590063 -0.13225538 -0.17679371 0.003083235 0.09918912 0.07017392 -0.1271412 0.20421897 0.047107834 0.039480556 -0.37152418 -0.007422696 0.072230496 0.09913886 0.015143207 0.029251155 -0.053820033 0.2648095 0.24303222 -0.056971785 0.015728507 -0.21986571 -0.14701286 -0.099611856 0.11081055 0.08966167 -0.0049802 -0.0548125
23 0.08644426 0.21803139 -0.024704184 0.24064802 0.22591591 0.0022857632 -0.035834543 -0.18718877 -0.22919962 0.07802799 0.02109756 0.12230044 0.022099989 0.09476584 0.059161607 -0.22429588 0.0015641651 -0.10545791 -0.034965046 0.20841075 -0.021137536 -0.010685833 -0.15907235 -0.09241519 0.02705719 0.08057141 -0.16830628 -0.020108094 0.2849129 -0.049307797 -0.112807 0.08033791 -0.0010318757 0.102260694 -0.037317928 -0.1579647 -0.0058570015 -0.27360475 0.16916117 0.018147437 -0.21198055 0.04841081 -0.023323856 -0.3275829 0.059222437 0.0143780075 -0.033264145 -0.13756366 -0.19271742 -0.16693191 -0.049078092 -0.14536647 0.07222314 -0.22837093 0.005302386 -0.11602018 -0.029386738 -0.11591202 0.139259 -0.3059457 -0.20404974 0.15764147 -0.12262302 0.07323506 0.21929362 0.04725761 -0.17863744 0.15233375 0.23274001 0.0053880704 0.022376128 0.08601825 -0.13483566 -0.13051994 -0.17054366 0.005588781 0.10890624 0.07675796 -0.11371555 0.19265042 0.014616875 0.07552089 -0.36322847 -0.018469052 0.06951364 0.10478491 0.03469296 0.030009005 -0.06279394 0.2561023 0.27885148 -0.026898153 0.03223021 -0.22929032 -0.12083547 -0.1130151 0.10425942 0.09964639 -0.0066211843 -0.021261916
47 0.054116998 0.20529397 -0.051657047 0.21873675 0.2173446 -0.018344436 -0.025121475 -0.1965018 -0.18005599 0.118258104 0.041073017 0.12217574 0.058137774 0.10619235 0.07556867 -0.22014193 -0.0252341 -0.0900777 -0.011129428 0.2049085 -0.029337034 0.016296467 -0.20324665 -0.117300145 0.017376836 0.09355551 -0.15115075 -0.023489065 0.33975294 -0.08273049 -0.113310635 0.07160893 -0.015536638 0.08158426 -0.018293116 -0.13625062 -0.02533242 -0.22312547 0.17796488 0.0359529 -0.21325597 0.06770892 -0.021506215 -0.3368418 0.077643245 0.037131164 -0.042910542 -0.12546995 -0.17790128 -0.1598501 -0.061324805 -0.12830155 0.059977844 -0.23204924 -0.02799505 -0.095585585 -0.04581376 -0.1443634 0.083115734 -0.2868817 -0.1906657 0.12581736 -0.091904484 0.060142286 0.1970946 0.037133567 -0.17101747 0.12219026 0.20529594 -0.063657306 0.035829745 0.071786374 -0.11991541 -0.1296098 -0.18342988 0.012672061 0.1033396 0.054682996 -0.11557891 0.20662296 0.031038318 0.037021305 -0.36223507 -0.016072769 0.078071214 0.08276639 -0.00884884 0.052657023 -0.08242718 0.2754124 0.25585225 -0.07642836 0.01220054 -0.23655759 -0.1707647 -0.09848795 0.10553649 0.10796423 0.0030179154 -0.047649812
58 0.032766778 0.21319611 -0.036517244 0.25320524 0.20242187 0.013667898 -0.0125627825 -0.1576731 -0.20895782 0.10170555 0.046697877 0.14206389 0.018301431 0.14058748 0.04068423 -0.25251234 -0.05733718 -0.08399764 0.0026270167 0.17904395 0.037359092 0.02330821 -0.15993354 -0.12752558 0.016263835 0.0875272 -0.18333293 -0.035082065 0.32160553 -0.09421411 -0.101801686 0.077759884 -0.0029766324 0.10628247 -0.039186016 -0.1367402 -0.0572505 -0.20326148 0.13396801 0.059786838 -0.1530085 0.04912892 -0.051066574 -0.32223287 0.11935946 0.027939184 -0.02018859 -0.115971796 -0.21344076 -0.1182837 -0.055780146 -0.14301433 0.05825988 -0.17776626 -0.03841971 -0.0749835 -0.07765897 -0.15721036 0.10040948 -0.28144267 -0.19206704 0.15609325 -0.077711955 0.098274775 0.22454746 0.06114049 -0.1434068 0.16008048 0.17058107 -0.08150598 0.03104339 0.053383928 -0.15079239 -0.12016499 -0.18942896 0.0114724245 0.12997639 0.008551785 -0.102614686 0.20174225 0.076177046 0.009147298 -0.32654124 -0.017040912 0.060279574 0.092973165 -0.00049112097 0.045060165 -0.093972474 0.29002556 0.21717602 -0.09917893 0.07711325 -0.19361249 -0.18241493 -0.079772815 0.076544784 0.10926923 -0.023539897 -0.025038946
98 0.062269494 0.21982892 -0.05143295 0.23758532 0.22191802 -0.02607941 -0.029696327 -0.18594833 -0.2024555 0.10233321 0.038954105 0.12319325 0.03707448 0.091949575 0.06622494 -0.22476748 -0.031408433 -0.08955396 -0.010557254 0.19766633 0.023021623 0.014606238 -0.17151053 -0.13152905 0.03356217 0.06816369 -0.17435206 -0.0022504681 0.3094475 -0.06573698 -0.12553278 0.08541659 -0.006305342 0.08959644 -0.009265234 -0.1254141 -0.034566727 -0.21624175 0.16801913 0.007913148 -0.20582642 0.08021144 -0.02544486 -0.34037885 0.07035986 0.029669797 -0.04094461 -0.1275498 -0.19760607 -0.16280629 -0.064275384 -0.11823432 0.057639364 -0.23451692 -0.024539769 -0.11466282 -0.04406958 -0.15318094 0.10725507 -0.30458835 -0.18634814 0.1579064 -0.1113525 0.056992553 0.20550546 0.039528064 -0.17053421 0.14049727 0.22055887 -0.0553572 0.039842494 0.07834625 -0.117729135 -0.10883654 -0.16714735 0.045355782 0.101821296 0.052332994 -0.1220368 0.20216295 0.036882646 0.06021147 -0.35158324 -0.009232686 0.05676482 0.09451739 0.012950156 0.039673932 -0.09114655 0.26684627 0.2703858 -0.08496932 0.030084565 -0.22577548 -0.17123027 -0.09420428 0.102125905 0.112049446 0.0012913774 -0.012147419
27 0.04205794 0.20341009 -0.036806554 0.24629855 0.21107832 0.005502187 0.011734379 -0.15474635 -0.22288367 0.075186715 0.042852998 0.13413501 0.01326866 0.105831325 0.045512497 -0.23885223 -0.0679248 -0.08144407 -0.01637586 0.157425 0.0510155 0.010432744 -0.17326249 -0.11864425 0.03753827 0.09180427 -0.20808236 -0.057052355 0.31259343 -0.10182656 -0.10727938 0.07733151 -0.017271308 0.1280016 -0.015977824 -0.14523514 -0.0785918 -0.16498475 0.12851717 0.018184997 -0.14209452 0.076906234 -0.060855463 -0.320519 0.13650687 0.052593466 0.018262064 -0.10587886 -0.21636058 -0.12851831 -0.065443195 -0.124285504 0.057911333 -0.16567805 -0.044716027 -0.11798431 -0.085974365 -0.16316016 0.13132606 -0.30938473 -0.18846531 0.13560952 -0.082053326 0.0785603 0.23428144 0.036839828 -0.1210291 0.17210045 0.1583578 -0.08964202 0.021484485 0.04875454 -0.15160777 -0.10632549 -0.19931702 0.024573043 0.12664405 -0.007229707 -0.10346776 0.1607987 0.07423397 -0.009323174 -0.34432966 -0.021097226 0.05593066 0.10869028 0.013390669 0.038179725 -0.092687085 0.28704858 0.24294661 -0.07972757 0.08349149 -0.17124766 -0.192042 -0.06543969 0.069191925 0.14337176 -0.021516858 -0.038510423
52 0.029211853 0.20940213 -0.033945393 0.21409428 0.24044207 0.006404262 -0.02105349 -0.15095635 -0.22267176 0.05966353 0.052227214 0.13754308 -0.0034233795 0.113233544 0.040409468 -0.2378873 -0.06130137 -0.0720096 -0.016327279 0.17627835 0.03983742 0.024652567 -0.18959443 -0.11700084 0.037838686 0.096372485 -0.17573975 -0.074651085 0.32745844 -0.070201166 -0.12442072 0.06610669 0.0021499323 0.12805818 -0.031428657 -0.15653607 -0.043221366 -0.15945259 0.11427081 0.026276154 -0.1399008 0.050045505 -0.057464264 -0.33560258 0.13308875 0.04916868 0.030554108 -0.09829707 -0.24045783 -0.14762086 -0.055054948 -0.14737527 0.05824887 -0.19914775 -0.01867433 -0.10753953 -0.08623834 -0.14440164 0.14581116 -0.3218986 -0.2028352 0.106831856 -0.09274107 0.078465246 0.24273299 0.07552087 -0.14059275 0.14628097 0.13038416 -0.06706008 0.019886961 0.06528031 -0.15334044 -0.09836399 -0.19371057 -0.0009177994 0.117188975 -0.015592522 -0.1026329 0.15303455 0.09066695 0.004889746 -0.36130458 -0.016924867 0.062184025 0.13000421 0.00920042 0.05818542 -0.08625994 0.29180565 0.20792109 -0.050379727 0.09632949 -0.1679763 -0.18083741 -0.080314115 0.040190063 0.12911062 -0.03496167 -0.04137058
5 0.07844115 0.20228902 -0.042655677 0.23678194 0.21241824 0.000113594295 -0.014574134 -0.18184945 -0.16950703 0.09025208 0.016421007 0.101076506 0.036906663 0.15741949 0.0613889 -0.21156533 -0.03157018 -0.12453145 -0.022288984 0.21367519 -0.041128527 0.0133798225 -0.19129212 -0.082390144 0.0011278876 0.109495096 -0.13820514 -0.045650046 0.29456717 -0.06777756 -0.12442335 0.07076848 -0.03198756 0.08522241 -0.053802736 -0.15120319 -0.008851289 -0.25245965 0.16970564 0.050975256 -0.22780809 0.013717365 -0.02246827 -0.35923654 0.07590982 -0.014274249 -0.036356248 -0.114661284 -0.19197796 -0.1541938 -0.049693957 -0.13580936 0.08117842 -0.19725867 -0.023308987 -0.08470156 -0.051705036 -0.112610616 0.1079304 -0.2764104 -0.19760254 0.17118537 -0.10052132 0.08253806 0.1824628 0.04478742 -0.14754617 0.14500251 0.2132516 -0.03337806 0.031941295 0.058884412 -0.13179345 -0.12135025 -0.17328136 -0.00078883686 0.09232477 0.067711666 -0.13084461 0.23024732 0.06594024 0.037393868 -0.37369397 0.0019214394 0.06365957 0.08911362 0.021041617 0.03976496 -0.060779836 0.27844647 0.23742963 -0.0730963 0.033636976 -0.21292017 -0.16081427 -0.10006497 0.10574329 0.09445825 -0.011175622 -0.04949364
65 0.049502432 0.21328971 -0.0030478688 0.2536737 0.21453607 -0.030209554 -0.029745538 -0.18522482 -0.22540843 0.06606515 0.027518552 0.08014238 0.026535608 0.11468968 0.063474946 -0.2527323 -0.01666146 -0.08726162 0.0073226863 0.22559151 0.010827042 -0.010332891 -0.15200202 -0.12423511 -0.0024613703 0.03551978 -0.12640896 -0.003898886 0.29353034 -0.049514517 -0.14237754 0.08404479 0.0015845255 0.11673117 0.00039473985 -0.1612337 -0.0036086587 -0.26661372 0.18110774 0.043779206 -0.21991453 0.061190937 -0.04494256 -0.32663587 0.09822006 0.030637532 -0.03515383 -0.14880085 -0.22523119 -0.1557568 -0.04719176 -0.11741302 0.061869524 -0.23504509 -0.020521957 -0.08214408 -0.059056155 -0.11837591 0.14164244 -0.27999428 -0.20240559 0.18545082 -0.11496472 0.0625046 0.23717172 0.07317831 -0.21270044 0.14576966 0.19386192 -0.0066533047 -0.018923039 0.11173783 -0.122286 -0.11603008 -0.1609268 0.043261785 0.1162773 0.07705722 -0.118258536 0.20200261 0.022659589 0.07929172 -0.3540665 0.027388142 0.08405883 0.10403851 0.04631111 0.061319247 -0.10865149 0.26073068 0.24894623 -0.0734151 0.030225659 -0.26024398 -0.17232744 -0.08296346 0.07433849 0.11621029 -0.024470896 0.0050729094
72 0.035184328 0.23530202 -0.037642956 0.23781039 0.24122281 0.0057979417 -0.013828746 -0.13227282 -0.22543542 0.06444128 0.048785962 0.1295809 0.0021556274 0.12274921 0.030652259 -0.21865007 -0.07480469 -0.08028708 -0.007835028 0.14940526 0.07693418 0.042693783 -0.18865214 -0.13231438 0.014365466 0.09053696 -0.20647538 -0.079105206 0.332487 -0.092405155 -0.104647174 0.072655074 -0.018886462 0.13718317 -0.031776212 -0.1433805 -0.06800089 -0.15403433 0.097426996 0.040160373 -0.11195793 0.056413714 -0.049831696 -0.3272798 0.14746512 0.038979955 0.029249584 -0.10605187 -0.23245753 -0.15304524 -0.068136446 -0.12266031 0.043695815 -0.18243422 -0.04889492 -0.11236302 -0.100400805 -0.18949378 0.124520056 -0.30901146 -0.1995599 0.13732314 -0.10167019 0.09532137 0.24292496 0.050841916 -0.11221649 0.1753785 0.14273888 -0.10755126 0.0396208 0.04028608 -0.17699681 -0.10383413 -0.19386785 0.012746594 0.13240485 -0.036714353 -0.101515606 0.17088392 0.11145548 -0.009834231 -0.3561864 -0.025192702 0.051339522 0.117967024 0.00698567 0.040566873 -0.10186681 0.2892712 0.21042895 -0.09345875 0.09717045 -0.1561207 -0.19838345 -0.06678854 0.06022914 0.13062955 -0.033820257 -0.03286747
